solver_type L2R_L2LOSS_SVC_DUAL
nr_class 2
label 1 2
nr_feature 28992
bias -1
w
-0.001912066780224613 
-0.0002361384299443385 
-0.001906257213281005 
0 
-0.001912066780224613 
0.0002361384299443385 
-0.003340917013254566 
0.001758212148964036 
-0.005098438650242782 
0 
-0.003340917013254566 
-0.001758212148964036 
-0.003482564819822143 
0.0005455166248161428 
-0.004661555793225233 
0 
-0.003482564819822143 
-0.0005455166248161428 
-0.006740564135389881 
0.002355232201823742 
-0.01027660225433088 
0 
-0.006740564135389881 
-0.002355232201823742 
-0.002116664285973378 
0.00268990573582816 
-0.004549995411254641 
0 
-0.002116664285973378 
-0.00268990573582816 
-0.001503475958080409 
7.27413595708223e-05 
-0.001541551497902506 
0 
-0.001503475958080409 
-7.27413595708223e-05 
0.0007016551339995038 
-0.000584084859705552 
0.001487241068394596 
0 
0.0007016551339995038 
0.000584084859705552 
-0.001183288881031012 
0.001276286067253411 
-0.002654729605848676 
0 
-0.001183288881031012 
-0.001276286067253411 
5.087552565122597e-05 
-9.42039896623531e-05 
0.0003039403994676116 
0 
5.087552565122597e-05 
9.42039896623531e-05 
-0.001148446120403374 
-0.0001843936178525811 
-0.000922495101364926 
0 
-0.001148446120403374 
0.0001843936178525811 
-0.003667224353177461 
-3.248642540902796e-05 
-0.004072268534747802 
0 
-0.003667224353177461 
3.248642540902796e-05 
0.002219138378979405 
-0.000395129509637877 
0.004312101052412083 
0 
0.002219138378979405 
0.000395129509637877 
0.0004761401900290004 
0.0001863227537306883 
0.002250286810001449 
0 
0.0004761401900290004 
-0.0001863227537306883 
-0.001125657275590964 
-0.0004759326605103209 
-0.0001042646892640662 
0 
-0.001125657275590964 
0.0004759326605103209 
-0.002366247754552476 
0.0004670435037430493 
-0.003116410741928065 
0 
-0.002366247754552476 
-0.0004670435037430493 
-0.002168980769611274 
-0.0003150961496271733 
-0.002018847016402864 
0 
-0.002168980769611274 
0.0003150961496271733 
-0.003265800297918394 
0.001109547768664675 
-0.004603270366965648 
0 
-0.003265800297918394 
-0.001109547768664675 
-5.740714676529343e-05 
0.0007918439136618344 
-0.0005172332615560114 
0 
-5.740714676529343e-05 
-0.0007918439136618344 
-0.0004640477929997704 
0.0007713881417459604 
-0.0003633392345402775 
0 
-0.0004640477929997704 
-0.0007713881417459604 
-0.007431654570015748 
0.003074267095852633 
-0.01099695851049698 
0 
-0.007431654570015748 
-0.003074267095852633 
-0.001502628340317396 
0.001637819325995046 
-0.002898633994991522 
0 
-0.001502628340317396 
-0.001637819325995046 
-0.003550190746992807 
0.0002463786652413 
-0.003550302777951746 
0 
-0.003550190746992807 
-0.0002463786652413 
0.0007537120059080186 
0.0004890002648783125 
0.0009640131628824316 
0 
0.0007537120059080186 
-0.0004890002648783125 
-0.001058133051696777 
0.002517756550730982 
-0.003298928867477889 
0 
-0.001058133051696777 
-0.002517756550730982 
-0.003885558346025085 
0.001424615724605932 
-0.00611315017781714 
0 
-0.003885558346025085 
-0.001424615724605932 
-0.001571337097177212 
-0.0004268271443135636 
-0.001211688056852454 
0 
-0.001571337097177212 
0.0004268271443135636 
-0.005549616820061918 
0.001231555393225056 
-0.007202078427082629 
0 
-0.005549616820061918 
-0.001231555393225056 
0.002279846912405759 
0.0003702462497521885 
0.004475955613902341 
0 
0.002279846912405759 
-0.0003702462497521885 
-4.451904907785491e-05 
-2.960550081148223e-05 
0.0003295619418670525 
0 
-4.451904907785491e-05 
2.960550081148223e-05 
-0.003406753215558585 
-0.0002445781117946058 
-0.002103225024917643 
0 
-0.003406753215558585 
0.0002445781117946058 
-0.002167282942663084 
-0.001102110942384958 
-0.001130832492505285 
0 
-0.002167282942663084 
0.001102110942384958 
-0.003084990748013929 
-0.000163023135896409 
-0.004034642345833919 
0 
-0.003084990748013929 
0.000163023135896409 
-0.003603082248956183 
0.00247033157458265 
-0.006527089695211621 
0 
-0.003603082248956183 
-0.00247033157458265 
-0.003498337375776173 
0.002179828871999906 
-0.005329879363989436 
0 
-0.003498337375776173 
-0.002179828871999906 
-0.0003998741982162335 
4.296687097412006e-06 
-0.00030267234995142 
0 
-0.0003998741982162335 
-4.296687097412006e-06 
-0.005817223257751625 
0.001551477940330976 
-0.007977399891910082 
0 
-0.005817223257751625 
-0.001551477940330976 
-0.001130674556383718 
0.001018422921391874 
-0.002554909316514265 
0 
-0.001130674556383718 
-0.001018422921391874 
-0.0007360135835985883 
-0.0007677893236678856 
0.0006761868498866644 
0 
-0.0007360135835985883 
0.0007677893236678856 
-0.001238677148381972 
-0.001182304907276683 
0.0007531782069821222 
0 
-0.001238677148381972 
0.001182304907276683 
-0.001248573817752738 
0.001065311801384952 
-0.002232331961579497 
0 
-0.001248573817752738 
-0.001065311801384952 
-0.001012688011281045 
-0.0006108642956909039 
-0.0006934032954777968 
0 
-0.001012688011281045 
0.0006108642956909039 
-0.00270979269021539 
0.0004470887222822857 
-0.002977703915387648 
0 
-0.00270979269021539 
-0.0004470887222822857 
-0.004479269368780306 
0.0010664238158113 
-0.006110739706791428 
0 
-0.004479269368780306 
-0.0010664238158113 
0.003190994364831157 
0.0005763147335112916 
0.005342458966824704 
0 
0.003190994364831157 
-0.0005763147335112916 
0.001410666144301489 
-0.000947545386282569 
0.003066802464955547 
0 
0.001410666144301489 
0.000947545386282569 
-0.002720381642951456 
0.0008691575816084124 
-0.003464611113927596 
0 
-0.002720381642951456 
-0.0008691575816084124 
-0.002301612431681966 
0.0006180044906848218 
-0.002927447210296646 
0 
-0.002301612431681966 
-0.0006180044906848218 
-0.002439935369341118 
0.001889183058137388 
-0.00527822688616682 
0 
-0.002439935369341118 
-0.001889183058137388 
-0.0008738896479519824 
0.0008134893157138466 
-0.001686738875843911 
0 
-0.0008738896479519824 
-0.0008134893157138466 
-0.000966463203554653 
-8.83609335255797e-05 
0.0003290173302774172 
0 
-0.000966463203554653 
8.83609335255797e-05 
-0.0005219029823463674 
4.439675680611406e-05 
-0.0005421646786855192 
0 
-0.0005219029823463674 
-4.439675680611406e-05 
-0.003593602335027172 
0.002452696666190811 
-0.006765301375639484 
0 
-0.003593602335027172 
-0.002452696666190811 
-0.002104629367340552 
0.002456022998441059 
-0.004651939484699392 
0 
-0.002104629367340552 
-0.002456022998441059 
-0.001432817151353462 
0.0004150405389358795 
-0.00161163971909855 
0 
-0.001432817151353462 
-0.0004150405389358795 
0.0004151588169591408 
0.00037591274713613 
0.0008455118006512101 
0 
0.0004151588169591408 
-0.00037591274713613 
-0.0002908287487362884 
-0.000269392953078434 
0.0001524136489473788 
0 
-0.0002908287487362884 
0.000269392953078434 
-0.001333644468510177 
-0.0005435813828505915 
-0.0009057525888765277 
0 
-0.001333644468510177 
0.0005435813828505915 
-0.004887876279227889 
0.0004596547689415488 
-0.006264217622821142 
0 
-0.004887876279227889 
-0.0004596547689415488 
-0.001992555428901832 
0.001141221451404527 
-0.00390336265206696 
0 
-0.001992555428901832 
-0.001141221451404527 
0.001890060810255115 
0.0009731446257105959 
0.00240929894080889 
0 
0.001890060810255115 
-0.0009731446257105959 
-0.0005337709768023093 
-0.0005295345365348523 
0.0001546386802616077 
0 
-0.0005337709768023093 
0.0005295345365348523 
-0.002537642723004619 
0.000351341208222183 
-0.00193537176908103 
0 
-0.002537642723004619 
-0.000351341208222183 
-0.002870589592639501 
8.852735425393225e-05 
-0.002300062412424687 
0 
-0.002870589592639501 
-8.852735425393225e-05 
-0.004515767005814716 
0.0004751288733640793 
-0.005439436515659856 
0 
-0.004515767005814716 
-0.0004751288733640793 
-0.002907832186779979 
0.001213084937142444 
-0.004142901987925779 
0 
-0.002907832186779979 
-0.001213084937142444 
-0.001917440418136233 
0.0009181275931124291 
-0.001508680638021544 
0 
-0.001917440418136233 
-0.0009181275931124291 
0.0001698819360815278 
-0.0004154095566698886 
0.001887902450672613 
0 
0.0001698819360815278 
0.0004154095566698886 
-0.003007271839678373 
0.002140515305582313 
-0.005655364049892191 
0 
-0.003007271839678373 
-0.002140515305582313 
-0.004481897303992829 
0.002176625437220309 
-0.007570653662250845 
0 
-0.004481897303992829 
-0.002176625437220309 
-0.003011386676038918 
0.0008904032628905108 
-0.003465409042514149 
0 
-0.003011386676038918 
-0.0008904032628905108 
-0.001170617177312994 
0.001240779042741535 
-0.002086927500066723 
0 
-0.001170617177312994 
-0.001240779042741535 
-0.0008156462807185506 
0.001406160121302562 
-0.001463369261159505 
0 
-0.0008156462807185506 
-0.001406160121302562 
0.0002397176323543121 
0.0006064338675799212 
0.0003281341971044888 
0 
0.0002397176323543121 
-0.0006064338675799212 
-0.001272497722169755 
-0.0004925931443412152 
-0.001304436174979284 
0 
-0.001272497722169755 
0.0004925931443412152 
-0.003912612611211682 
-0.0004369683213110971 
-0.00362900277263442 
0 
-0.003912612611211682 
0.0004369683213110971 
-0.0009931474520595157 
0.001265575853363737 
-0.001468886275286314 
0 
-0.0009931474520595157 
-0.001265575853363737 
0.0008284132894220051 
-0.000995255764347487 
0.001513885152766881 
0 
0.0008284132894220051 
0.000995255764347487 
-0.002523464344513103 
0.0006208388153758267 
-0.002772821298177743 
0 
-0.002523464344513103 
-0.0006208388153758267 
-0.002928237137677193 
0.001905692311470854 
-0.004883094040566417 
0 
-0.002928237137677193 
-0.001905692311470854 
-0.003567214104288609 
0.002819802821260857 
-0.006949835396703277 
0 
-0.003567214104288609 
-0.002819802821260857 
0.0005647047115491796 
-0.0006206371785572954 
0.001797504987137615 
0 
0.0005647047115491796 
0.0006206371785572954 
-0.001032684255820218 
-7.879722342452827e-05 
-3.905638688389422e-05 
0 
-0.001032684255820218 
7.879722342452827e-05 
-0.0001992962837790184 
-0.0008202296761590787 
0.0007240621629073444 
0 
-0.0001992962837790184 
0.0008202296761590787 
-0.004160915881824096 
0.001490540404124027 
-0.005068345131849509 
0 
-0.004160915881824096 
-0.001490540404124027 
-0.00352518405863289 
0.002299549983342682 
-0.00672289707758813 
0 
-0.00352518405863289 
-0.002299549983342682 
-0.003243689923427934 
0.0006650635102600301 
-0.003932219776572052 
0 
-0.003243689923427934 
-0.0006650635102600301 
-0.001790164148448839 
0.0001347468334319031 
-0.002206302243688243 
0 
-0.001790164148448839 
-0.0001347468334319031 
0.001825014229541259 
-0.0006315231706695349 
0.001850886627427121 
0 
0.001825014229541259 
0.0006315231706695349 
0.00166915258261149 
0.0005736265434107466 
0.00144176354329145 
0 
0.00166915258261149 
-0.0005736265434107466 
0.0006030499500777876 
0.0002516745529300532 
0.0001449418306320654 
0 
0.0006030499500777876 
-0.0002516745529300532 
-0.003757760424725892 
-0.0001878167301715876 
-0.003776128962718696 
0 
-0.003757760424725892 
0.0001878167301715876 
-0.0007902771369520518 
0.000192568897986231 
-0.0009318643572790999 
0 
-0.0007902771369520518 
-0.000192568897986231 
0.0008042785929311239 
-0.0004153042766858792 
0.001115756922964407 
0 
0.0008042785929311239 
0.0004153042766858792 
-0.0009775303297909405 
6.466990400566453e-05 
-0.0006648239853093582 
0 
-0.0009775303297909405 
-6.466990400566453e-05 
0.0005731912692844804 
-0.0002753475327930803 
0.002372751721227885 
0 
0.0005731912692844804 
0.0002753475327930803 
0.0001731115620060828 
-0.0009690973528294968 
0.001746757937691046 
0 
0.0001731115620060828 
0.0009690973528294968 
-0.002060658762393803 
0.0005683849840141793 
-0.00227633964879481 
0 
-0.002060658762393803 
-0.0005683849840141793 
8.874458311656898e-05 
-0.0009247336933261153 
0.001477145553211095 
0 
8.874458311656898e-05 
0.0009247336933261153 
-0.001648294095122184 
-0.001699494577715573 
-0.0004784773903937326 
0 
-0.001648294095122184 
0.001699494577715573 
-0.005116816477297434 
0.0015767687704183 
-0.006502239184307551 
0 
-0.005116816477297434 
-0.0015767687704183 
-0.003107367798685448 
0.001985608305567849 
-0.005761561596966456 
0 
-0.003107367798685448 
-0.001985608305567849 
-0.0006656284703962847 
-0.0002748163765817947 
-0.0002645926185921158 
0 
-0.0006656284703962847 
0.0002748163765817947 
0.001295468677142335 
-0.002331658571763766 
0.003913027094146001 
0 
0.001295468677142335 
0.002331658571763766 
-0.0007151164838085265 
0.0003608720400665389 
-0.001411347456053097 
0 
-0.0007151164838085265 
-0.0003608720400665389 
0.000708946346467092 
0.0007600476261612868 
0.0004061735352446339 
0 
0.000708946346467092 
-0.0007600476261612868 
-0.001714184492075757 
-0.00120379396378402 
-0.0008296087575118819 
0 
-0.001714184492075757 
0.00120379396378402 
-0.003949598002938919 
-0.0002381186628071576 
-0.004510230655344121 
0 
-0.003949598002938919 
0.0002381186628071576 
-0.0003891532433689629 
0.001861131066333797 
-0.0007992265826464024 
0 
-0.0003891532433689629 
-0.001861131066333797 
6.696227070964071e-05 
-0.0004562768898127985 
0.0006964808693721361 
0 
6.696227070964071e-05 
0.0004562768898127985 
-0.002574613849057909 
0.0004344600251928639 
-0.002698192397609297 
0 
-0.002574613849057909 
-0.0004344600251928639 
-0.0005957290956753476 
-0.0008476369620515843 
0.001440564432123728 
0 
-0.0005957290956753476 
0.0008476369620515843 
-0.001393527663637422 
0.0005096651012600165 
-0.001835890035130715 
0 
-0.001393527663637422 
-0.0005096651012600165 
-0.002115077624649464 
0.0006532765556129332 
-0.003319708538841798 
0 
-0.002115077624649464 
-0.0006532765556129332 
-0.002042013473327146 
0.0007546775621004968 
-0.002771285055634387 
0 
-0.002042013473327146 
-0.0007546775621004968 
-0.0001411877413307976 
0.00117980969040467 
-0.001129626431484505 
0 
-0.0001411877413307976 
-0.00117980969040467 
-0.003607749754752939 
0.001315499699184102 
-0.005367354420812097 
0 
-0.003607749754752939 
-0.001315499699184102 
-0.003769672823719276 
0.003958729423881151 
-0.008270858917545377 
0 
-0.003769672823719276 
-0.003958729423881151 
-0.002345915668228668 
0.00060806783761328 
-0.003392192610823899 
0 
-0.002345915668228668 
-0.00060806783761328 
0.001340578709908213 
-0.0005287313097953825 
0.002146422951772661 
0 
0.001340578709908213 
0.0005287313097953825 
0.001957476708635331 
-5.925911449066343e-05 
0.003817887398496073 
0 
0.001957476708635331 
5.925911449066343e-05 
-0.001897462091139301 
-0.0006670350358846876 
-0.002902314323749511 
0 
-0.001897462091139301 
0.0006670350358846876 
-0.003279116648661235 
9.526395808513611e-06 
-0.003405805147964821 
0 
-0.003279116648661235 
-9.526395808513611e-06 
-0.00272437535532644 
0.00138704831530617 
-0.003382460229755993 
0 
-0.00272437535532644 
-0.00138704831530617 
0.001179069982715403 
0.000778802031710858 
0.0009939556061989653 
0 
0.001179069982715403 
-0.000778802031710858 
0.000368588456652828 
0.0009580868442842365 
-0.0006654349924224666 
0 
0.000368588456652828 
-0.0009580868442842365 
-0.00358818482398308 
0.001843288686714325 
-0.006541026216073885 
0 
-0.00358818482398308 
-0.001843288686714325 
-0.00224408359237329 
0.0009444149744162744 
-0.003698411069407313 
0 
-0.00224408359237329 
-0.0009444149744162744 
0.002578360511535579 
0.001170222599800928 
0.002410533930803913 
0 
0.002578360511535579 
-0.001170222599800928 
-0.001187756348069506 
0.0003696895854583518 
-0.001640313167933359 
0 
-0.001187756348069506 
-0.0003696895854583518 
-0.003693771080427291 
0.0001463063811825124 
-0.003913125949524446 
0 
-0.003693771080427291 
-0.0001463063811825124 
-0.001217467498181397 
0.001081645710058706 
-0.001717827062111141 
0 
-0.001217467498181397 
-0.001081645710058706 
-0.006517854096486073 
0.003013374567277232 
-0.0100491341463046 
0 
-0.006517854096486073 
-0.003013374567277232 
-0.003993912096773089 
0.003597397609464908 
-0.007377415867657835 
0 
-0.003993912096773089 
-0.003597397609464908 
-0.004569991497578411 
-0.000125389527127641 
-0.004109594194444246 
0 
-0.004569991497578411 
0.000125389527127641 
-0.003298348966945631 
-0.0009393697793515939 
-0.002341322445546511 
0 
-0.003298348966945631 
0.0009393697793515939 
0.001168603818588692 
-0.001357689304994746 
0.003731205986923288 
0 
0.001168603818588692 
0.001357689304994746 
0.001615412158168572 
-0.001960386388580434 
0.004207024229639853 
0 
0.001615412158168572 
0.001960386388580434 
-0.001142254128645684 
-0.001205580762239585 
0.0009664051615654269 
0 
-0.001142254128645684 
0.001205580762239585 
-0.004573689941394873 
0.001265876140277297 
-0.006140482990339635 
0 
-0.004573689941394873 
-0.001265876140277297 
0.003294544012451936 
0.002102679013003489 
0.003269466787987595 
0 
0.003294544012451936 
-0.002102679013003489 
0.001661195172082019 
0.001192932492052697 
0.0001798667716032967 
0 
0.001661195172082019 
-0.001192932492052697 
-0.004148210860168522 
0.002221609070454986 
-0.00681351054740229 
0 
-0.004148210860168522 
-0.002221609070454986 
-0.002751188536784388 
0.001493782841322588 
-0.004990398532833542 
0 
-0.002751188536784388 
-0.001493782841322588 
0.00032315911027972 
0.001139303302575343 
-0.001217330756561471 
0 
0.00032315911027972 
-0.001139303302575343 
-0.001142162586788256 
0.003089554491032531 
-0.002580901437851045 
0 
-0.001142162586788256 
-0.003089554491032531 
-0.003360890464196339 
0.0009002828966610937 
-0.003781076120824926 
0 
-0.003360890464196339 
-0.0009002828966610937 
-0.001469257982858874 
0.0005615330891965754 
-0.001444736856716998 
0 
-0.001469257982858874 
-0.0005615330891965754 
-0.006841024016563686 
0.002605088481131601 
-0.009252770733822606 
0 
-0.006841024016563686 
-0.002605088481131601 
-0.00453856737064029 
0.003108805608843198 
-0.007014176252390734 
0 
-0.00453856737064029 
-0.003108805608843198 
-0.001275409511961788 
0.001392543502779084 
-0.002426976409344743 
0 
-0.001275409511961788 
-0.001392543502779084 
-0.0007065896822446514 
0.0008046210624723371 
-0.0008139152972367463 
0 
-0.0007065896822446514 
-0.0008046210624723371 
-0.001439994914341168 
0.0001266894254911806 
-0.001346362916324401 
0 
-0.001439994914341168 
-0.0001266894254911806 
-0.002802053465102889 
-0.0006605858915836041 
-0.003470774906910697 
0 
-0.002802053465102889 
0.0006605858915836041 
-0.003818368991378192 
0.0002405351476624118 
-0.003520379731699951 
0 
-0.003818368991378192 
-0.0002405351476624118 
-0.004344996202848783 
0.001560724722453751 
-0.005194673325014731 
0 
-0.004344996202848783 
-0.001560724722453751 
0.005302379103300461 
0.002405259613306369 
0.006345505512799382 
0 
0.005302379103300461 
-0.002405259613306369 
0.001768741301418038 
0.001512726253431838 
0.001136655976172898 
0 
0.001768741301418038 
-0.001512726253431838 
-0.005978516950334294 
0.002150022424450011 
-0.008353727457898256 
0 
-0.005978516950334294 
-0.002150022424450011 
-0.006140376157156692 
0.002108588319687821 
-0.008309674158946186 
0 
-0.006140376157156692 
-0.002108588319687821 
-0.00786300861462636 
0.001413636930408608 
-0.01142686524366531 
0 
-0.00786300861462636 
-0.001413636930408608 
-0.001408944355036583 
-0.0001426713667619913 
-0.002106066469003125 
0 
-0.001408944355036583 
0.0001426713667619913 
-0.0003301957280157215 
-0.0006980373211738961 
0.0005355862607687987 
0 
-0.0003301957280157215 
0.0006980373211738961 
0.00244287105619263 
-0.00034279431774256 
0.003307028424618713 
0 
0.00244287105619263 
0.00034279431774256 
-0.003016742268331633 
0.001907259711150938 
-0.005450150272441992 
0 
-0.003016742268331633 
-0.001907259711150938 
0.00302000964850219 
0.0006029818642906511 
0.003207152200599964 
0 
0.00302000964850219 
-0.0006029818642906511 
-0.0005167254427870618 
-0.001651138839499263 
0.001191975101444765 
0 
-0.0005167254427870618 
0.001651138839499263 
0.003424014987300228 
-0.001811050073872962 
0.005399260764536304 
0 
0.003424014987300228 
0.001811050073872962 
-0.005324665456116257 
-0.0002686435677709583 
-0.006810630158705224 
0 
-0.005324665456116257 
0.0002686435677709583 
-0.0004600841889816353 
-0.000686824251053889 
-0.0008261941126705676 
0 
-0.0004600841889816353 
0.000686824251053889 
0.002899513650218505 
-0.001967931474327867 
0.005168869072776019 
0 
0.002899513650218505 
0.001967931474327867 
7.085177224221878e-05 
-0.000659247371027577 
7.143975548797496e-05 
0 
7.085177224221878e-05 
0.000659247371027577 
0.001138171723210176 
-0.002134320669546817 
0.003669620626680305 
0 
0.001138171723210176 
0.002134320669546817 
-0.003578328517105826 
0.0005731913741432581 
-0.005250934844100205 
0 
-0.003578328517105826 
-0.0005731913741432581 
0.0008783347110360335 
-0.002400696212866219 
0.003769584861643166 
0 
0.0008783347110360335 
0.002400696212866219 
0.0003885970460335638 
-0.001938178920110592 
0.003231512575732337 
0 
0.0003885970460335638 
0.001938178920110592 
-0.001735332493617805 
0.001221716545252602 
-0.002569622312806229 
0 
-0.001735332493617805 
-0.001221716545252602 
-0.00277714240467248 
0.001168526450809217 
-0.003522360265324129 
0 
-0.00277714240467248 
-0.001168526450809217 
-0.002593765977827974 
0.0003191859205260338 
-0.003237355176366811 
0 
-0.002593765977827974 
-0.0003191859205260338 
-6.987304839552652e-05 
-0.0002086653307455596 
0.000479876665152572 
0 
-6.987304839552652e-05 
0.0002086653307455596 
-0.001915947676817182 
-5.061982901055814e-05 
-0.002464618868647544 
0 
-0.001915947676817182 
5.061982901055814e-05 
0.0002426986279586285 
0.0009019679031289133 
-0.001101281511615473 
0 
0.0002426986279586285 
-0.0009019679031289133 
-0.001430884711330237 
-0.001280284739997199 
-0.001478815746793619 
0 
-0.001430884711330237 
0.001280284739997199 
0.0006610402434995849 
0.0005533814248048998 
-5.477592665650202e-05 
0 
0.0006610402434995849 
-0.0005533814248048998 
-0.0006602378707477902 
0.002428922640109807 
-0.002121619186206629 
0 
-0.0006602378707477902 
-0.002428922640109807 
-0.004590130080117907 
0.001266239099924686 
-0.007902193949764779 
0 
-0.004590130080117907 
-0.001266239099924686 
-0.0006513640292923392 
0.0008488608337018729 
-0.00263501063174354 
0 
-0.0006513640292923392 
-0.0008488608337018729 
-0.002307822870892451 
0.0007764155780575143 
-0.002863310977187264 
0 
-0.002307822870892451 
-0.0007764155780575143 
-0.0004988974351226587 
-0.000106139787568271 
-0.000135859380406393 
0 
-0.0004988974351226587 
0.000106139787568271 
-0.002775420998972182 
-0.0009867095117543276 
-0.001977788469778446 
0 
-0.002775420998972182 
0.0009867095117543276 
-0.0002619936575496093 
-0.001401982502242747 
0.00178415853759846 
0 
-0.0002619936575496093 
0.001401982502242747 
-0.0002529450064383719 
0.0002888730563879942 
0.0006116196237072898 
0 
-0.0002529450064383719 
-0.0002888730563879942 
-0.0009246444369936257 
0.0006262963521244525 
-0.001313974671432513 
0 
-0.0009246444369936257 
-0.0006262963521244525 
-0.001998273191063389 
0.002456262245979292 
-0.005576515683505902 
0 
-0.001998273191063389 
-0.002456262245979292 
-0.003887763506097484 
0.00335170989537913 
-0.007021649248213176 
0 
-0.003887763506097484 
-0.00335170989537913 
-0.007252042000726003 
0.001956618563058448 
-0.009801440760590075 
0 
-0.007252042000726003 
-0.001956618563058448 
-0.004475250423765108 
0.001287565646565274 
-0.005842041563990006 
0 
-0.004475250423765108 
-0.001287565646565274 
-0.003062543029920063 
-0.0006244404568712918 
-0.003433471710912672 
0 
-0.003062543029920063 
0.0006244404568712918 
9.036611809798535e-05 
0.0006426159852405764 
-0.001014729236253828 
0 
9.036611809798535e-05 
-0.0006426159852405764 
0.001294406117539758 
0.001218675706553715 
0.0002647685182103279 
0 
0.001294406117539758 
-0.001218675706553715 
0.0007717827652118026 
0.002698602908210968 
-0.001342707147793904 
0 
0.0007717827652118026 
-0.002698602908210968 
-0.004515992167741401 
0.001766169321214252 
-0.006179470356665758 
0 
-0.004515992167741401 
-0.001766169321214252 
-0.006490372070540663 
0.003109158359595346 
-0.009993926510480623 
0 
-0.006490372070540663 
-0.003109158359595346 
-0.005424524074916852 
0.003740405306634243 
-0.00995563298175357 
0 
-0.005424524074916852 
-0.003740405306634243 
-0.004668492001855845 
0.001512098416640614 
-0.005844577083973067 
0 
-0.004668492001855845 
-0.001512098416640614 
-0.004339538291937825 
0.0005873282613614686 
-0.004927893267467727 
0 
-0.004339538291937825 
-0.0005873282613614686 
0.002220301756584266 
-0.001087457441082582 
0.003518245425230285 
0 
0.002220301756584266 
0.001087457441082582 
-0.000476151756156079 
0.000281176974389759 
0.0001250907138505661 
0 
-0.000476151756156079 
-0.000281176974389759 
0.001051514625453226 
0.001150189978786126 
5.61497241811306e-05 
0 
0.001051514625453226 
-0.001150189978786126 
-0.005633571608460467 
0.0004173226162617479 
-0.007075647983877079 
0 
-0.005633571608460467 
-0.0004173226162617479 
-0.003813285238324188 
0.001584292993867299 
-0.005231277237636103 
0 
-0.003813285238324188 
-0.001584292993867299 
-0.005702807643198734 
0.001136452225403263 
-0.007547322403855138 
0 
-0.005702807643198734 
-0.001136452225403263 
-0.003260717815994135 
0.0006315635014853506 
-0.00441738671175586 
0 
-0.003260717815994135 
-0.0006315635014853506 
-0.0005538830685309947 
0.001051968127366934 
-0.002331173802169426 
0 
-0.0005538830685309947 
-0.001051968127366934 
0.007145110215370429 
-0.001011665212095556 
0.008616933754290753 
0 
0.007145110215370429 
0.001011665212095556 
0.006095092833827462 
-0.001159010166470121 
0.008124734913382966 
0 
0.006095092833827462 
0.001159010166470121 
-0.003275964863748006 
-0.0002728212629569745 
-0.004467443210492583 
0 
-0.003275964863748006 
0.0002728212629569745 
-0.00314930752703945 
0.001255880571894565 
-0.004823091505954803 
0 
-0.00314930752703945 
-0.001255880571894565 
-0.002359282320241702 
0.001519836892617192 
-0.003761708937114306 
0 
-0.002359282320241702 
-0.001519836892617192 
-0.002541843793691127 
0.001955413070671154 
-0.004031561918751331 
0 
-0.002541843793691127 
-0.001955413070671154 
-0.00464547853398177 
0.0003835302385766729 
-0.005591471639377106 
0 
-0.00464547853398177 
-0.0003835302385766729 
0.000634468956923909 
6.050250873518138e-05 
0.0006399094468589457 
0 
0.000634468956923909 
-6.050250873518138e-05 
0.003897856591850921 
-0.0006865353279859773 
0.005756090838171211 
0 
0.003897856591850921 
0.0006865353279859773 
0.001416594589676429 
1.684705347152818e-05 
0.002607066656128336 
0 
0.001416594589676429 
-1.684705347152818e-05 
-0.004212767634667114 
0.001167656809329564 
-0.00534909346532795 
0 
-0.004212767634667114 
-0.001167656809329564 
-0.003248971792830507 
-0.0006697130793101295 
-0.004233102683100659 
0 
-0.003248971792830507 
0.0006697130793101295 
-0.001791195604084803 
0.0001452474107079372 
-0.001379501002200064 
0 
-0.001791195604084803 
-0.0001452474107079372 
-0.002212857887794645 
-0.001891131609732993 
-0.0003501613284213068 
0 
-0.002212857887794645 
0.001891131609732993 
-0.004247475864980884 
-0.001112975219832438 
-0.004737098694201333 
0 
-0.004247475864980884 
0.001112975219832438 
0.003378231631575686 
-0.002609407283533249 
0.005524103925575261 
0 
0.003378231631575686 
0.002609407283533249 
0.008069689335897299 
-0.001260919838217864 
0.01031111313138573 
0 
0.008069689335897299 
0.001260919838217864 
0.003330859258801393 
0.0002783849582995125 
0.0037053925930492 
0 
0.003330859258801393 
-0.0002783849582995125 
-0.001742315754592793 
-0.001438454911682984 
-0.001954768827206721 
0 
-0.001742315754592793 
0.001438454911682984 
-0.001700867651561142 
-0.001052538589428753 
-0.001949125770337278 
0 
-0.001700867651561142 
0.001052538589428753 
-0.001737233591574178 
0.0006664525784960897 
-0.003299207364628868 
0 
-0.001737233591574178 
-0.0006664525784960897 
-0.002443235574271397 
-0.0002298281060791887 
-0.001747626224974616 
0 
-0.002443235574271397 
0.0002298281060791887 
-0.001775520385175457 
-0.00166641514144407 
-0.0003637765301926037 
0 
-0.001775520385175457 
0.00166641514144407 
0.001289773501151991 
-0.00193396926012513 
0.002698911325233381 
0 
0.001289773501151991 
0.00193396926012513 
0.00817480129037716 
-0.002068607591437189 
0.01161905815781746 
0 
0.00817480129037716 
0.002068607591437189 
0.00623609631121381 
-0.0001283387979661504 
0.007021934058277396 
0 
0.00623609631121381 
0.0001283387979661504 
-0.003857908424252626 
-0.0006569137723347431 
-0.005094990784661688 
0 
-0.003857908424252626 
0.0006569137723347431 
0.007065004771505106 
0.0002388119110102421 
0.008705533403798194 
0 
0.007065004771505106 
-0.0002388119110102421 
-0.0008660899623087473 
-0.0006955788682587567 
-0.0002618236223169423 
0 
-0.0008660899623087473 
0.0006955788682587567 
-0.002896047970333826 
0.0001989379160732457 
-0.003315749546355127 
0 
-0.002896047970333826 
-0.0001989379160732457 
-0.004725266148388419 
-0.0005614503953904419 
-0.003919918024575728 
0 
-0.004725266148388419 
0.0005614503953904419 
-0.003911336644039262 
-0.0001170496637208751 
-0.004681874266240028 
0 
-0.003911336644039262 
0.0001170496637208751 
-0.0009143976346400499 
-0.0001930284683840155 
-2.990291438057395e-06 
0 
-0.0009143976346400499 
0.0001930284683840155 
-0.001803448297397944 
0.0003072164933501986 
-0.002056128492461015 
0 
-0.001803448297397944 
-0.0003072164933501986 
-0.002086798131493008 
-0.00111097438630223 
-0.002743812600320323 
0 
-0.002086798131493008 
0.00111097438630223 
-0.0008788173792951357 
4.168782195377298e-05 
-0.002489653953822282 
0 
-0.0008788173792951357 
-4.168782195377298e-05 
-0.002115894637327681 
-0.0002790364895986528 
-0.001644925670285881 
0 
-0.002115894637327681 
0.0002790364895986528 
-0.003336442244742828 
-0.0002356349076807544 
-0.003677523654626901 
0 
-0.003336442244742828 
0.0002356349076807544 
-0.00593387861673417 
-4.925472918391303e-06 
-0.006917652406093534 
0 
-0.00593387861673417 
4.925472918391303e-06 
-8.633934257377223e-07 
-0.0004883879243988633 
0.0006918272244622488 
0 
-8.633934257377223e-07 
0.0004883879243988633 
0.00237974265299604 
0.0004607798677434608 
0.002604867534596518 
0 
0.00237974265299604 
-0.0004607798677434608 
0.001045136869615719 
0.0015782944889948 
0.0001759996361596071 
0 
0.001045136869615719 
-0.0015782944889948 
-0.0001510032896844889 
-0.00143673297864483 
0.0001496266041525062 
0 
-0.0001510032896844889 
0.00143673297864483 
-0.001545983396901496 
-0.001006512038103266 
-0.0006302317065527781 
0 
-0.001545983396901496 
0.001006512038103266 
-0.002797313662821115 
0.001295344917422527 
-0.00337052779793457 
0 
-0.002797313662821115 
-0.001295344917422527 
-0.004073517923521125 
0.0008043836586581488 
-0.004372930909290836 
0 
-0.004073517923521125 
-0.0008043836586581488 
-0.006062377671586734 
0.00167636084721232 
-0.007316257250328306 
0 
-0.006062377671586734 
-0.00167636084721232 
-0.004883367220830954 
0.0007730699304128024 
-0.006859842680729355 
0 
-0.004883367220830954 
-0.0007730699304128024 
-0.001563250620510719 
-6.158623966524402e-05 
-0.0009604275702202109 
0 
-0.001563250620510719 
6.158623966524402e-05 
-0.004093264426027516 
0.0003865213162412292 
-0.005516329097692821 
0 
-0.004093264426027516 
-0.0003865213162412292 
0.003168914551656712 
0.002065932996908934 
0.002938861105462227 
0 
0.003168914551656712 
-0.002065932996908934 
-0.001888852222795359 
0.001886385903594318 
-0.003747403759047895 
0 
-0.001888852222795359 
-0.001886385903594318 
-0.003437791895730225 
0.001373329766485365 
-0.00477944287766015 
0 
-0.003437791895730225 
-0.001373329766485365 
-0.00337150221279199 
0.0024932427354666 
-0.005460767699454953 
0 
-0.00337150221279199 
-0.0024932427354666 
-0.006524501684625141 
0.0007146375276540088 
-0.007908967556714693 
0 
-0.006524501684625141 
-0.0007146375276540088 
-0.004109901051470117 
-0.000441706089210754 
-0.002408918344210823 
0 
-0.004109901051470117 
0.000441706089210754 
-0.002869015421767636 
0.0008221107486742792 
-0.003179521201290904 
0 
-0.002869015421767636 
-0.0008221107486742792 
0.001673074682698921 
-0.001129466404653821 
0.003286494525073123 
0 
0.001673074682698921 
0.001129466404653821 
0.002734205360727716 
0.0006199888679076648 
0.003507763436881097 
0 
0.002734205360727716 
-0.0006199888679076648 
0.003894205385545646 
-0.0009531176810362822 
0.00499563982362218 
0 
0.003894205385545646 
0.0009531176810362822 
-0.005098484028310295 
0.0006991548792240172 
-0.005690253030599143 
0 
-0.005098484028310295 
-0.0006991548792240172 
-0.005257395956596293 
0.0009023203717527242 
-0.00541404428597099 
0 
-0.005257395956596293 
-0.0009023203717527242 
-0.00283493979187735 
-0.000107961274847366 
-0.002849693404083413 
0 
-0.00283493979187735 
0.000107961274847366 
-0.003030680506830051 
0.001487274162592953 
-0.003900950627002814 
0 
-0.003030680506830051 
-0.001487274162592953 
-0.003553234648263552 
0.0005402492993443793 
-0.003867349723098914 
0 
-0.003553234648263552 
-0.0005402492993443793 
-0.002283283816472803 
0.0006629525823702129 
-0.002775104700219945 
0 
-0.002283283816472803 
-0.0006629525823702129 
-0.001712687063334992 
0.0001803049917214272 
-0.002824558965206404 
0 
-0.001712687063334992 
-0.0001803049917214272 
0.0004464563285006016 
-0.0002950951366598457 
-0.0003494412321802388 
0 
0.0004464563285006016 
0.0002950951366598457 
-0.001301752528755109 
-0.0003094485137630596 
-0.0007887584514942769 
0 
-0.001301752528755109 
0.0003094485137630596 
-0.002053914489609975 
-0.001166612782328289 
-0.0004507525078147324 
0 
-0.002053914489609975 
0.001166612782328289 
-0.005872742839507962 
0.0008973625368481093 
-0.006284098995849456 
0 
-0.005872742839507962 
-0.0008973625368481093 
-0.004974537940728586 
0.0002440823862511488 
-0.005220794591294987 
0 
-0.004974537940728586 
-0.0002440823862511488 
0.001506791436269889 
-0.000617367537177542 
0.003253842986704255 
0 
0.001506791436269889 
0.000617367537177542 
-0.002383288414724872 
3.706665731409835e-05 
-0.002468271564966773 
0 
-0.002383288414724872 
-3.706665731409835e-05 
0.006339788635961291 
0.00189407281755411 
0.007462631772752718 
0 
0.006339788635961291 
-0.00189407281755411 
0.0002115384094869975 
0.0005830551789636551 
-0.0004239566261528971 
0 
0.0002115384094869975 
-0.0005830551789636551 
0.0006234474172055773 
-0.0005921398364787807 
0.001310147938447813 
0 
0.0006234474172055773 
0.0005921398364787807 
-0.001416264054322866 
0.001380260938009429 
-0.002571483640294585 
0 
-0.001416264054322866 
-0.001380260938009429 
-0.004468766439199429 
0.001524992669373359 
-0.006199768064216589 
0 
-0.004468766439199429 
-0.001524992669373359 
-0.001889848746350497 
0.00172022804277173 
-0.002536536666464524 
0 
-0.001889848746350497 
-0.00172022804277173 
-0.002634508576545445 
-0.0001897917459424503 
-0.002946779189372767 
0 
-0.002634508576545445 
0.0001897917459424503 
-0.001798057350827558 
0.001156165776304368 
-0.002781822402788393 
0 
-0.001798057350827558 
-0.001156165776304368 
0.001370773778768282 
5.083234179358485e-05 
0.001720810411081023 
0 
0.001370773778768282 
-5.083234179358485e-05 
3.223622635930637e-05 
-0.0007948749109714801 
-0.0003141036401221602 
0 
3.223622635930637e-05 
0.0007948749109714801 
-0.0008278137113375093 
0.0004811719847531928 
-0.0005748484221481026 
0 
-0.0008278137113375093 
-0.0004811719847531928 
-0.001133132001029155 
0.0007189998749393273 
-0.001528443525764058 
0 
-0.001133132001029155 
-0.0007189998749393273 
-0.004156551126526551 
0.0008269056599263605 
-0.00481705516997936 
0 
-0.004156551126526551 
-0.0008269056599263605 
-0.004057785888882503 
0.001225376175287212 
-0.004614288239571165 
0 
-0.004057785888882503 
-0.001225376175287212 
-0.00207789357702812 
-0.000103348529624989 
-0.001826719091937496 
0 
-0.00207789357702812 
0.000103348529624989 
-0.0005115334765437154 
0.0001775111750932386 
-0.0005671155412829769 
0 
-0.0005115334765437154 
-0.0001775111750932386 
0.001280484152418277 
0.00096167853028307 
0.001032912674540365 
0 
0.001280484152418277 
-0.00096167853028307 
-0.001196968163695321 
0.002510830814246651 
-0.004413724459222275 
0 
-0.001196968163695321 
-0.002510830814246651 
-0.001212731152268271 
0.001574834916958931 
-0.002953752519441144 
0 
-0.001212731152268271 
-0.001574834916958931 
-0.001248277366680046 
0.0006230900477781779 
-0.001629548233792303 
0 
-0.001248277366680046 
-0.0006230900477781779 
-0.003082711951157779 
0.001204603498007304 
-0.004065161108694098 
0 
-0.003082711951157779 
-0.001204603498007304 
0.001123239760218985 
0.001503714073026467 
0.0003679256384132867 
0 
0.001123239760218985 
-0.001503714073026467 
-0.0008859936489430202 
0.0006843302569102883 
-0.001431403360668134 
0 
-0.0008859936489430202 
-0.0006843302569102883 
0.001556933626398036 
-7.453827364294539e-05 
0.001726462092020272 
0 
0.001556933626398036 
7.453827364294539e-05 
-0.000898004184477601 
0.001327237524642364 
-0.002412007447080275 
0 
-0.000898004184477601 
-0.001327237524642364 
-0.001529262950997474 
-0.000523383839210043 
-0.002539182717655345 
0 
-0.001529262950997474 
0.000523383839210043 
-0.0007830280819954714 
-0.0004162853654574771 
-0.0004461020468728858 
0 
-0.0007830280819954714 
0.0004162853654574771 
-0.0025762075933258 
0.001067693407064292 
-0.002961328969636343 
0 
-0.0025762075933258 
-0.001067693407064292 
-0.0008667760907791891 
-5.959448126844765e-05 
-0.0009338334533412628 
0 
-0.0008667760907791891 
5.959448126844765e-05 
-0.002355524651820142 
0.002018212789082242 
-0.004025395872846478 
0 
-0.002355524651820142 
-0.002018212789082242 
-0.002134972098710392 
0.002347816113657709 
-0.004089259623485749 
0 
-0.002134972098710392 
-0.002347816113657709 
-0.0038254204646657 
0.001606277509654496 
-0.005969959677182229 
0 
-0.0038254204646657 
-0.001606277509654496 
-0.002578438764584663 
0.002100311362630948 
-0.005681431510935975 
0 
-0.002578438764584663 
-0.002100311362630948 
-0.0008022672210580236 
0.0002674435145372208 
-0.001554472204606094 
0 
-0.0008022672210580236 
-0.0002674435145372208 
0.003351132734435733 
-0.0006861920701374878 
0.004957640549330816 
0 
0.003351132734435733 
0.0006861920701374878 
0.0001082389043392264 
-0.0005503801141028287 
0.001288680205753753 
0 
0.0001082389043392264 
0.0005503801141028287 
-0.003361813487588512 
0.001987017810572961 
-0.005736903791898357 
0 
-0.003361813487588512 
-0.001987017810572961 
0.001082529825204935 
-0.0004727013224861967 
0.001781003022742859 
0 
0.001082529825204935 
0.0004727013224861967 
-0.001980432842068502 
-4.92012355694344e-05 
-0.002333633895071127 
0 
-0.001980432842068502 
4.92012355694344e-05 
0.001761694163798681 
-8.478655404035033e-05 
0.001751926374334835 
0 
0.001761694163798681 
8.478655404035033e-05 
-0.003202822025654038 
0.0002612220139750863 
-0.005275806329038356 
0 
-0.003202822025654038 
-0.0002612220139750863 
0.000395017221078162 
-0.0007622663860211388 
0.000738351723818274 
0 
0.000395017221078162 
0.0007622663860211388 
-0.0008146875646783449 
-7.239427933218921e-05 
-0.0003694449868368479 
0 
-0.0008146875646783449 
7.239427933218921e-05 
0.0001287317245783557 
-0.00101862425568358 
0.001757009205766257 
0 
0.0001287317245783557 
0.00101862425568358 
0.001248119964605323 
-0.0006811594790721253 
0.002022723640767871 
0 
0.001248119964605323 
0.0006811594790721253 
-0.0009319380255915891 
0.0009468660630007763 
-0.002263882217495153 
0 
-0.0009319380255915891 
-0.0009468660630007763 
0.001952360846050088 
-0.003543275882912607 
0.005349153219279012 
0 
0.001952360846050088 
0.003543275882912607 
0.003181967246917428 
-0.001759409445221997 
0.005145057206076591 
0 
0.003181967246917428 
0.001759409445221997 
-0.000619451935229238 
0.0006748337418815447 
-0.001952133524690306 
0 
-0.000619451935229238 
-0.0006748337418815447 
-0.001319676140836901 
0.001010485989052284 
-0.002682992847290028 
0 
-0.001319676140836901 
-0.001010485989052284 
0.001116124505996004 
-0.0001562882639158433 
0.0008076194016917137 
0 
0.001116124505996004 
0.0001562882639158433 
0.00180941630190343 
-3.187220726632832e-05 
0.002033581756407824 
0 
0.00180941630190343 
3.187220726632832e-05 
-0.002330659682789403 
0.0004340159000854922 
-0.003554213017521768 
0 
-0.002330659682789403 
-0.0004340159000854922 
0.00213994152569437 
0.0004217435750359856 
0.001609979568285431 
0 
0.00213994152569437 
-0.0004217435750359856 
-0.002198271846246069 
0.001108502578389662 
-0.003279042169409117 
0 
-0.002198271846246069 
-0.001108502578389662 
0.0003557253879782425 
-0.0003383583789875477 
0.0004949184920736858 
0 
0.0003557253879782425 
0.0003383583789875477 
-0.002673963279252093 
0.001825772042687514 
-0.004802877180132084 
0 
-0.002673963279252093 
-0.001825772042687514 
-0.001958191748477952 
-0.0008319695910066616 
-0.00314438757249858 
0 
-0.001958191748477952 
0.0008319695910066616 
0.001582101596222339 
-0.00105795260195304 
0.002700483904447384 
0 
0.001582101596222339 
0.00105795260195304 
-0.001998515952902524 
-0.0006916241563470226 
-0.002073060644422474 
0 
-0.001998515952902524 
0.0006916241563470226 
0.001860192316462121 
5.825067611059457e-05 
0.00177957764722581 
0 
0.001860192316462121 
-5.825067611059457e-05 
-0.00503012215955767 
0.001414247795907216 
-0.007583106901201688 
0 
-0.00503012215955767 
-0.001414247795907216 
0.002605783264708367 
-0.001843465203905851 
0.004581960180065585 
0 
0.002605783264708367 
0.001843465203905851 
5.695643127145298e-05 
-0.0003987600486099779 
7.379025721009123e-05 
0 
5.695643127145298e-05 
0.0003987600486099779 
-0.0009357661032579384 
0.001732131265611762 
-0.002693417009485851 
0 
-0.0009357661032579384 
-0.001732131265611762 
-0.004097517213947267 
0.001677566838067778 
-0.006795687118596409 
0 
-0.004097517213947267 
-0.001677566838067778 
-0.001274985429821317 
0.0004488858593914873 
-0.001670351981946784 
0 
-0.001274985429821317 
-0.0004488858593914873 
-0.001602826512448663 
0.002390866388731651 
-0.003723058431654358 
0 
-0.001602826512448663 
-0.002390866388731651 
-0.003731947171888588 
0.002854520892174446 
-0.006492754041140654 
0 
-0.003731947171888588 
-0.002854520892174446 
0.001845779291994749 
0.0004853578412469252 
0.001009635838955811 
0 
0.001845779291994749 
-0.0004853578412469252 
-0.002995241224912074 
0.001782421859807646 
-0.005727156549386357 
0 
-0.002995241224912074 
-0.001782421859807646 
0.0009796208959740294 
-0.0005480449036099727 
0.0007948298013375455 
0 
0.0009796208959740294 
0.0005480449036099727 
-0.001350816314222023 
0.003040740979833248 
-0.004186534562256129 
0 
-0.001350816314222023 
-0.003040740979833248 
-0.001798886357851701 
0.0003984696109945675 
-0.003788589104173904 
0 
-0.001798886357851701 
-0.0003984696109945675 
0.001244743747517176 
-0.000571504789866367 
0.002027373633033653 
0 
0.001244743747517176 
0.000571504789866367 
-0.0002907394623404988 
-0.0005578678577840681 
9.292244842069617e-05 
0 
-0.0002907394623404988 
0.0005578678577840681 
-0.001051023341294308 
-0.0005418547963679271 
-0.0005439061763583834 
0 
-0.001051023341294308 
0.0005418547963679271 
-0.002515454376789044 
0.0009642401445328219 
-0.00378233829776999 
0 
-0.002515454376789044 
-0.0009642401445328219 
0.0005658686055887153 
-0.001056311442829024 
0.001321154791835491 
0 
0.0005658686055887153 
0.001056311442829024 
-0.001582265798197804 
0.0007398685893999854 
-0.001844680854600855 
0 
-0.001582265798197804 
-0.0007398685893999854 
-0.003812042077456165 
0.00242190083196901 
-0.00710636421596047 
0 
-0.003812042077456165 
-0.00242190083196901 
-0.004763283807162342 
0.001130798464394807 
-0.007162961122731022 
0 
-0.004763283807162342 
-0.001130798464394807 
0.0016651845695547 
0.0004810832853650549 
0.002025182288802644 
0 
0.0016651845695547 
-0.0004810832853650549 
-0.0002031468116970623 
0.001431999390203912 
-0.001672723239965665 
0 
-0.0002031468116970623 
-0.001431999390203912 
-0.002916973523203999 
0.00174660062828304 
-0.004901708475622124 
0 
-0.002916973523203999 
-0.00174660062828304 
-0.003543444897810223 
0.001214209549576119 
-0.005314944648404444 
0 
-0.003543444897810223 
-0.001214209549576119 
-0.00465712149943889 
0.002530955726005159 
-0.007913511248475644 
0 
-0.00465712149943889 
-0.002530955726005159 
-0.001292258785263488 
0.0002230901884571416 
-0.002058503709496327 
0 
-0.001292258785263488 
-0.0002230901884571416 
-0.001733270915427376 
0.002103727043993335 
-0.004375504045785008 
0 
-0.001733270915427376 
-0.002103727043993335 
-0.0001485195959838555 
0.001955499976010911 
-0.001922671058383865 
0 
-0.0001485195959838555 
-0.001955499976010911 
-0.001170409014963165 
-0.000626435285548879 
-0.001658698323763497 
0 
-0.001170409014963165 
0.000626435285548879 
-0.001415500304147715 
0.0009220678907047742 
-0.001919964516011236 
0 
-0.001415500304147715 
-0.0009220678907047742 
-0.0002187459993795197 
0.000504010300861726 
-0.0003395974834060613 
0 
-0.0002187459993795197 
-0.000504010300861726 
-0.003840874625056623 
0.001050035079399635 
-0.004712541732739145 
0 
-0.003840874625056623 
-0.001050035079399635 
-0.003087263679178184 
0.0005435343264032928 
-0.003353615562075879 
0 
-0.003087263679178184 
-0.0005435343264032928 
-0.003148567013023344 
0.001863311297659057 
-0.003737331576360174 
0 
-0.003148567013023344 
-0.001863311297659057 
-0.004889573994094796 
0.0007404390350599698 
-0.006515983198099894 
0 
-0.004889573994094796 
-0.0007404390350599698 
-0.0009136831893734371 
0.000325543847677369 
-0.000854527485655378 
0 
-0.0009136831893734371 
-0.000325543847677369 
-0.0039844247423483 
0.001291016260215102 
-0.004500333792976763 
0 
-0.0039844247423483 
-0.001291016260215102 
-0.004527782535668835 
0.002890389372744725 
-0.00672884277708874 
0 
-0.004527782535668835 
-0.002890389372744725 
-0.008310934988431218 
0.003954520577881952 
-0.0118977392409144 
0 
-0.008310934988431218 
-0.003954520577881952 
-0.007453155176900817 
0.003801128821754439 
-0.01126674465813125 
0 
-0.007453155176900817 
-0.003801128821754439 
-0.00323751196500438 
0.001100580979126398 
-0.002874746834872825 
0 
-0.00323751196500438 
-0.001100580979126398 
-0.00143769512447783 
0.001297563280213343 
-0.002592864893768974 
0 
-0.00143769512447783 
-0.001297563280213343 
-0.001175524323351227 
-0.0004906876624202298 
-0.001477104298224453 
0 
-0.001175524323351227 
0.0004906876624202298 
0.00116209743753405 
0.002301628142258337 
0.0003969394110162373 
0 
0.00116209743753405 
-0.002301628142258337 
-0.003588871127471371 
0.001375012469355381 
-0.004836710628467351 
0 
-0.003588871127471371 
-0.001375012469355381 
-0.005765775174958842 
0.002326379332572696 
-0.007903503300117678 
0 
-0.005765775174958842 
-0.002326379332572696 
-0.004085718164973594 
0.001546120517755695 
-0.006635300380330352 
0 
-0.004085718164973594 
-0.001546120517755695 
-0.005226613622951883 
0.002353798655345362 
-0.007217051009770876 
0 
-0.005226613622951883 
-0.002353798655345362 
-0.001410046096372646 
0.001435942082068189 
-0.002352950935410121 
0 
-0.001410046096372646 
-0.001435942082068189 
-0.003558538973711874 
0.001385955988419915 
-0.005014430572346107 
0 
-0.003558538973711874 
-0.001385955988419915 
-0.000342236362121926 
0.0004220977990471417 
-0.0006609436191435925 
0 
-0.000342236362121926 
-0.0004220977990471417 
0.006584227300374108 
0.001260207111410573 
0.008771092700116303 
0 
0.006584227300374108 
-0.001260207111410573 
-0.002305493414991945 
0.0007714733657103425 
-0.00351738924975289 
0 
-0.002305493414991945 
-0.0007714733657103425 
-0.003801977876264151 
0.001834561758994583 
-0.00620652497852477 
0 
-0.003801977876264151 
-0.001834561758994583 
-0.005767937858581739 
0.001920098556886852 
-0.006736625222190785 
0 
-0.005767937858581739 
-0.001920098556886852 
-0.005153680873952792 
0.002157249188906681 
-0.007319384375934516 
0 
-0.005153680873952792 
-0.002157249188906681 
-0.00286853013651387 
0.001046249765199506 
-0.003876046317225523 
0 
-0.00286853013651387 
-0.001046249765199506 
-0.001927505961586237 
0.001200615392477703 
-0.003228219359058821 
0 
-0.001927505961586237 
-0.001200615392477703 
-0.003238644229834674 
0.0001589043174492199 
-0.004464127025910865 
0 
-0.003238644229834674 
-0.0001589043174492199 
-0.001173429823004047 
0.0009461725852126858 
-0.00255273468946271 
0 
-0.001173429823004047 
-0.0009461725852126858 
-0.003514008667071607 
0.0009712738388451605 
-0.004828872408323598 
0 
-0.003514008667071607 
-0.0009712738388451605 
-0.00332075394674951 
0.001456730910901498 
-0.004017550376466504 
0 
-0.00332075394674951 
-0.001456730910901498 
-0.004453326226510164 
0.001003077993212179 
-0.006348947675790037 
0 
-0.004453326226510164 
-0.001003077993212179 
-0.005224512582914398 
-0.0003573760488393497 
-0.004791462346843546 
0 
-0.005224512582914398 
0.0003573760488393497 
-0.0004119715582814798 
-0.001281116425223039 
0.00146355562772938 
0 
-0.0004119715582814798 
0.001281116425223039 
-0.002718944740753647 
0.0006326384199722482 
-0.003451277339906358 
0 
-0.002718944740753647 
-0.0006326384199722482 
0.001241599547696798 
-0.001221508940099422 
0.00224408120393901 
0 
0.001241599547696798 
0.001221508940099422 
0.0001603575103476742 
-0.0001826734117085929 
0.0006492282896241868 
0 
0.0001603575103476742 
0.0001826734117085929 
-0.002195078328208426 
2.277883348278683e-05 
-0.002812554353730737 
0 
-0.002195078328208426 
-2.277883348278683e-05 
-0.002708372097211597 
0.001397031680829367 
-0.003866393629284528 
0 
-0.002708372097211597 
-0.001397031680829367 
-0.005153115490534761 
0.001677179646872343 
-0.006763362026435497 
0 
-0.005153115490534761 
-0.001677179646872343 
-0.007113857705355613 
0.003585113691831047 
-0.01146313065048296 
0 
-0.007113857705355613 
-0.003585113691831047 
-0.004736694638788713 
0.001957565484887163 
-0.005822063486950792 
0 
-0.004736694638788713 
-0.001957565484887163 
-0.00463106773960241 
0.001831318055757741 
-0.006054149494648468 
0 
-0.00463106773960241 
-0.001831318055757741 
0.002831795495105095 
0.003003245735319991 
0.00268538292778937 
0 
0.002831795495105095 
-0.003003245735319991 
0.003642044702271652 
0.002228267236599885 
0.003369724247517664 
0 
0.003642044702271652 
-0.002228267236599885 
-0.002346553184081773 
0.0008764294090044693 
-0.003207444687919097 
0 
-0.002346553184081773 
-0.0008764294090044693 
-0.004294493763817273 
0.001137521700905763 
-0.004779614085383248 
0 
-0.004294493763817273 
-0.001137521700905763 
-0.005499498302018921 
0.002492055464458933 
-0.00941012213489704 
0 
-0.005499498302018921 
-0.002492055464458933 
-0.003916756765735558 
0.0005885507028206975 
-0.005073221797762148 
0 
-0.003916756765735558 
-0.0005885507028206975 
-0.004090974388918914 
0.001841798837908151 
-0.007293604751585385 
0 
-0.004090974388918914 
-0.001841798837908151 
-0.006045040464650001 
0.002835659883736879 
-0.008485612815239884 
0 
-0.006045040464650001 
-0.002835659883736879 
-0.003575222615717336 
0.0003724314668318088 
-0.003672085926374225 
0 
-0.003575222615717336 
-0.0003724314668318088 
0.006354896688826339 
-0.0005847352355451747 
0.00799707811395416 
0 
0.006354896688826339 
0.0005847352355451747 
-0.0007744140753998871 
-4.260882041218791e-06 
0.0002634512568159463 
0 
-0.0007744140753998871 
4.260882041218791e-06 
0.0006996895663213272 
0.0003978353199435061 
0.002102406754705935 
0 
0.0006996895663213272 
-0.0003978353199435061 
-0.007265820110925746 
0.002199047660493793 
-0.009020945256243385 
0 
-0.007265820110925746 
-0.002199047660493793 
-0.008226032902263569 
0.003336209232699189 
-0.01179792227232564 
0 
-0.008226032902263569 
-0.003336209232699189 
-0.004515571404931243 
0.001695425430919308 
-0.005807446411585665 
0 
-0.004515571404931243 
-0.001695425430919308 
-0.003539065108460833 
0.0007007181401197446 
-0.004324833195818984 
0 
-0.003539065108460833 
-0.0007007181401197446 
0.001628404989224569 
0.0004335357655973294 
0.001873495885973735 
0 
0.001628404989224569 
-0.0004335357655973294 
-0.001599278140951294 
0.0004263344906330892 
-0.003017317912774816 
0 
-0.001599278140951294 
-0.0004263344906330892 
-0.003243913418376864 
-2.099376868456574e-05 
-0.003419171592444394 
0 
-0.003243913418376864 
2.099376868456574e-05 
-0.001674325990281388 
0.002169097635622601 
-0.003116591392109483 
0 
-0.001674325990281388 
-0.002169097635622601 
-0.005834090852192086 
0.002084721681813478 
-0.007422015413305941 
0 
-0.005834090852192086 
-0.002084721681813478 
-0.005366100220459247 
0.001367998995335784 
-0.006851171899462933 
0 
-0.005366100220459247 
-0.001367998995335784 
-0.002133863864594382 
0.002295234071104804 
-0.004391726124858925 
0 
-0.002133863864594382 
-0.002295234071104804 
-0.006077227968439197 
-0.002167902622029936 
-0.005716315973493622 
0 
-0.006077227968439197 
0.002167902622029936 
0.006793011623786418 
0.00130237263814385 
0.008780137043444401 
0 
0.006793011623786418 
-0.00130237263814385 
0.00265239585790454 
0.0006494945040307797 
0.004039975674727669 
0 
0.00265239585790454 
-0.0006494945040307797 
-0.002048417005576468 
0.00102208701652754 
-0.00236100967356944 
0 
-0.002048417005576468 
-0.00102208701652754 
-0.002702158384556458 
0.001842532676050455 
-0.003859124076931126 
0 
-0.002702158384556458 
-0.001842532676050455 
-0.005404589350606528 
0.001008727023918524 
-0.007997702686045487 
0 
-0.005404589350606528 
-0.001008727023918524 
-0.003607832409423137 
0.000701772496811573 
-0.00490740697332399 
0 
-0.003607832409423137 
-0.000701772496811573 
-0.003574389357346113 
0.002081853024774307 
-0.005433937627323328 
0 
-0.003574389357346113 
-0.002081853024774307 
-0.003836060923546717 
0.0006986275771967787 
-0.004266322501853831 
0 
-0.003836060923546717 
-0.0006986275771967787 
-0.003106527353716215 
-7.230020049111002e-05 
-0.004757111567309006 
0 
-0.003106527353716215 
7.230020049111002e-05 
0.000319686218416783 
0.0007697270916422408 
-0.0005255939131028971 
0 
0.000319686218416783 
-0.0007697270916422408 
-0.001313830203669989 
0.0003980196897617738 
-0.001727268254199867 
0 
-0.001313830203669989 
-0.0003980196897617738 
-0.004343009659366375 
0.001058015593946252 
-0.005367515746341762 
0 
-0.004343009659366375 
-0.001058015593946252 
-0.001903121231217939 
0.002068336629600417 
-0.003789927908494983 
0 
-0.001903121231217939 
-0.002068336629600417 
-0.003392078453063856 
0.001890522718463881 
-0.005621536672151735 
0 
-0.003392078453063856 
-0.001890522718463881 
-0.001885817539623535 
0.001543590975107148 
-0.00303745367854086 
0 
-0.001885817539623535 
-0.001543590975107148 
-0.00336951808880692 
0.0003072547411189171 
-0.003739845228787916 
0 
-0.00336951808880692 
-0.0003072547411189171 
0.004292932536066933 
0.00198853948906996 
0.004028422053313986 
0 
0.004292932536066933 
-0.00198853948906996 
-0.002917751090686002 
0.002661606324367099 
-0.005487876323629497 
0 
-0.002917751090686002 
-0.002661606324367099 
-0.003044889621382665 
0.0002481353558063121 
-0.004238155053831344 
0 
-0.003044889621382665 
-0.0002481353558063121 
0.001209358682900895 
1.431621855358502e-05 
0.0008998123748894338 
0 
0.001209358682900895 
-1.431621855358502e-05 
-0.002008111356678755 
0.001175614912951581 
-0.003505425462339128 
0 
-0.002008111356678755 
-0.001175614912951581 
0.000926067734054146 
-6.147927444170882e-05 
0.0008722647556051361 
0 
0.000926067734054146 
6.147927444170882e-05 
-0.001633599844023855 
0.0005593328658443594 
-0.002243502299631611 
0 
-0.001633599844023855 
-0.0005593328658443594 
0.001488758845328655 
0.0002560524493628629 
0.001666130503661081 
0 
0.001488758845328655 
-0.0002560524493628629 
-0.002368605152679369 
0.001624073996100457 
-0.004450338154659981 
0 
-0.002368605152679369 
-0.001624073996100457 
0.002365068249420213 
0.0002339481968354504 
0.001358072179610083 
0 
0.002365068249420213 
-0.0002339481968354504 
0.0004343003102956768 
-0.001217278317566324 
0.001067220934819263 
0 
0.0004343003102956768 
0.001217278317566324 
0.0008725843884896369 
0.0004081754621539102 
0.0007848555777366677 
0 
0.0008725843884896369 
-0.0004081754621539102 
0.002125065977872234 
-4.925706809850885e-06 
0.002205109896812982 
0 
0.002125065977872234 
4.925706809850885e-06 
-0.002689444336048296 
0.0008147480045459155 
-0.003024903556723933 
0 
-0.002689444336048296 
-0.0008147480045459155 
6.833802160301055e-05 
0.0003412192229414543 
0.0004864315054505965 
0 
6.833802160301055e-05 
-0.0003412192229414543 
-0.003520344569946847 
0.0005280976586948213 
-0.004262693091906015 
0 
-0.003520344569946847 
-0.0005280976586948213 
-0.003023425352978434 
0.001259294003949013 
-0.00578670744386923 
0 
-0.003023425352978434 
-0.001259294003949013 
-0.002794297502679346 
0.0004584100917811266 
-0.004178735911709953 
0 
-0.002794297502679346 
-0.0004584100917811266 
0.00128293654263913 
-2.107981976698609e-05 
0.001221240035428398 
0 
0.00128293654263913 
2.107981976698609e-05 
-0.0007165935038056813 
-0.0001836122558709876 
-0.0003444972128394874 
0 
-0.0007165935038056813 
0.0001836122558709876 
-0.0006420685694037863 
0.0003404106451036946 
-0.001080761944026217 
0 
-0.0006420685694037863 
-0.0003404106451036946 
0.003587438634374028 
-0.001382396787398814 
0.005866973425672863 
0 
0.003587438634374028 
0.001382396787398814 
0.0002680432696406253 
-0.0008823026763806072 
0.002347413967853386 
0 
0.0002680432696406253 
0.0008823026763806072 
0.002051607079598471 
-0.0007906413161199897 
0.003295344273697492 
0 
0.002051607079598471 
0.0007906413161199897 
-0.003471206336442242 
-0.001655844979761136 
-0.00374414354851261 
0 
-0.003471206336442242 
0.001655844979761136 
0.002419973750637983 
4.613588031206586e-05 
0.002258524689591287 
0 
0.002419973750637983 
-4.613588031206586e-05 
-0.00159267717333504 
-0.001999190908206416 
-0.0004805499129254388 
0 
-0.00159267717333504 
0.001999190908206416 
-0.001542014813922369 
-4.352545868413669e-05 
-0.001969177220788862 
0 
-0.001542014813922369 
4.352545868413669e-05 
0.0007290466381756343 
-0.0008117651764522728 
0.001089464493115265 
0 
0.0007290466381756343 
0.0008117651764522728 
-0.004400704132947296 
-0.0006716160843057351 
-0.004271341359237887 
0 
-0.004400704132947296 
0.0006716160843057351 
0.0009423553155513537 
-0.0004888984145971116 
0.001306148370314948 
0 
0.0009423553155513537 
0.0004888984145971116 
0.0004073194781581242 
0.0002140563440357805 
0.001140176798586281 
0 
0.0004073194781581242 
-0.0002140563440357805 
-0.0001303201372177713 
0.001092153801336053 
-0.001397200304949723 
0 
-0.0001303201372177713 
-0.001092153801336053 
-0.001529640114965437 
-4.919704858101262e-06 
-0.00268393787182353 
0 
-0.001529640114965437 
4.919704858101262e-06 
-0.0008904197634758185 
0.0006561107429035169 
-0.001322080518208534 
0 
-0.0008904197634758185 
-0.0006561107429035169 
-0.001751646522180829 
-0.0004509650529581758 
-0.002055072925341407 
0 
-0.001751646522180829 
0.0004509650529581758 
-0.004148945809671358 
0.001585891395571828 
-0.006484872879140089 
0 
-0.004148945809671358 
-0.001585891395571828 
-0.002270349551083729 
-0.0001083884591865255 
-0.003532239733042899 
0 
-0.002270349551083729 
0.0001083884591865255 
-0.002876055020023735 
0.0007614149181761985 
-0.003994673841113683 
0 
-0.002876055020023735 
-0.0007614149181761985 
-0.0007544523043167235 
-0.0009034051275050691 
-3.261503108620131e-05 
0 
-0.0007544523043167235 
0.0009034051275050691 
-0.002999974721665788 
0.002334990405329407 
-0.006120216922378682 
0 
-0.002999974721665788 
-0.002334990405329407 
0.000284951448207674 
0.001526325408515194 
-0.00157242680755229 
0 
0.000284951448207674 
-0.001526325408515194 
0.002172767728811122 
-0.0008619254605408162 
0.003068954368483999 
0 
0.002172767728811122 
0.0008619254605408162 
-0.0006798773870640805 
-0.0003367856136211634 
-0.0005408165602115588 
0 
-0.0006798773870640805 
0.0003367856136211634 
-0.0008458576599233509 
0.0002996199514948477 
-0.001290641795598022 
0 
-0.0008458576599233509 
-0.0002996199514948477 
-0.002275954759810674 
0.0006919018229938721 
-0.003623237181185751 
0 
-0.002275954759810674 
-0.0006919018229938721 
0.0011087677856246 
-4.931776452813091e-05 
0.001509298459050494 
0 
0.0011087677856246 
4.931776452813091e-05 
-0.0009387894539058349 
0.00152923267016198 
-0.00231822732913451 
0 
-0.0009387894539058349 
-0.00152923267016198 
-0.002263739006207878 
3.557614437548647e-05 
-0.004002115536091245 
0 
-0.002263739006207878 
-3.557614437548647e-05 
-0.0002403541343720769 
0.001876441614629256 
-0.002162250712961618 
0 
-0.0002403541343720769 
-0.001876441614629256 
0.0006254525243392589 
-0.0004082144680796192 
0.0006496926868756304 
0 
0.0006254525243392589 
0.0004082144680796192 
-0.0006878775516044919 
0.0004476655323848008 
-0.002911075558554967 
0 
-0.0006878775516044919 
-0.0004476655323848008 
-0.002449276286063954 
0.001105092779971233 
-0.005291437428171151 
0 
-0.002449276286063954 
-0.001105092779971233 
-0.002250523392381523 
-0.0006264149914987259 
-0.002544839635854361 
0 
-0.002250523392381523 
0.0006264149914987259 
-0.0008732429699342671 
-0.0002262423873233011 
-0.0008038536102402034 
0 
-0.0008732429699342671 
0.0002262423873233011 
-4.328846363509684e-05 
0.001334449835215855 
-0.0007797659475188092 
0 
-4.328846363509684e-05 
-0.001334449835215855 
-0.0008603709025571756 
-0.000920551758092525 
-0.001903849924502613 
0 
-0.0008603709025571756 
0.000920551758092525 
0.0007679856508347394 
0.001521103276994195 
-0.0006468728089847551 
0 
0.0007679856508347394 
-0.001521103276994195 
-0.0009190504979812 
0.001973203612781759 
-0.003210947687686126 
0 
-0.0009190504979812 
-0.001973203612781759 
0.000125966719248775 
-0.0002071504278027959 
0.0003288422171482906 
0 
0.000125966719248775 
0.0002071504278027959 
0.00127531334762925 
-0.001527892067047195 
0.002547403796195041 
0 
0.00127531334762925 
0.001527892067047195 
-0.004022084535591668 
6.038202902391043e-05 
-0.00428644705802755 
0 
-0.004022084535591668 
-6.038202902391043e-05 
-1.567061871558798e-05 
0.0001843547474447205 
-0.0009299480440179955 
0 
-1.567061871558798e-05 
-0.0001843547474447205 
-0.001920622903028979 
0.0008529983682117398 
-0.003483736856880288 
0 
-0.001920622903028979 
-0.0008529983682117398 
-0.004183201687415946 
0.001606527881052528 
-0.007337582691023143 
0 
-0.004183201687415946 
-0.001606527881052528 
0.001285762322102643 
0.0008606197604528825 
-0.0004579051713265924 
0 
0.001285762322102643 
-0.0008606197604528825 
-0.001157767914300472 
-0.0006268206592907559 
-0.001414129859304965 
0 
-0.001157767914300472 
0.0006268206592907559 
0.001461070601152909 
-0.0009407833883497447 
0.0025637486112165 
0 
0.001461070601152909 
0.0009407833883497447 
-0.001117939359006072 
-0.0005758151366627487 
-0.0007651276318300313 
0 
-0.001117939359006072 
0.0005758151366627487 
-0.001069550619759265 
-0.0005128752042567747 
-0.0007430876483445604 
0 
-0.001069550619759265 
0.0005128752042567747 
-0.001038934787614451 
-0.0009328343630959888 
-0.0001791082797735525 
0 
-0.001038934787614451 
0.0009328343630959888 
-0.0009841661840916012 
-0.0006120002959547564 
0.0002853482144579777 
0 
-0.0009841661840916012 
0.0006120002959547564 
-0.002962233918369651 
-0.0002125646402758204 
-0.004454780219985609 
0 
-0.002962233918369651 
0.0002125646402758204 
-0.0005528317919371593 
-8.164968713262145e-05 
-0.001094005571167648 
0 
-0.0005528317919371593 
8.164968713262145e-05 
0.0030133626556243 
-0.00108315322202296 
0.00447262884811121 
0 
0.0030133626556243 
0.00108315322202296 
0.0007484798742671802 
-0.0009993641435545211 
0.002078873427212349 
0 
0.0007484798742671802 
0.0009993641435545211 
-0.002823346957648062 
0.0001134615481853993 
-0.003949620920486147 
0 
-0.002823346957648062 
-0.0001134615481853993 
-0.002259618245986325 
0.0002634060136048682 
-0.002591981844450689 
0 
-0.002259618245986325 
-0.0002634060136048682 
-0.001312485357548985 
-0.0004573209863823261 
-0.001300405279900543 
0 
-0.001312485357548985 
0.0004573209863823261 
0.0002276514886916004 
0.0002145630350618488 
0.0004053454385037637 
0 
0.0002276514886916004 
-0.0002145630350618488 
0.0001827644243489158 
-0.000144512025601045 
0.0001062216653665639 
0 
0.0001827644243489158 
0.000144512025601045 
0.002035577254934285 
0.002231139836809104 
0.001971141665138825 
0 
0.002035577254934285 
-0.002231139836809104 
-0.004504465278637106 
0.002702924029067856 
-0.006240489071936449 
0 
-0.004504465278637106 
-0.002702924029067856 
-0.004027255372886298 
0.001285940291604925 
-0.004950376690891638 
0 
-0.004027255372886298 
-0.001285940291604925 
-0.006829832874735929 
0.002229211095618008 
-0.009550515882658961 
0 
-0.006829832874735929 
-0.002229211095618008 
-0.006972579612368401 
0.002581634240390619 
-0.01050193482356436 
0 
-0.006972579612368401 
-0.002581634240390619 
-0.00403860851905224 
0.002005198719023766 
-0.005618009741302422 
0 
-0.00403860851905224 
-0.002005198719023766 
-0.005030521003234327 
0.002760576002956766 
-0.007431215214544669 
0 
-0.005030521003234327 
-0.002760576002956766 
-0.0001045213016031522 
0.002638708134121564 
-0.001711342467420912 
0 
-0.0001045213016031522 
-0.002638708134121564 
-0.0004663870629980923 
0.000850070181772323 
-0.001825396180969153 
0 
-0.0004663870629980923 
-0.000850070181772323 
-0.001985671898965842 
0.002152526162541548 
-0.003624705778327827 
0 
-0.001985671898965842 
-0.002152526162541548 
-0.001381952896358503 
0.0005593467878108003 
-0.001844697901364338 
0 
-0.001381952896358503 
-0.0005593467878108003 
-0.005530329346264659 
0.002375655771756721 
-0.008910243587861992 
0 
-0.005530329346264659 
-0.002375655771756721 
-0.006150534402478377 
0.001977546861666155 
-0.008036744435801223 
0 
-0.006150534402478377 
-0.001977546861666155 
-0.005646637344433103 
0.002784089206544917 
-0.008049213936882115 
0 
-0.005646637344433103 
-0.002784089206544917 
-0.004076410283420408 
0.001595775511256558 
-0.004898303298880058 
0 
-0.004076410283420408 
-0.001595775511256558 
-0.004689546811661368 
0.0003436209761694749 
-0.005962225642835795 
0 
-0.004689546811661368 
-0.0003436209761694749 
0.007512501478796263 
0.0013955918012932 
0.008756824219738564 
0 
0.007512501478796263 
-0.0013955918012932 
0.000498221698820633 
0.001058443516523796 
0.0003009787423336907 
0 
0.000498221698820633 
-0.001058443516523796 
-0.004677789627312155 
0.002337479938730474 
-0.007065557378534064 
0 
-0.004677789627312155 
-0.002337479938730474 
-0.005660394826484767 
0.001483252180629708 
-0.007346098541713191 
0 
-0.005660394826484767 
-0.001483252180629708 
-0.004480610500689518 
0.002636702369340004 
-0.007777863355346609 
0 
-0.004480610500689518 
-0.002636702369340004 
-0.002197841786795083 
0.001536660518620905 
-0.003552947901009169 
0 
-0.002197841786795083 
-0.001536660518620905 
-0.001573064223433171 
0.001716570720685916 
-0.003507588672540106 
0 
-0.001573064223433171 
-0.001716570720685916 
-0.00204557442240717 
0.0008185080821192215 
-0.003508597234293012 
0 
-0.00204557442240717 
-0.0008185080821192215 
-0.002800683477633863 
0.0005090580900589683 
-0.005318976044765076 
0 
-0.002800683477633863 
-0.0005090580900589683 
-0.003813576656806227 
-0.0006607874471064042 
-0.003688556552412471 
0 
-0.003813576656806227 
0.0006607874471064042 
-0.0005043143189139089 
0.0007541620809656402 
-0.001245505259678528 
0 
-0.0005043143189139089 
-0.0007541620809656402 
-0.005720683928095582 
0.0005742448816106254 
-0.007711674096650026 
0 
-0.005720683928095582 
-0.0005742448816106254 
-0.003462233347043462 
0.002739569098440329 
-0.006352764193295548 
0 
-0.003462233347043462 
-0.002739569098440329 
-0.003246659803438737 
0.002778482815288526 
-0.005581620282285238 
0 
-0.003246659803438737 
-0.002778482815288526 
-0.005110217054192148 
0.002426031861140539 
-0.007866371197361631 
0 
-0.005110217054192148 
-0.002426031861140539 
0.0003245255316588427 
0.0005081424095791695 
-0.0001633187074195516 
0 
0.0003245255316588427 
-0.0005081424095791695 
0.001093009963001828 
0.001615498271957118 
0.0001897639438978009 
0 
0.001093009963001828 
-0.001615498271957118 
-0.001036436087552729 
0.001419259145832911 
-0.001312375317826913 
0 
-0.001036436087552729 
-0.001419259145832911 
-0.003317282892793755 
0.001482964575148857 
-0.004345581495748406 
0 
-0.003317282892793755 
-0.001482964575148857 
-0.007658686573855354 
0.003385777481298314 
-0.01135288513463045 
0 
-0.007658686573855354 
-0.003385777481298314 
-0.005520551402492362 
0.001208059700288968 
-0.006473199690504879 
0 
-0.005520551402492362 
-0.001208059700288968 
-0.003162136435979543 
0.002164060351912715 
-0.005092147153802129 
0 
-0.003162136435979543 
-0.002164060351912715 
-0.001488094766393868 
0.002273603883117539 
-0.003601531279892758 
0 
-0.001488094766393868 
-0.002273603883117539 
-0.00118011149798205 
0.002436273505604541 
-0.002572861945514414 
0 
-0.00118011149798205 
-0.002436273505604541 
0.004658980958649051 
0.003794809940177776 
0.003836286926036868 
0 
0.004658980958649051 
-0.003794809940177776 
-0.004757453869793702 
0.0007901629278043222 
-0.006328781855814107 
0 
-0.004757453869793702 
-0.0007901629278043222 
-0.004183119285161959 
0.0008742878205638198 
-0.004960459194346412 
0 
-0.004183119285161959 
-0.0008742878205638198 
-0.009905577002242897 
0.002581135402697399 
-0.01407034959157262 
0 
-0.009905577002242897 
-0.002581135402697399 
-0.005610205689308889 
0.003066353929028045 
-0.008712509340872025 
0 
-0.005610205689308889 
-0.003066353929028045 
-0.004679538472735057 
0.002096653434617931 
-0.005887491445237743 
0 
-0.004679538472735057 
-0.002096653434617931 
-0.006359786006800348 
0.001662931733839781 
-0.007774252930191634 
0 
-0.006359786006800348 
-0.001662931733839781 
-0.005693239264227662 
0.000345969968122905 
-0.007753745946208948 
0 
-0.005693239264227662 
-0.000345969968122905 
0.00686082198874498 
0.001208949057247497 
0.00888980965135217 
0 
0.00686082198874498 
-0.001208949057247497 
-0.00129611873991169 
-0.0004832321883184093 
-0.0002513643419968501 
0 
-0.00129611873991169 
0.0004832321883184093 
-0.004736167434131545 
0.0008658194722642975 
-0.005212520388787404 
0 
-0.004736167434131545 
-0.0008658194722642975 
-0.004467187938090411 
0.0008059597664229619 
-0.004816893625208008 
0 
-0.004467187938090411 
-0.0008059597664229619 
-0.005469782434512823 
0.001512125540301259 
-0.007200719639800889 
0 
-0.005469782434512823 
-0.001512125540301259 
-0.003998442126945074 
7.236469976950254e-05 
-0.003837356360258297 
0 
-0.003998442126945074 
-7.236469976950254e-05 
-0.00427260406749818 
0.001269479472323831 
-0.005385982614872555 
0 
-0.00427260406749818 
-0.001269479472323831 
0.004674871875968502 
0.001063966917981768 
0.005463225792383918 
0 
0.004674871875968502 
-0.001063966917981768 
-0.0005091298407531445 
0.000362499128751595 
-0.002578323908745175 
0 
-0.0005091298407531445 
-0.000362499128751595 
-0.0009452209777509712 
-0.0002570712539361709 
-0.0005806800251394481 
0 
-0.0009452209777509712 
0.0002570712539361709 
-0.003068335203986411 
-0.0003381608908346584 
-0.002310950160547848 
0 
-0.003068335203986411 
0.0003381608908346584 
-0.00545948354968434 
0.0006501994418376115 
-0.006423383525719434 
0 
-0.00545948354968434 
-0.0006501994418376115 
-0.004043034779073093 
0.0005370511711114352 
-0.004713089399614596 
0 
-0.004043034779073093 
-0.0005370511711114352 
-0.001268783038634289 
0.000451633185749763 
-0.001604006869508397 
0 
-0.001268783038634289 
-0.000451633185749763 
-0.002187232176350126 
0.0004443442355764541 
-0.001897654241366504 
0 
-0.002187232176350126 
-0.0004443442355764541 
-0.00218336393901277 
-0.001449371637455295 
-0.00270530437928269 
0 
-0.00218336393901277 
0.001449371637455295 
0.001574568336826273 
0.001396077377873738 
0.000940011044533182 
0 
0.001574568336826273 
-0.001396077377873738 
-0.003072923303521735 
0.00109697529247544 
-0.003494093824484761 
0 
-0.003072923303521735 
-0.00109697529247544 
-0.003381176591635139 
0.002557844168417689 
-0.005909867056385548 
0 
-0.003381176591635139 
-0.002557844168417689 
-0.003815545419260141 
0.002506796038581273 
-0.006351276233358435 
0 
-0.003815545419260141 
-0.002506796038581273 
-0.00473076035195773 
0.002102279366469564 
-0.006612902325416583 
0 
-0.00473076035195773 
-0.002102279366469564 
-0.003415460076009745 
0.0005347666003795383 
-0.003412786669812127 
0 
-0.003415460076009745 
-0.0005347666003795383 
-0.005438466055133023 
0.002598537555477233 
-0.00844187588662877 
0 
-0.005438466055133023 
-0.002598537555477233 
0.001500961039069262 
0.0007477427885979793 
0.001609303877802377 
0 
0.001500961039069262 
-0.0007477427885979793 
-0.002510703010837871 
0.0004099948252118997 
-0.003733502322355446 
0 
-0.002510703010837871 
-0.0004099948252118997 
-0.004215949528770594 
0.001780059634726882 
-0.006051810596306357 
0 
-0.004215949528770594 
-0.001780059634726882 
-0.004209425624789902 
0.001401801588685311 
-0.006076704112632704 
0 
-0.004209425624789902 
-0.001401801588685311 
-0.003328834581251061 
0.00293122316254807 
-0.006576484666060571 
0 
-0.003328834581251061 
-0.00293122316254807 
-0.002857506760582005 
0.002718679830507266 
-0.005954505467346044 
0 
-0.002857506760582005 
-0.002718679830507266 
-0.0009238548304326045 
0.001058252573906044 
-0.002853689385741121 
0 
-0.0009238548304326045 
-0.001058252573906044 
-0.0024469352753274 
0.002047868521129688 
-0.004689917185226177 
0 
-0.0024469352753274 
-0.002047868521129688 
0.001721950598214959 
0.001850016774962942 
0.0007080964394905599 
0 
0.001721950598214959 
-0.001850016774962942 
-0.004111780634518949 
0.001822063895863793 
-0.00736358000935382 
0 
-0.004111780634518949 
-0.001822063895863793 
-0.002659735470507134 
-0.0002445510493140172 
-0.003256606406974703 
0 
-0.002659735470507134 
0.0002445510493140172 
-0.000546261640528579 
0.0007931837188710879 
-0.001463784691258905 
0 
-0.000546261640528579 
-0.0007931837188710879 
-0.001623826534062232 
0.001734214398878304 
-0.003321913986118518 
0 
-0.001623826534062232 
-0.001734214398878304 
0.002272754841768197 
0.001052194750212811 
0.0009166578334637922 
0 
0.002272754841768197 
-0.001052194750212811 
-0.0002932448540497984 
7.669106575961238e-05 
0.0003435788540607259 
0 
-0.0002932448540497984 
-7.669106575961238e-05 
-0.00046086793819831 
-6.795750021299174e-05 
-0.0007151495284055333 
0 
-0.00046086793819831 
6.795750021299174e-05 
-0.002213292651176068 
0.0009334055998232404 
-0.003831589108962296 
0 
-0.002213292651176068 
-0.0009334055998232404 
-0.001366655264603246 
-0.0002324095360365871 
-0.00355390881965241 
0 
-0.001366655264603246 
0.0002324095360365871 
0.001425250181211516 
0.0001866400915142384 
0.0004862604853861488 
0 
0.001425250181211516 
-0.0001866400915142384 
0.0007715721478134335 
-0.0001751198284295398 
0.0009775907821429049 
0 
0.0007715721478134335 
0.0001751198284295398 
0.0008423072816605734 
0.0007281565850463384 
-0.0004467831090928863 
0 
0.0008423072816605734 
-0.0007281565850463384 
-0.002218571826314534 
0.0005974034854139576 
-0.003356033169310488 
0 
-0.002218571826314534 
-0.0005974034854139576 
0.001652908469620275 
-0.0004553233800162431 
0.002002012690065875 
0 
0.001652908469620275 
0.0004553233800162431 
0.0007305458986105626 
-0.0005008477163585094 
0.0004473160039509167 
0 
0.0007305458986105626 
0.0005008477163585094 
-0.001621320581738323 
0.003447622652391286 
-0.004813156195767268 
0 
-0.001621320581738323 
-0.003447622652391286 
-0.001805258231583097 
-0.0003376717215147981 
-0.001682909429208654 
0 
-0.001805258231583097 
0.0003376717215147981 
-0.0001779031776979988 
-0.0007994815525545518 
0.001309218296221131 
0 
-0.0001779031776979988 
0.0007994815525545518 
0.0004028803403713143 
-0.001158928621658196 
0.002053330607552119 
0 
0.0004028803403713143 
0.001158928621658196 
-0.002630254584947394 
-0.001116737259053933 
-0.002280089576868982 
0 
-0.002630254584947394 
0.001116737259053933 
-5.450172821509169e-05 
-6.257566825763903e-05 
0.0002412454808124181 
0 
-5.450172821509169e-05 
6.257566825763903e-05 
0.0009290222751394199 
-0.0008033870849080792 
0.001453187759821037 
0 
0.0009290222751394199 
0.0008033870849080792 
0.001510339724818376 
-0.001701915646623485 
0.002938357392568312 
0 
0.001510339724818376 
0.001701915646623485 
-0.003333300699425996 
-0.0005921193959084834 
-0.004115897494752952 
0 
-0.003333300699425996 
0.0005921193959084834 
0.0001635344330773875 
-0.00155703061835497 
0.0003757536028889211 
0 
0.0001635344330773875 
0.00155703061835497 
0.001272820991664374 
-0.001618556110391601 
0.003569427791126031 
0 
0.001272820991664374 
0.001618556110391601 
0.0008617090035681882 
-0.001148928939604517 
0.002288228551186964 
0 
0.0008617090035681882 
0.001148928939604517 
0.004565636986968285 
-0.0006581744600641077 
0.006481263236851651 
0 
0.004565636986968285 
0.0006581744600641077 
0.0002375851762903759 
-0.0002617490864425688 
0.0005085827688998044 
0 
0.0002375851762903759 
0.0002617490864425688 
0.0004760643475177482 
-0.001969142572775077 
0.002922555468694258 
0 
0.0004760643475177482 
0.001969142572775077 
-6.211385238735447e-05 
-0.0008970143558675271 
0.001047513641367062 
0 
-6.211385238735447e-05 
0.0008970143558675271 
-0.001272352365302626 
0.0005899101236752211 
-0.001503151798206781 
0 
-0.001272352365302626 
-0.0005899101236752211 
-0.00489396811394129 
0.0002242229718055869 
-0.006687890334542241 
0 
-0.00489396811394129 
-0.0002242229718055869 
0.0001616559577879119 
0.001398440533286385 
-0.0004952508645195527 
0 
0.0001616559577879119 
-0.001398440533286385 
-0.001223570331458354 
0.0003536299017004916 
-0.001717618262452515 
0 
-0.001223570331458354 
-0.0003536299017004916 
-0.003077078880641227 
0.001012373761035894 
-0.00572907228081327 
0 
-0.003077078880641227 
-0.001012373761035894 
-0.002122641723781749 
0.0003213643859597569 
-0.002979645126141534 
0 
-0.002122641723781749 
-0.0003213643859597569 
-0.00179374274521447 
-0.000183793175580032 
-0.001928323731728714 
0 
-0.00179374274521447 
0.000183793175580032 
-0.0003348518820578854 
-0.001044422679722126 
0.0002553508032161025 
0 
-0.0003348518820578854 
0.001044422679722126 
-0.0009641166116136443 
0.00153750818538976 
-0.003121394350984942 
0 
-0.0009641166116136443 
-0.00153750818538976 
0.002013489555012574 
0.0005841423500726773 
0.001230365081596935 
0 
0.002013489555012574 
-0.0005841423500726773 
0.003120639902449047 
-0.0005224017633800716 
0.003972157654768963 
0 
0.003120639902449047 
0.0005224017633800716 
2.321643116011126e-05 
-0.0009930971185076974 
0.002084169939585735 
0 
2.321643116011126e-05 
0.0009930971185076974 
0.002145509048917005 
-0.0005958071630435166 
0.003646700152703175 
0 
0.002145509048917005 
0.0005958071630435166 
-0.00247580002695772 
0.001598129699284464 
-0.004833382524124181 
0 
-0.00247580002695772 
-0.001598129699284464 
0.00150653643341975 
0.0005735888550101019 
0.001540513296057475 
0 
0.00150653643341975 
-0.0005735888550101019 
-0.000884681022855126 
-0.0003772629875952185 
-0.0009312271511132818 
0 
-0.000884681022855126 
0.0003772629875952185 
-0.002953324554082406 
7.774678190457071e-05 
-0.004889250319090065 
0 
-0.002953324554082406 
-7.774678190457071e-05 
-0.0008505223571809499 
0.0005733692124640332 
-0.00222299988756183 
0 
-0.0008505223571809499 
-0.0005733692124640332 
-0.002961164401018474 
-0.0005288691059050497 
-0.002617030925531416 
0 
-0.002961164401018474 
0.0005288691059050497 
-0.000204945136513476 
0.0002762386066765779 
-0.0006838781278754859 
0 
-0.000204945136513476 
-0.0002762386066765779 
-0.001521670592431616 
0.0009680076927256482 
-0.002295605329684806 
0 
-0.001521670592431616 
-0.0009680076927256482 
-0.0008489178800134484 
-0.0002657084751452278 
-0.001343976321577133 
0 
-0.0008489178800134484 
0.0002657084751452278 
-0.0006007834414127786 
0.0007412359897068684 
-0.001285116215132562 
0 
-0.0006007834414127786 
-0.0007412359897068684 
-0.003676770058240946 
0.001664242481917816 
-0.005447099174459457 
0 
-0.003676770058240946 
-0.001664242481917816 
-0.001887721984168973 
0.002263173097748834 
-0.004895194719833769 
0 
-0.001887721984168973 
-0.002263173097748834 
0.002605477059426435 
0.0006098634997136179 
0.001751450491476641 
0 
0.002605477059426435 
-0.0006098634997136179 
-0.0008416257174303953 
0.0007811646641245804 
-0.001155014626945024 
0 
-0.0008416257174303953 
-0.0007811646641245804 
-0.0009402579810583246 
0.0008560429433260788 
-0.002455200183247964 
0 
-0.0009402579810583246 
-0.0008560429433260788 
-0.002052399878343528 
0.001118502970604016 
-0.002902940093145727 
0 
-0.002052399878343528 
-0.001118502970604016 
-0.002046000353615302 
0.002575785952765543 
-0.00534961319884792 
0 
-0.002046000353615302 
-0.002575785952765543 
-0.002396584234648827 
0.002502346394933557 
-0.005500152883538258 
0 
-0.002396584234648827 
-0.002502346394933557 
-0.001205571193288413 
0.0005170066856321723 
-0.002224455995573137 
0 
-0.001205571193288413 
-0.0005170066856321723 
-0.004486601671771732 
0.0008551696426376233 
-0.006783560383240265 
0 
-0.004486601671771732 
-0.0008551696426376233 
0.002231698464487207 
0.0003470256218618106 
0.001876989551052142 
0 
0.002231698464487207 
-0.0003470256218618106 
-0.0003910955943765867 
-0.0006150488205242988 
-0.0001711651852560409 
0 
-0.0003910955943765867 
0.0006150488205242988 
0.001921646198209258 
-0.001068158630141998 
0.003022589663061265 
0 
0.001921646198209258 
0.001068158630141998 
-0.002067635397974521 
0.001111068435330809 
-0.003845678764524998 
0 
-0.002067635397974521 
-0.001111068435330809 
-0.003663118388858182 
0.0001307825990906555 
-0.004471528787385474 
0 
-0.003663118388858182 
-0.0001307825990906555 
-0.003065561192297304 
0.001605239838150803 
-0.004787298647262958 
0 
-0.003065561192297304 
-0.001605239838150803 
0.0002243043082314036 
0.001007488121121287 
-0.0003296923893064859 
0 
0.0002243043082314036 
-0.001007488121121287 
-0.007200359799592196 
-0.0001483304592508585 
-0.00889848256422098 
0 
-0.007200359799592196 
0.0001483304592508585 
0.001847891905695536 
0.0003225654055008727 
0.001839495176177281 
0 
0.001847891905695536 
-0.0003225654055008727 
0.001689050406365264 
-0.0003168463647534501 
0.002763342378178914 
0 
0.001689050406365264 
0.0003168463647534501 
-0.003863712577055388 
-0.001030934410708316 
-0.003499031710519869 
0 
-0.003863712577055388 
0.001030934410708316 
-0.002468564058476841 
0.001458574413804567 
-0.003561751917449325 
0 
-0.002468564058476841 
-0.001458574413804567 
-0.003303593837136987 
0.001414903352841228 
-0.005467631139371109 
0 
-0.003303593837136987 
-0.001414903352841228 
-0.001231598866925457 
0.001578370419985017 
-0.003082603849300475 
0 
-0.001231598866925457 
-0.001578370419985017 
-0.001287997043052238 
0.001052612981718624 
-0.003079784232024303 
0 
-0.001287997043052238 
-0.001052612981718624 
-0.001306773928488279 
0.00092961848231936 
-0.00280104912054247 
0 
-0.001306773928488279 
-0.00092961848231936 
0.004297324176601025 
6.094496822692289e-05 
0.005522671968174543 
0 
0.004297324176601025 
-6.094496822692289e-05 
-0.002061356760564687 
0.0008574600533749896 
-0.002165660667189581 
0 
-0.002061356760564687 
-0.0008574600533749896 
0.0004651823455062369 
0.001284490862547549 
-0.0007304703931769609 
0 
0.0004651823455062369 
-0.001284490862547549 
-0.004553521969168477 
0.003060330010297909 
-0.008295862522539521 
0 
-0.004553521969168477 
-0.003060330010297909 
-0.001978527393459079 
0.001556419171372403 
-0.004382048250565969 
0 
-0.001978527393459079 
-0.001556419171372403 
-0.004757895526758276 
0.002253102029278801 
-0.007317694353159555 
0 
-0.004757895526758276 
-0.002253102029278801 
-0.00290601022683327 
0.001213774712815505 
-0.004070545621695967 
0 
-0.00290601022683327 
-0.001213774712815505 
-6.316335400418814e-05 
0.0008790403650411098 
-0.0004556456041115061 
0 
-6.316335400418814e-05 
-0.0008790403650411098 
-0.001241495348930253 
-8.67739723582414e-05 
-0.001822498617230325 
0 
-0.001241495348930253 
8.67739723582414e-05 
-0.003600650400886552 
0.0005070493114152456 
-0.00438088004119784 
0 
-0.003600650400886552 
-0.0005070493114152456 
-0.005574078061666458 
0.0003170935755604971 
-0.005992750720247308 
0 
-0.005574078061666458 
-0.0003170935755604971 
-0.003640361713659676 
0.002031675780403249 
-0.006133374529510406 
0 
-0.003640361713659676 
-0.002031675780403249 
-0.003392619153975658 
0.001319439315196808 
-0.00467792110221531 
0 
-0.003392619153975658 
-0.001319439315196808 
-0.002275985849159785 
0.001570348860537337 
-0.003925259368894776 
0 
-0.002275985849159785 
-0.001570348860537337 
-0.002229035820135766 
0.001912394934760864 
-0.004317452421180519 
0 
-0.002229035820135766 
-0.001912394934760864 
0.001555709703306163 
1.171920731264888e-06 
0.001679907319730733 
0 
0.001555709703306163 
-1.171920731264888e-06 
0.004028010402848557 
-0.0003901435682487946 
0.006213834342468526 
0 
0.004028010402848557 
0.0003901435682487946 
-0.002990481620956907 
0.001222599744802305 
-0.00346363818638618 
0 
-0.002990481620956907 
-0.001222599744802305 
-0.006488747761021363 
0.002054402327019545 
-0.009085304724733439 
0 
-0.006488747761021363 
-0.002054402327019545 
-0.006936847082153901 
0.002424850402579123 
-0.009451595345858566 
0 
-0.006936847082153901 
-0.002424850402579123 
-0.005322233320864933 
0.00201855844206975 
-0.00739293457126501 
0 
-0.005322233320864933 
-0.00201855844206975 
-0.002309694551525366 
0.000343828341295805 
-0.002455880600075234 
0 
-0.002309694551525366 
-0.000343828341295805 
-0.001800242309598071 
-0.0001055264756488971 
-0.00211137611446178 
0 
-0.001800242309598071 
0.0001055264756488971 
0.001976888635304673 
0.00104473077776614 
0.002259216760975108 
0 
0.001976888635304673 
-0.00104473077776614 
-0.0008897404474719749 
-0.0006356116192893165 
-0.00165692072867895 
0 
-0.0008897404474719749 
0.0006356116192893165 
-0.003387603612720278 
-0.0002220225744651195 
-0.003088586744865243 
0 
-0.003387603612720278 
0.0002220225744651195 
-0.003431261887882824 
-0.0002455931971081411 
-0.002913278018666868 
0 
-0.003431261887882824 
0.0002455931971081411 
-0.003786240532790347 
0.00300001940613253 
-0.00752419924738233 
0 
-0.003786240532790347 
-0.00300001940613253 
-0.006142126763898173 
0.001697864032736275 
-0.008265343693671807 
0 
-0.006142126763898173 
-0.001697864032736275 
-0.004838328242223758 
0.0009592206477272606 
-0.006011714272196582 
0 
-0.004838328242223758 
-0.0009592206477272606 
-0.002375529059057821 
-0.0003187280873809193 
-0.002919043690614897 
0 
-0.002375529059057821 
0.0003187280873809193 
0.005617378483625867 
-0.0004869619143109042 
0.008824385469996573 
0 
0.005617378483625867 
0.0004869619143109042 
0.001865783527489574 
0.0003604289704959089 
0.002549091426178093 
0 
0.001865783527489574 
-0.0003604289704959089 
-0.0001868270404900921 
6.997856230714255e-05 
0.0002335593224336052 
0 
-0.0001868270404900921 
-6.997856230714255e-05 
-0.001542355459780705 
0.001109631925544033 
-0.002931660236433677 
0 
-0.001542355459780705 
-0.001109631925544033 
-0.005238934754568524 
0.0008459203855566566 
-0.006458649872584345 
0 
-0.005238934754568524 
-0.0008459203855566566 
-0.004646041788350447 
0.0005028458609936826 
-0.006021369792284324 
0 
-0.004646041788350447 
-0.0005028458609936826 
-0.002961271721787504 
0.001639899368293921 
-0.004537122909557993 
0 
-0.002961271721787504 
-0.001639899368293921 
-0.003330107809013829 
0.001889576422074548 
-0.004414154316475536 
0 
-0.003330107809013829 
-0.001889576422074548 
0.001877599201037365 
0.00307746808506421 
0.001146503444958683 
0 
0.001877599201037365 
-0.00307746808506421 
-0.001328320558727846 
0.001085935215281237 
-0.002840326970634703 
0 
-0.001328320558727846 
-0.001085935215281237 
-0.003637688449695929 
0.001555315381148425 
-0.005085559377682958 
0 
-0.003637688449695929 
-0.001555315381148425 
-0.004774032263535549 
0.002072825045041045 
-0.007027594865366573 
0 
-0.004774032263535549 
-0.002072825045041045 
-0.005042540378704528 
0.002576854552176077 
-0.008065436005965015 
0 
-0.005042540378704528 
-0.002576854552176077 
-0.003419421639146554 
0.0003508388596969983 
-0.004474112926216552 
0 
-0.003419421639146554 
-0.0003508388596969983 
-0.002748293484616097 
0.0003458866133617612 
-0.003214744964842348 
0 
-0.002748293484616097 
-0.0003458866133617612 
0.003211833779684426 
-0.0008198995949940879 
0.004795955456324928 
0 
0.003211833779684426 
0.0008198995949940879 
-0.003293182544532118 
-0.002555556226243612 
-0.003255791484423793 
0 
-0.003293182544532118 
0.002555556226243612 
0.001380020599257885 
0.001088532772576972 
0.00122054905261044 
0 
0.001380020599257885 
-0.001088532772576972 
-0.002229143189972514 
-0.00116559513537165 
-0.0014570470071167 
0 
-0.002229143189972514 
0.00116559513537165 
-0.001195116425670347 
3.678986150303459e-05 
-0.001033228319433745 
0 
-0.001195116425670347 
-3.678986150303459e-05 
-0.003010165287158629 
-0.0009936960578012322 
-0.001777820577012164 
0 
-0.003010165287158629 
0.0009936960578012322 
-0.0009553808662325121 
-0.0007891004597170429 
1.594530734075501e-05 
0 
-0.0009553808662325121 
0.0007891004597170429 
0.001603732192834386 
-0.0009781525467311356 
0.003121342165700128 
0 
0.001603732192834386 
0.0009781525467311356 
0.003377701440227005 
-0.001647646552832289 
0.00639025114439509 
0 
0.003377701440227005 
0.001647646552832289 
0.007747809913943545 
0.0004131421460666036 
0.01027340829731039 
0 
0.007747809913943545 
-0.0004131421460666036 
-0.001474376059712693 
-0.000823735680253279 
-0.002822341580787512 
0 
-0.001474376059712693 
0.000823735680253279 
-0.002884548609281256 
-0.00070676849875771 
-0.002571678680958883 
0 
-0.002884548609281256 
0.00070676849875771 
-0.003691999798173825 
0.0009006308977342229 
-0.004613862343753438 
0 
-0.003691999798173825 
-0.0009006308977342229 
-0.003654035905648658 
-0.0001617917254659849 
-0.003762978694710469 
0 
-0.003654035905648658 
0.0001617917254659849 
0.0002649385754515076 
-0.001674739384667347 
0.001866399794536036 
0 
0.0002649385754515076 
0.001674739384667347 
-0.0004055166904191905 
-0.0003294931017567879 
-0.0002147133677931102 
0 
-0.0004055166904191905 
0.0003294931017567879 
-0.000774858664247664 
-0.0005440834278119951 
0.0002218618931544287 
0 
-0.000774858664247664 
0.0005440834278119951 
-0.003526970476923057 
-0.001482994432698092 
-0.00393463164007583 
0 
-0.003526970476923057 
0.001482994432698092 
0.003797440814173351 
0.001794473533034141 
0.003579273928228601 
0 
0.003797440814173351 
-0.001794473533034141 
-0.001196405754162447 
-6.292788114664336e-05 
-0.001785070465258758 
0 
-0.001196405754162447 
6.292788114664336e-05 
-0.001402481474354927 
6.140175628238449e-05 
-0.002297894896165613 
0 
-0.001402481474354927 
-6.140175628238449e-05 
-0.004088546271127131 
0.001458380486347232 
-0.005924823478112316 
0 
-0.004088546271127131 
-0.001458380486347232 
-0.004783458135284185 
0.001290757471875422 
-0.0065112510295909 
0 
-0.004783458135284185 
-0.001290757471875422 
-0.003705324013392036 
0.002433579558027444 
-0.00659878640648145 
0 
-0.003705324013392036 
-0.002433579558027444 
-0.004052468568609194 
0.001583067536403673 
-0.005124363245522952 
0 
-0.004052468568609194 
-0.001583067536403673 
-0.001452525617489907 
0.0004003623030769149 
-0.002437186744330955 
0 
-0.001452525617489907 
-0.0004003623030769149 
-0.002138910834637335 
-0.0008990418268486173 
-0.003912148266877468 
0 
-0.002138910834637335 
0.0008990418268486173 
-0.001009824771374856 
0.001984877389170879 
-0.002769626259141416 
0 
-0.001009824771374856 
-0.001984877389170879 
-0.001377242353856274 
0.002943175630499226 
-0.003784908218542885 
0 
-0.001377242353856274 
-0.002943175630499226 
-0.0003806813311307 
0.002757345039741114 
-0.00204818355614996 
0 
-0.0003806813311307 
-0.002757345039741114 
-0.004252467847171721 
0.002569532932222445 
-0.00681330387805623 
0 
-0.004252467847171721 
-0.002569532932222445 
-0.002868660430619843 
0.0009121326107612273 
-0.004155448649726594 
0 
-0.002868660430619843 
-0.0009121326107612273 
-0.002369459583193498 
0.001617143237222389 
-0.004548367592448192 
0 
-0.002369459583193498 
-0.001617143237222389 
-6.72745197376271e-05 
0.001480321103539018 
-0.001480275001210396 
0 
-6.72745197376271e-05 
-0.001480321103539018 
0.00036673297027845 
0.00139875033808001 
-0.0007115004377374307 
0 
0.00036673297027845 
-0.00139875033808001 
-0.002338815281572223 
-0.001257054427358841 
-0.001136187920298018 
0 
-0.002338815281572223 
0.001257054427358841 
-0.0009425085448503508 
-0.0001125211381948956 
-1.357687613258101e-05 
0 
-0.0009425085448503508 
0.0001125211381948956 
-0.002962664780416191 
-6.511372431270729e-05 
-0.003038592766754865 
0 
-0.002962664780416191 
6.511372431270729e-05 
-0.00188073888084141 
0.0001183461887273662 
-0.002314401711602256 
0 
-0.00188073888084141 
-0.0001183461887273662 
-0.001823308262086727 
0.0007342982192786319 
-0.002149862978479187 
0 
-0.001823308262086727 
-0.0007342982192786319 
0.0001407968205160369 
-0.0002822308656363608 
0.0004126643397583929 
0 
0.0001407968205160369 
0.0002822308656363608 
-0.002877439527020664 
0.003032762914432453 
-0.005703250921032597 
0 
-0.002877439527020664 
-0.003032762914432453 
-0.003233784536442158 
-2.431774149888023e-05 
-0.005973966484904839 
0 
-0.003233784536442158 
2.431774149888023e-05 
-0.002035907953862516 
-0.0001440276455272413 
-0.002225892380660971 
0 
-0.002035907953862516 
0.0001440276455272413 
0.0006104595269050815 
0.00153196983600168 
0.0001179115842497042 
0 
0.0006104595269050815 
-0.00153196983600168 
0.0005185926857947394 
0.000678876954513072 
-0.0003238309838656644 
0 
0.0005185926857947394 
-0.000678876954513072 
-0.00334341426181779 
0.001087466065644914 
-0.004516683183348256 
0 
-0.00334341426181779 
-0.001087466065644914 
0.000294007476312047 
-0.001213202017501205 
0.001130533159685077 
0 
0.000294007476312047 
0.001213202017501205 
-0.001197633087591059 
0.001178573625041021 
-0.002102767560498874 
0 
-0.001197633087591059 
-0.001178573625041021 
-0.0001860539059029025 
0.001511732567220976 
-0.001390738694587562 
0 
-0.0001860539059029025 
-0.001511732567220976 
-0.001786760264493815 
0.0005604985568835422 
-0.003529401474714525 
0 
-0.001786760264493815 
-0.0005604985568835422 
-0.00222413238638584 
0.0003407816255290557 
-0.002737450123612206 
0 
-0.00222413238638584 
-0.0003407816255290557 
0.0009519857342722019 
-0.0005276293508701817 
0.00291185416820439 
0 
0.0009519857342722019 
0.0005276293508701817 
0.002875586264815112 
-0.0008861122860147889 
0.005543472117446087 
0 
0.002875586264815112 
0.0008861122860147889 
0.003253135815654178 
-0.001297842132934752 
0.005772586541724798 
0 
0.003253135815654178 
0.001297842132934752 
-0.001877806371030296 
-0.0006753075624711295 
-0.001292251647581709 
0 
-0.001877806371030296 
0.0006753075624711295 
-0.00407301781963318 
0.0004735686570038276 
-0.004949369797348424 
0 
-0.00407301781963318 
-0.0004735686570038276 
-0.001821738116047037 
0.001033497159278461 
-0.003525641191582207 
0 
-0.001821738116047037 
-0.001033497159278461 
0.002138120881846042 
0.001191713204822991 
0.001898282399860267 
0 
0.002138120881846042 
-0.001191713204822991 
6.785151818473684e-05 
-0.0006693412197747295 
8.95339435794733e-05 
0 
6.785151818473684e-05 
0.0006693412197747295 
-0.001724777875683188 
-0.00105248829864073 
-0.0004474441316188583 
0 
-0.001724777875683188 
0.00105248829864073 
-0.0009987582342344771 
0.001247953780514101 
-0.0008530446061404287 
0 
-0.0009987582342344771 
-0.001247953780514101 
-0.004453681970775676 
0.0002006366753364085 
-0.00580763415518339 
0 
-0.004453681970775676 
-0.0002006366753364085 
-0.000389471920277478 
-0.0003807559666105304 
0.0007594261485624596 
0 
-0.000389471920277478 
0.0003807559666105304 
-0.001802557440961936 
-0.002074866749491626 
0.0003217050768365986 
0 
-0.001802557440961936 
0.002074866749491626 
-0.001793991402819772 
-0.0003831315562221901 
-0.001715595449992087 
0 
-0.001793991402819772 
0.0003831315562221901 
0.0002341630664031923 
0.0008937132331835862 
-0.0007783194945704152 
0 
0.0002341630664031923 
-0.0008937132331835862 
-0.001396133517592167 
0.0001003653528243242 
-0.001403761210989774 
0 
-0.001396133517592167 
-0.0001003653528243242 
-0.00363172215599654 
0.001161590669713378 
-0.004705879550572164 
0 
-0.00363172215599654 
-0.001161590669713378 
-0.0004700439753665688 
0.0002730658724475576 
0.0006003368610375794 
0 
-0.0004700439753665688 
-0.0002730658724475576 
0.002283421448869161 
0.0008171359877536705 
0.001687535315147355 
0 
0.002283421448869161 
-0.0008171359877536705 
-0.0007817858334626273 
0.0006710521753145256 
-0.001988840542839452 
0 
-0.0007817858334626273 
-0.0006710521753145256 
-0.001077802800112965 
0.0003745788782146787 
-0.00188870123273041 
0 
-0.001077802800112965 
-0.0003745788782146787 
0.001764170528825215 
0.0008504413653249934 
0.0005493852532023005 
0 
0.001764170528825215 
-0.0008504413653249934 
-0.0007980105769819648 
-0.0007085601191818826 
-0.002437124347238631 
0 
-0.0007980105769819648 
0.0007085601191818826 
-0.0002631633635865294 
-0.0002148129497823329 
-0.0005223742421602233 
0 
-0.0002631633635865294 
0.0002148129497823329 
-0.002010057878743026 
-0.0002209508238820918 
-0.001386377065218753 
0 
-0.002010057878743026 
0.0002209508238820918 
-0.003339731965865271 
0.002625634829445598 
-0.005399125206453028 
0 
-0.003339731965865271 
-0.002625634829445598 
-0.005544442108933387 
-0.0007725355664865443 
-0.005686612709854998 
0 
-0.005544442108933387 
0.0007725355664865443 
0.0004522924347294929 
0.000378176568026741 
0.0008042168678874682 
0 
0.0004522924347294929 
-0.000378176568026741 
-0.002063430956536247 
-0.00142529459099505 
-0.0009901201103129772 
0 
-0.002063430956536247 
0.00142529459099505 
-0.0002601398811549986 
0.0002807688023465647 
-0.0007815525302108938 
0 
-0.0002601398811549986 
-0.0002807688023465647 
-0.00358164964342802 
0.0009046935224126085 
-0.004171180849861716 
0 
-0.00358164964342802 
-0.0009046935224126085 
-0.002999429814561229 
0.001108093465665951 
-0.004275182125352936 
0 
-0.002999429814561229 
-0.001108093465665951 
-0.001301084025107843 
-0.0002436910304223159 
-0.0006393749005431602 
0 
-0.001301084025107843 
0.0002436910304223159 
-0.001165143905562565 
0.0007286689945768721 
-0.001644590706051555 
0 
-0.001165143905562565 
-0.0007286689945768721 
0.001044958444748814 
0.001079882629692767 
0.0006888197054464629 
0 
0.001044958444748814 
-0.001079882629692767 
-0.002851224097978321 
-0.0003385830611949273 
-0.002983992928422264 
0 
-0.002851224097978321 
0.0003385830611949273 
0.003243002283752981 
-0.0007769763488108914 
0.004187904577767627 
0 
0.003243002283752981 
0.0007769763488108914 
0.0009186684633985139 
-0.0008207004541679268 
0.001560649680715445 
0 
0.0009186684633985139 
0.0008207004541679268 
0.0001467674286721442 
0.0004482794602989503 
-0.0004226144904123032 
0 
0.0001467674286721442 
-0.0004482794602989503 
-0.004292143038163428 
-0.0009589269516394754 
-0.002946377618128785 
0 
-0.004292143038163428 
0.0009589269516394754 
-0.006021811978205705 
0.0006827938555983046 
-0.006567685909378016 
0 
-0.006021811978205705 
-0.0006827938555983046 
-0.001777973447021377 
0.001665594230546798 
-0.002608350422411891 
0 
-0.001777973447021377 
-0.001665594230546798 
-0.004354344452601692 
0.001600557455061552 
-0.006683643780137084 
0 
-0.004354344452601692 
-0.001600557455061552 
-0.001572450793594781 
0.00105019745696224 
-0.002304068208953969 
0 
-0.001572450793594781 
-0.00105019745696224 
-0.002214322230277553 
0.0003012834644425848 
-0.00202215139035811 
0 
-0.002214322230277553 
-0.0003012834644425848 
-0.003314887137638224 
0.0003749929961714188 
-0.004017129151866014 
0 
-0.003314887137638224 
-0.0003749929961714188 
0.000163002125110528 
-7.110884513797139e-05 
-0.0001264195539808531 
0 
0.000163002125110528 
7.110884513797139e-05 
-0.001388659207408523 
0.000440426833024086 
-0.00158161796952869 
0 
-0.001388659207408523 
-0.000440426833024086 
-0.001445381353297037 
0.001175169412377368 
-0.00196803943995394 
0 
-0.001445381353297037 
-0.001175169412377368 
0.001007770885947151 
-0.001327230739075947 
