solver_type L2R_L2LOSS_SVC_DUAL
nr_class 2
label 1 2
nr_feature 48192
bias -1
w
-0.001531786004554832 
-0.0003893879346520551 
-0.001578858102133661 
-0.001183000739519022 
-0.000975618736450161 
0 
-0.001578858102133661 
0.001183000739519022 
-0.001531786004554832 
0.0003893879346520551 
-0.0005851383713152399 
0.001048400902353337 
-0.002084410616522764 
0.0007476831165120374 
-0.002839803408117149 
0 
-0.002084410616522764 
-0.0007476831165120374 
-0.0005851383713152399 
-0.001048400902353337 
-0.0009103160337360829 
0.001308954831146034 
-0.003669898639262969 
0.001683179737707607 
-0.006165095855224116 
0 
-0.003669898639262969 
-0.001683179737707607 
-0.0009103160337360829 
-0.001308954831146034 
-0.001273109977876796 
0.00111178914545293 
-0.00345192358517538 
0.001465465833932266 
-0.00587956552243422 
0 
-0.00345192358517538 
-0.001465465833932266 
-0.001273109977876796 
-0.00111178914545293 
-0.001573609216284368 
0.001645349081616197 
-0.005077732095885309 
0.001601894002415747 
-0.007983633024555317 
0 
-0.005077732095885309 
-0.001601894002415747 
-0.001573609216284368 
-0.001645349081616197 
0.000148464599555956 
0.0001472320124896656 
5.542145675364701e-05 
0.0001518877975430099 
-9.744161782286174e-05 
0 
5.542145675364701e-05 
-0.0001518877975430099 
0.000148464599555956 
-0.0001472320124896656 
-0.0008914475028412349 
0.0002177625255448431 
-0.001547465310368216 
0.000147952495765352 
-0.002469379655739058 
0 
-0.001547465310368216 
-0.000147952495765352 
-0.0008914475028412349 
-0.0002177625255448431 
-0.0001963059025983304 
7.851718554152356e-05 
6.99870027759584e-05 
-2.66498790366901e-06 
0.0002648953656688107 
0 
6.99870027759584e-05 
2.66498790366901e-06 
-0.0001963059025983304 
-7.851718554152356e-05 
0.0008744375845498108 
0.0004460859908389559 
0.001590939444051997 
0.0003024194610790112 
0.002310368543488049 
0 
0.001590939444051997 
-0.0003024194610790112 
0.0008744375845498108 
-0.0004460859908389559 
-0.001025011008382677 
0.0008901948672445156 
-0.002494573824030234 
0.0005104756810931914 
-0.003403420733199337 
0 
-0.002494573824030234 
-0.0005104756810931914 
-0.001025011008382677 
-0.0008901948672445156 
-0.001992569185462231 
0.001333481538276722 
-0.003954211197695178 
-0.0001970901913220899 
-0.003842584155096616 
0 
-0.003954211197695178 
0.0001970901913220899 
-0.001992569185462231 
-0.001333481538276722 
0.0007323979298597927 
0.0003006768139933099 
0.001548168942328617 
-0.0002496771889100834 
0.003433763606857197 
0 
0.001548168942328617 
0.0002496771889100834 
0.0007323979298597927 
-0.0003006768139933099 
0.001659730287485179 
-0.0001363529258691003 
0.004263998279899346 
-0.0004566775885087272 
0.007290423188713258 
0 
0.004263998279899346 
0.0004566775885087272 
0.001659730287485179 
0.0001363529258691003 
-0.0006105480409180266 
0.001260379911662756 
-0.002921593494483604 
0.0008352135830798183 
-0.003504831696492475 
0 
-0.002921593494483604 
-0.0008352135830798183 
-0.0006105480409180266 
-0.001260379911662756 
-0.0007757213790991094 
0.0009073119171252071 
-0.001346434064842196 
-0.0003744766460258668 
1.210890213065035e-05 
0 
-0.001346434064842196 
0.0003744766460258668 
-0.0007757213790991094 
-0.0009073119171252071 
-0.001957715151427509 
0.0006424964910049896 
-0.003401644773958994 
-0.0006386418204907423 
-0.003131582656921332 
0 
-0.003401644773958994 
0.0006386418204907423 
-0.001957715151427509 
-0.0006424964910049896 
-0.0008822916268269091 
0.0007091085806882558 
-0.002685744240170118 
0.0006087532414006545 
-0.003445561171692818 
0 
-0.002685744240170118 
-0.0006087532414006545 
-0.0008822916268269091 
-0.0007091085806882558 
0.0009805904554756708 
0.0004032454444824733 
-0.0003312323721480291 
0.001100785561448295 
-0.001178618150943334 
0 
-0.0003312323721480291 
-0.001100785561448295 
0.0009805904554756708 
-0.0004032454444824733 
0.000128215797150337 
0.0008020790419253358 
-0.001526599245649764 
0.0008758593486779555 
-0.002324134020909406 
0 
-0.001526599245649764 
-0.0008758593486779555 
0.000128215797150337 
-0.0008020790419253358 
0.0002499075940961829 
0.0009963811941530254 
-0.001366229254159252 
0.001224587427814764 
-0.002354402141249223 
0 
-0.001366229254159252 
-0.001224587427814764 
0.0002499075940961829 
-0.0009963811941530254 
-0.003207934257665811 
0.001589199572158863 
-0.006699619789391582 
0.0001479258612275956 
-0.00815598328228517 
0 
-0.006699619789391582 
-0.0001479258612275956 
-0.003207934257665811 
-0.001589199572158863 
0.0002944167144307389 
0.0004647212917338039 
-0.0003228599266143141 
0.0002067457306926167 
0.0002064126616550027 
0 
-0.0003228599266143141 
-0.0002067457306926167 
0.0002944167144307389 
-0.0004647212917338039 
0.0004595045258764313 
0.0004951523992193217 
-0.000465135466818365 
0.001037651336032062 
-0.001481703557288889 
0 
-0.000465135466818365 
-0.001037651336032062 
0.0004595045258764313 
-0.0004951523992193217 
0.0003660832975997163 
0.001125741354159617 
-0.0009765520838042048 
0.001134603850622831 
-0.001567641426862425 
0 
-0.0009765520838042048 
-0.001134603850622831 
0.0003660832975997163 
-0.001125741354159617 
-0.0002147067259331433 
0.001530857283004215 
-0.002261581299776556 
0.001537919350095024 
-0.003416146387047526 
0 
-0.002261581299776556 
-0.001537919350095024 
-0.0002147067259331433 
-0.001530857283004215 
-9.225684709586607e-05 
7.156463824339986e-05 
-0.0006868797279302801 
0.0003984234539891396 
-0.001579758523418485 
0 
-0.0006868797279302801 
-0.0003984234539891396 
-9.225684709586607e-05 
-7.156463824339986e-05 
-0.001792049164509402 
0.001602650945221255 
-0.005208860641225346 
0.0009666766348674931 
-0.006551471925353284 
0 
-0.005208860641225346 
-0.0009666766348674931 
-0.001792049164509402 
-0.001602650945221255 
0.0006120722251369157 
0.0009862814465157886 
0.0002465358706254839 
0.0004980203340750106 
0.001182251491914013 
0 
0.0002465358706254839 
-0.0004980203340750106 
0.0006120722251369157 
-0.0009862814465157886 
0.002310987471813279 
9.449717578825327e-05 
0.004443512806764176 
0.000304254894916298 
0.006331701409721661 
0 
0.004443512806764176 
-0.000304254894916298 
0.002310987471813279 
-9.449717578825327e-05 
-0.0004153894462653529 
0.001718566367305146 
-0.002815809807736678 
0.001421011698485464 
-0.003865907151256532 
0 
-0.002815809807736678 
-0.001421011698485464 
-0.0004153894462653529 
-0.001718566367305146 
-0.001510452267882122 
0.00119097980790965 
-0.00331141339267057 
-0.0001952991036461564 
-0.002512567434712955 
0 
-0.00331141339267057 
0.0001952991036461564 
-0.001510452267882122 
-0.00119097980790965 
-0.001452518354881884 
-5.140166333326161e-05 
-0.002385514175804429 
0.0001062389363983546 
-0.004121344176695267 
0 
-0.002385514175804429 
-0.0001062389363983546 
-0.001452518354881884 
5.140166333326161e-05 
-0.000555599732030105 
0.0008694938096942858 
-0.003001202329415055 
0.001771044016851366 
-0.0056749867428202 
0 
-0.003001202329415055 
-0.001771044016851366 
-0.000555599732030105 
-0.0008694938096942858 
0.001227700109129034 
0.0018451341062593 
-0.001636485950140467 
0.002905225337018922 
-0.004160257199796835 
0 
-0.001636485950140467 
-0.002905225337018922 
0.001227700109129034 
-0.0018451341062593 
-0.0008067257126786732 
0.0008934339477077701 
-0.002427776716495117 
0.0006869361355186464 
-0.003641493727701619 
0 
-0.002427776716495117 
-0.0006869361355186464 
-0.0008067257126786732 
-0.0008934339477077701 
-0.0007134231444840273 
0.00158318958985374 
-0.003794361056157689 
0.001696774528505652 
-0.00588465505772362 
0 
-0.003794361056157689 
-0.001696774528505652 
-0.0007134231444840273 
-0.00158318958985374 
-0.002358393991556817 
0.002006498031336007 
-0.005762684247191 
0.0008285364602415347 
-0.007221288994880314 
0 
-0.005762684247191 
-0.0008285364602415347 
-0.002358393991556817 
-0.002006498031336007 
0.0003411995018372496 
-0.000556276245731427 
0.001162262177797703 
-0.0009477726469850015 
0.002567372240461888 
0 
0.001162262177797703 
0.0009477726469850015 
0.0003411995018372496 
0.000556276245731427 
-0.001011090882915686 
0.001419578649271846 
-0.003244841382398087 
0.0005322388185328072 
-0.003391772023416963 
0 
-0.003244841382398087 
-0.0005322388185328072 
-0.001011090882915686 
-0.001419578649271846 
6.477007289616812e-05 
0.0007085950783761778 
-0.001148436967041119 
0.0005639549783151659 
-0.00128239137620217 
0 
-0.001148436967041119 
-0.0005639549783151659 
6.477007289616812e-05 
-0.0007085950783761778 
-0.0009308402912181622 
-0.0002461584249461207 
-0.001463514872668944 
-0.0006174348318011237 
-0.001392485633622693 
0 
-0.001463514872668944 
0.0006174348318011237 
-0.0009308402912181622 
0.0002461584249461207 
-0.0004703577669612451 
0.001221233093803021 
-0.002070626651245937 
0.0007642636495444757 
-0.00264908788499265 
0 
-0.002070626651245937 
-0.0007642636495444757 
-0.0004703577669612451 
-0.001221233093803021 
-0.001067726527863922 
0.002106838244918182 
-0.004306139428436911 
0.001527428143340442 
-0.005663008475728312 
0 
-0.004306139428436911 
-0.001527428143340442 
-0.001067726527863922 
-0.002106838244918182 
0.001562858121894556 
0.0007465647635243043 
0.002674362852178161 
3.57510514172898e-06 
0.005340394134888737 
0 
0.002674362852178161 
-3.57510514172898e-06 
0.001562858121894556 
-0.0007465647635243043 
0.002568440934526372 
-2.237256440242102e-05 
0.005319578529150003 
9.473636204387717e-05 
0.007768713438010181 
0 
0.005319578529150003 
-9.473636204387717e-05 
0.002568440934526372 
2.237256440242102e-05 
-0.0001651523346276294 
0.002664046439406909 
-0.004304176493777419 
0.003242485418265369 
-0.007624936371013831 
0 
-0.004304176493777419 
-0.003242485418265369 
-0.0001651523346276294 
-0.002664046439406909 
-0.000926521871976324 
0.001590998401176118 
-0.00327977939144863 
0.00131398648403625 
-0.005006093608707111 
0 
-0.00327977939144863 
-0.00131398648403625 
-0.000926521871976324 
-0.001590998401176118 
-0.0005079145372982371 
0.0012779645804264 
-0.003462279211645998 
0.001555732044925589 
-0.005448654621262089 
0 
-0.003462279211645998 
-0.001555732044925589 
-0.0005079145372982371 
-0.0012779645804264 
-0.001386456748247408 
0.0002071524762559381 
-0.001554849243990263 
-0.0008773485463173446 
-0.000554355919204594 
0 
-0.001554849243990263 
0.0008773485463173446 
-0.001386456748247408 
-0.0002071524762559381 
0.000981433558806329 
0.0003899321009548446 
0.000961062716476118 
0.0003871195507854255 
0.001453525636644555 
0 
0.000961062716476118 
-0.0003871195507854255 
0.000981433558806329 
-0.0003899321009548446 
0.0003629276014373916 
0.000220252516627868 
-0.0003505536814203628 
0.0005919887389121625 
-0.001025254749529573 
0 
-0.0003505536814203628 
-0.0005919887389121625 
0.0003629276014373916 
-0.000220252516627868 
0.0004038081608771521 
0.0007671144853059564 
-0.001322243162302351 
0.001364079847867142 
-0.002600673406723289 
0 
-0.001322243162302351 
-0.001364079847867142 
0.0004038081608771521 
-0.0007671144853059564 
-0.001437793700955081 
0.001578726334328317 
-0.00448534598999446 
0.001604520529476293 
-0.00746366711509765 
0 
-0.00448534598999446 
-0.001604520529476293 
-0.001437793700955081 
-0.001578726334328317 
0.0005349952181930977 
-3.20404684567479e-05 
0.0002416393996368066 
0.0002020817456319926 
0.0005084165901554739 
0 
0.0002416393996368066 
-0.0002020817456319926 
0.0005349952181930977 
3.20404684567479e-05 
-0.0006854968282568088 
0.00128647061904557 
-0.002285795936651337 
0.0009963637989706714 
-0.003337779462695748 
0 
-0.002285795936651337 
-0.0009963637989706714 
-0.0006854968282568088 
-0.00128647061904557 
0.0002537023591104715 
-0.0002576338604464034 
0.0007999768532064412 
-0.0002281405843626335 
0.001015507096904183 
0 
0.0007999768532064412 
0.0002281405843626335 
0.0002537023591104715 
0.0002576338604464034 
-0.001214971928750957 
-0.0004508479437006465 
-0.001171434241967143 
-0.0005750808846244418 
-0.001617124106771843 
0 
-0.001171434241967143 
0.0005750808846244418 
-0.001214971928750957 
0.0004508479437006465 
-0.001041640115905148 
0.001436380411135225 
-0.003225094824997983 
0.0009849296742985446 
-0.004411327720299813 
0 
-0.003225094824997983 
-0.0009849296742985446 
-0.001041640115905148 
-0.001436380411135225 
-0.0009880977157340843 
-4.567827295383029e-05 
-0.001608252255442863 
-0.0001846000108368938 
-0.001942948758381868 
0 
-0.001608252255442863 
0.0001846000108368938 
-0.0009880977157340843 
4.567827295383029e-05 
0.001624593088981397 
-0.0002762614878661746 
0.003029166721818469 
-0.0005158719651923391 
0.005216318086081696 
0 
0.003029166721818469 
0.0005158719651923391 
0.001624593088981397 
0.0002762614878661746 
0.0004082638262592158 
-0.0004240316816489442 
0.001606746276063262 
-0.0005937297199227312 
0.002814589864913581 
0 
0.001606746276063262 
0.0005937297199227312 
0.0004082638262592158 
0.0004240316816489442 
-0.0008051541760801373 
0.0009156355434546255 
-0.002323038349345691 
0.0005028324583630922 
-0.00289319005520691 
0 
-0.002323038349345691 
-0.0005028324583630922 
-0.0008051541760801373 
-0.0009156355434546255 
-0.0007390009241660543 
0.0007044688551755531 
-0.001197273891313915 
-0.0003741925210595801 
-0.0001315257927499558 
0 
-0.001197273891313915 
0.0003741925210595801 
-0.0007390009241660543 
-0.0007044688551755531 
-0.001916704984281336 
0.00105141546370471 
-0.004057002205111354 
0.0004045153908682424 
-0.005123325687378735 
0 
-0.004057002205111354 
-0.0004045153908682424 
-0.001916704984281336 
-0.00105141546370471 
-0.0003560321822805832 
0.0004519544368390798 
-0.001626628079412824 
0.0009421336403756484 
-0.003389316854604946 
0 
-0.001626628079412824 
-0.0009421336403756484 
-0.0003560321822805832 
-0.0004519544368390798 
0.000570928682974437 
2.248047790719866e-05 
0.0003814089039835762 
0.0003783762123997577 
0.0004648738848852823 
0 
0.0003814089039835762 
-0.0003783762123997577 
0.000570928682974437 
-2.248047790719866e-05 
-0.0006610359529152631 
0.0008515045454450854 
-0.001907239751730648 
0.0005434512686700244 
-0.002365501123996826 
0 
-0.001907239751730648 
-0.0005434512686700244 
-0.0006610359529152631 
-0.0008515045454450854 
6.765130048218809e-05 
0.0004938418510716923 
-0.001280144308451228 
0.001391435662916857 
-0.003178891598507316 
0 
-0.001280144308451228 
-0.001391435662916857 
6.765130048218809e-05 
-0.0004938418510716923 
-0.001877747105701418 
0.001446934720311135 
-0.00517221046914759 
0.001788239947633141 
-0.008894981139124505 
0 
-0.00517221046914759 
-0.001788239947633141 
-0.001877747105701418 
-0.001446934720311135 
0.0006960032547099491 
0.001128894478437244 
-0.001796957908920336 
0.00161683305208907 
-0.002783553005023972 
0 
-0.001796957908920336 
-0.00161683305208907 
0.0006960032547099491 
-0.001128894478437244 
-4.448495454829995e-06 
0.001068868880302718 
-0.001926748422021814 
0.00174248621538744 
-0.003955698151204634 
0 
-0.001926748422021814 
-0.00174248621538744 
-4.448495454829995e-06 
-0.001068868880302718 
-0.0002833583403643449 
0.001089550579543315 
-0.001175287754573881 
0.0008309172051055544 
-0.001621812879207238 
0 
-0.001175287754573881 
-0.0008309172051055544 
-0.0002833583403643449 
-0.001089550579543315 
0.001151928865769393 
4.531111307598729e-05 
0.001887056494894544 
0.0003331757548166896 
0.002576846172946924 
0 
0.001887056494894544 
-0.0003331757548166896 
0.001151928865769393 
-4.531111307598729e-05 
-0.0007252107877010872 
0.0002471325747661996 
-0.00157190301984253 
0.0003696138766067611 
-0.002493522452302277 
0 
-0.00157190301984253 
-0.0003696138766067611 
-0.0007252107877010872 
-0.0002471325747661996 
-0.001424458824869153 
0.0003959885964475894 
-0.003072457003348499 
-0.000573119863628431 
-0.002529167920190996 
0 
-0.003072457003348499 
0.000573119863628431 
-0.001424458824869153 
-0.0003959885964475894 
0.000763695415712689 
-0.0003472078694943532 
0.001839743574720037 
-0.0003089634299473611 
0.002936517249968994 
0 
0.001839743574720037 
0.0003089634299473611 
0.000763695415712689 
0.0003472078694943532 
0.0006381555653377564 
-0.0003340913758463468 
0.001234114203961725 
0.0001730234961420485 
0.001194155231594208 
0 
0.001234114203961725 
-0.0001730234961420485 
0.0006381555653377564 
0.0003340913758463468 
-0.001040309680894424 
0.0008197648387609426 
-0.002639337115701218 
0.0002593037254571506 
-0.002817169243303666 
0 
-0.002639337115701218 
-0.0002593037254571506 
-0.001040309680894424 
-0.0008197648387609426 
0.0006164409215447212 
0.0003639236591458029 
-0.0008892903999478004 
0.0010802210074724 
-0.001458883108271201 
0 
-0.0008892903999478004 
-0.0010802210074724 
0.0006164409215447212 
-0.0003639236591458029 
-0.0005303198327735212 
0.00158345952278523 
-0.003758654032810484 
0.001945014493705849 
-0.005960994739012129 
0 
-0.003758654032810484 
-0.001945014493705849 
-0.0005303198327735212 
-0.00158345952278523 
0.0002232017874538531 
-0.0008267693993920305 
0.001615073717210908 
-0.001527023358820466 
0.004016123777008777 
0 
0.001615073717210908 
0.001527023358820466 
0.0002232017874538531 
0.0008267693993920305 
0.0007455756890396323 
-0.0007101414775000519 
0.002048065676477505 
-0.0004740957646097445 
0.00305032529147354 
0 
0.002048065676477505 
0.0004740957646097445 
0.0007455756890396323 
0.0007101414775000519 
-0.000532979363706076 
-0.0007467632639092673 
-2.292285540452063e-05 
-0.0008327552128268306 
0.0004031390931672177 
0 
-2.292285540452063e-05 
0.0008327552128268306 
-0.000532979363706076 
0.0007467632639092673 
-8.258353647393413e-05 
0.0008466917251096603 
-0.002130532721768649 
0.001894323011981731 
-0.004709347432570328 
0 
-0.002130532721768649 
-0.001894323011981731 
-8.258353647393413e-05 
-0.0008466917251096603 
-0.002466113976184799 
0.0009587052813632355 
-0.00506678087648688 
0.0003638378440937888 
-0.007187120403046425 
0 
-0.00506678087648688 
-0.0003638378440937888 
-0.002466113976184799 
-0.0009587052813632355 
0.0005797347093119543 
-8.132795187720399e-05 
-0.0003589243678146511 
0.0008154564196131359 
-0.0014402852404305 
0 
-0.0003589243678146511 
-0.0008154564196131359 
0.0005797347093119543 
8.132795187720399e-05 
-0.0004065422296915417 
0.0006563508579569251 
-0.002207871044596688 
0.0008675677107311464 
-0.0033307871625982 
0 
-0.002207871044596688 
-0.0008675677107311464 
-0.0004065422296915417 
-0.0006563508579569251 
-0.000792032447427004 
-0.0005415336536871322 
-0.001143673801097974 
-0.0006005515488412238 
-0.001280210850201108 
0 
-0.001143673801097974 
0.0006005515488412238 
-0.000792032447427004 
0.0005415336536871322 
0.001260528388576157 
-0.0003681403108768926 
0.002753275738611452 
0.0002975616235686329 
0.002921468298917227 
0 
0.002753275738611452 
-0.0002975616235686329 
0.001260528388576157 
0.0003681403108768926 
-1.176886477903518e-05 
-5.322008211597881e-05 
-0.0009372014926607049 
0.0004398983217792424 
-0.001671508168652437 
0 
-0.0009372014926607049 
-0.0004398983217792424 
-1.176886477903518e-05 
5.322008211597881e-05 
-0.001894294922547601 
0.0006661682459422487 
-0.003507860325957258 
-0.0002706470426253098 
-0.003779921312871666 
0 
-0.003507860325957258 
0.0002706470426253098 
-0.001894294922547601 
-0.0006661682459422487 
0.0004829845616751152 
0.0003702915919213025 
0.0007713427581250916 
-9.460965426245051e-05 
0.002122365431884594 
0 
0.0007713427581250916 
9.460965426245051e-05 
0.0004829845616751152 
-0.0003702915919213025 
-0.0003060654795263833 
-0.001357004298152272 
0.001174670045632853 
-0.001482561745183959 
0.002067022353132871 
0 
0.001174670045632853 
0.001482561745183959 
-0.0003060654795263833 
0.001357004298152272 
-0.0007574520329007529 
-0.0001367368977889959 
-0.0004590208885787753 
-0.000924981790932384 
0.0006091425864112863 
0 
-0.0004590208885787753 
0.000924981790932384 
-0.0007574520329007529 
0.0001367368977889959 
0.0009675643005448504 
0.0005354855061268632 
0.001111321130768517 
-4.391192490599209e-05 
0.002909473258414828 
0 
0.001111321130768517 
4.391192490599209e-05 
0.0009675643005448504 
-0.0005354855061268632 
-0.0003718805784878979 
-0.0003035188023390872 
-0.0005355111655971335 
-0.0008865745757940523 
0.0005776808866231751 
0 
-0.0005355111655971335 
0.0008865745757940523 
-0.0003718805784878979 
0.0003035188023390872 
-0.001442425286876995 
0.0005793312626605806 
-0.001647171660064039 
-0.0004702269034913446 
-0.001200304060925945 
0 
-0.001647171660064039 
0.0004702269034913446 
-0.001442425286876995 
-0.0005793312626605806 
-5.320540093819506e-05 
0.0001912813227525215 
0.000364409975632196 
-0.0004376813525994181 
0.001290239477090991 
0 
0.000364409975632196 
0.0004376813525994181 
-5.320540093819506e-05 
-0.0001912813227525215 
-0.001096639102901284 
0.0007868272055383391 
-0.00257358743549931 
-0.0005566334987246865 
-0.001305567291252057 
0 
-0.00257358743549931 
0.0005566334987246865 
-0.001096639102901284 
-0.0007868272055383391 
-0.001094400629850419 
0.0007593281328658684 
-0.003431795529719339 
0.001162060153023539 
-0.005674296991130885 
0 
-0.003431795529719339 
-0.001162060153023539 
-0.001094400629850419 
-0.0007593281328658684 
-0.001030919281213738 
0.0006146528717244031 
-0.002197628664783069 
0.0003115911228353972 
-0.003211975317954012 
0 
-0.002197628664783069 
-0.0003115911228353972 
-0.001030919281213738 
-0.0006146528717244031 
9.554908496935133e-05 
-0.0004411634743994695 
0.00091189204308524 
-0.0004705614797874564 
0.0009061413225577656 
0 
0.00091189204308524 
0.0004705614797874564 
9.554908496935133e-05 
0.0004411634743994695 
0.0001587691742485067 
-0.0003809145340920436 
-2.410114613384424e-05 
0.0001861142405195683 
-0.0006516757778330746 
0 
-2.410114613384424e-05 
-0.0001861142405195683 
0.0001587691742485067 
0.0003809145340920436 
-0.0001031596856419686 
-0.0005323955863351422 
0.000598902458559488 
-0.001102876605243593 
0.001934613248607429 
0 
0.000598902458559488 
0.001102876605243593 
-0.0001031596856419686 
0.0005323955863351422 
0.0008697334403157585 
0.0006343386132873577 
0.0005504594336423332 
0.0008727600808842908 
0.0002089439803121943 
0 
0.0005504594336423332 
-0.0008727600808842908 
0.0008697334403157585 
-0.0006343386132873577 
-0.002284807680467351 
0.0007313729291837415 
-0.003175954234694224 
-0.0008926372485372417 
-0.002646483083706242 
0 
-0.003175954234694224 
0.0008926372485372417 
-0.002284807680467351 
-0.0007313729291837415 
-0.001284170511603909 
0.001314526901317051 
-0.003312833105822517 
0.0007000388525148753 
-0.004293444071830183 
0 
-0.003312833105822517 
-0.0007000388525148753 
-0.001284170511603909 
-0.001314526901317051 
0.001136675674375942 
0.001577685096655056 
0.00103067301286148 
0.001119590678589154 
0.001879194733886234 
0 
0.00103067301286148 
-0.001119590678589154 
0.001136675674375942 
-0.001577685096655056 
-0.0005333551393222824 
0.0004016557337416142 
-0.0003291193221475692 
-0.0004130801871889484 
0.0006813049656095459 
0 
-0.0003291193221475692 
0.0004130801871889484 
-0.0005333551393222824 
-0.0004016557337416142 
2.416236021995388e-05 
0.00135045938843084 
-0.001653380095331073 
0.001303333210384654 
-0.002510418162304792 
0 
-0.001653380095331073 
-0.001303333210384654 
2.416236021995388e-05 
-0.00135045938843084 
-0.001686417649536207 
8.323234604790126e-05 
-0.001541947823073112 
-0.001053323622036922 
-0.001213052178030611 
0 
-0.001541947823073112 
0.001053323622036922 
-0.001686417649536207 
-8.323234604790126e-05 
-0.001222451878861537 
0.0009708580826285017 
-0.002890242074618185 
0.0001514388221768779 
-0.002906225124774495 
0 
-0.002890242074618185 
-0.0001514388221768779 
-0.001222451878861537 
-0.0009708580826285017 
-0.001203448122671872 
0.0003232103890961668 
-0.003196474724251835 
0.0003353178541610546 
-0.004640809335828645 
0 
-0.003196474724251835 
-0.0003353178541610546 
-0.001203448122671872 
-0.0003232103890961668 
0.0004025230737983775 
0.0002648754192829917 
-0.0004747303436686703 
0.0006916366750019091 
-0.0009403525954935483 
0 
-0.0004747303436686703 
-0.0006916366750019091 
0.0004025230737983775 
-0.0002648754192829917 
0.0002147653769036219 
0.0004313425073126803 
-0.0006942224597663003 
0.0008170258326317692 
-0.001499953876035735 
0 
-0.0006942224597663003 
-0.0008170258326317692 
0.0002147653769036219 
-0.0004313425073126803 
0.0001980621128519921 
0.0009875832994220429 
-0.00163505501793208 
0.00177429399587079 
-0.003689877316528711 
0 
-0.00163505501793208 
-0.00177429399587079 
0.0001980621128519921 
-0.0009875832994220429 
-0.0001316542556491161 
0.0003930297804603144 
-0.002692826468551269 
0.001713118675824882 
-0.005609708113666402 
0 
-0.002692826468551269 
-0.001713118675824882 
-0.0001316542556491161 
-0.0003930297804603144 
0.001602073414202186 
-0.0003703571093773971 
0.00115051541933884 
0.001078275291305985 
-7.130159553302532e-06 
0 
0.00115051541933884 
-0.001078275291305985 
0.001602073414202186 
0.0003703571093773971 
-0.0002537107264815882 
0.0002911858875322396 
-0.0006707933068040527 
7.419376764434203e-05 
-0.0008794483586243942 
0 
-0.0006707933068040527 
-7.419376764434203e-05 
-0.0002537107264815882 
-0.0002911858875322396 
-0.0001571329312569315 
9.958773457146766e-06 
0.001261209651477453 
-0.0008933513949953628 
0.003149486583038151 
0 
0.001261209651477453 
0.0008933513949953628 
-0.0001571329312569315 
-9.958773457146766e-06 
-0.0006057907041013929 
-0.0002489751550785007 
-0.0004010245872133254 
-0.0004631124715680892 
-2.471411188958228e-05 
0 
-0.0004010245872133254 
0.0004631124715680892 
-0.0006057907041013929 
0.0002489751550785007 
-0.000409347079773451 
0.001021443157153258 
-0.002405087197286861 
0.001094301421393338 
-0.00377599560503939 
0 
-0.002405087197286861 
-0.001094301421393338 
-0.000409347079773451 
-0.001021443157153258 
-0.0002679851516296448 
0.001138086537920945 
-0.002168137759898218 
0.001302408678045171 
-0.003427549349465294 
0 
-0.002168137759898218 
-0.001302408678045171 
-0.0002679851516296448 
-0.001138086537920945 
0.0005966092986453003 
-0.0006756675585475591 
0.001280121567580994 
4.211175588147763e-05 
0.0007218509731246257 
0 
0.001280121567580994 
-4.211175588147763e-05 
0.0005966092986453003 
0.0006756675585475591 
0.001031225955470698 
-1.102886895055049e-05 
0.002108586073024971 
4.519685190619997e-05 
0.0029358741781181 
0 
0.002108586073024971 
-4.519685190619997e-05 
0.001031225955470698 
1.102886895055049e-05 
-0.0008564142716177099 
0.0009680425523102521 
-0.003045496792036712 
0.001376676648952742 
-0.005284460036612238 
0 
-0.003045496792036712 
-0.001376676648952742 
-0.0008564142716177099 
-0.0009680425523102521 
-0.000954701839650466 
0.001221121566772518 
-0.002991853963540418 
0.0009855461646398657 
-0.004505208172103052 
0 
-0.002991853963540418 
-0.0009855461646398657 
-0.000954701839650466 
-0.001221121566772518 
0.001575856701340738 
0.0005611845682381944 
0.001202348121179981 
0.001553928736226176 
0.0002678863747985535 
0 
0.001202348121179981 
-0.001553928736226176 
0.001575856701340738 
-0.0005611845682381944 
-0.001042745242533164 
-0.000734930742128478 
-0.001160513036919892 
-0.0008754772530336829 
-0.001210337646037838 
0 
-0.001160513036919892 
0.0008754772530336829 
-0.001042745242533164 
0.000734930742128478 
-0.0003186642119162907 
0.0009152612453799313 
-0.00200105436319528 
0.0003228730697331784 
-0.001955743412588047 
0 
-0.00200105436319528 
-0.0003228730697331784 
-0.0003186642119162907 
-0.0009152612453799313 
-0.0001073202929305505 
0.001518755253701131 
-0.002769350814758384 
0.001505486410807234 
-0.003792407373281827 
0 
-0.002769350814758384 
-0.001505486410807234 
-0.0001073202929305505 
-0.001518755253701131 
9.860149961637902e-05 
0.002092719353127916 
-0.00354039359061969 
0.003061533329222542 
-0.006718032525661232 
0 
-0.00354039359061969 
-0.003061533329222542 
9.860149961637902e-05 
-0.002092719353127916 
-0.0006327686056000231 
0.001081590715831838 
-0.004203309170945337 
0.001703887041481926 
-0.006810963455624713 
0 
-0.004203309170945337 
-0.001703887041481926 
-0.0006327686056000231 
-0.001081590715831838 
-0.0003692897977588593 
0.001512750969951787 
-0.002228317579767197 
0.0009605302362478968 
-0.002574000063090836 
0 
-0.002228317579767197 
-0.0009605302362478968 
-0.0003692897977588593 
-0.001512750969951787 
-0.001917595936373977 
0.001439888618804427 
-0.004354309097278178 
0.0005077201248605352 
-0.005267031406588857 
0 
-0.004354309097278178 
-0.0005077201248605352 
-0.001917595936373977 
-0.001439888618804427 
-0.0002256444600899883 
-0.0003329988559723891 
0.0006432060757549552 
-0.001376667857346352 
0.002922992370209385 
0 
0.0006432060757549552 
0.001376667857346352 
-0.0002256444600899883 
0.0003329988559723891 
0.0003591907034624013 
-0.001344208326534251 
0.003063799622570314 
-0.002224225255638917 
0.006319955754514452 
0 
0.003063799622570314 
0.002224225255638917 
0.0003591907034624013 
0.001344208326534251 
-0.0003864157067821628 
0.0004310117819873839 
-0.0007695933131494449 
0.0002427724757755213 
-0.001279097678050601 
0 
-0.0007695933131494449 
-0.0002427724757755213 
-0.0003864157067821628 
-0.0004310117819873839 
-0.001736421659036894 
0.001852492986202333 
-0.003735614206539452 
0.0003395569149311695 
-0.004220940312526924 
0 
-0.003735614206539452 
-0.0003395569149311695 
-0.001736421659036894 
-0.001852492986202333 
0.002260772808765386 
1.042037927172771e-05 
0.003329218028296946 
0.0007822051205968999 
0.004054707729248974 
0 
0.003329218028296946 
-0.0007822051205968999 
0.002260772808765386 
-1.042037927172771e-05 
0.001440947674175871 
0.0001925669590062538 
0.001738717825053242 
0.0007637616957946796 
0.001989508302733243 
0 
0.001738717825053242 
-0.0007637616957946796 
0.001440947674175871 
-0.0001925669590062538 
-0.000163687647983843 
0.001395858308024005 
-0.002856782161603048 
0.001981868567679088 
-0.005041890407704543 
0 
-0.002856782161603048 
-0.001981868567679088 
-0.000163687647983843 
-0.001395858308024005 
0.0003435632071800639 
0.0009701467013808202 
-0.001970245994006225 
0.001719907591614807 
-0.003511849785175377 
0 
-0.001970245994006225 
-0.001719907591614807 
0.0003435632071800639 
-0.0009701467013808202 
0.0001136581093645945 
0.0005658806115908823 
-0.0005723821366022746 
0.0006002577953247077 
-0.0009452843618068192 
0 
-0.0005723821366022746 
-0.0006002577953247077 
0.0001136581093645945 
-0.0005658806115908823 
0.0006367344797455351 
0.002454616178084012 
-0.001658483349872831 
0.002630995955368233 
-0.003063519203292616 
0 
-0.001658483349872831 
-0.002630995955368233 
0.0006367344797455351 
-0.002454616178084012 
-0.0008190773009132847 
0.001496398424734795 
-0.002709438849093827 
0.0005704063990524458 
-0.002840694037465458 
0 
-0.002709438849093827 
-0.0005704063990524458 
-0.0008190773009132847 
-0.001496398424734795 
0.0002263277342911124 
0.0008727368009530312 
-0.001635447127048966 
0.001042330051623895 
-0.002006356541439981 
0 
-0.001635447127048966 
-0.001042330051623895 
0.0002263277342911124 
-0.0008727368009530312 
2.405266763562093e-05 
0.002340368271731377 
-0.003317658570123587 
0.002607764458680071 
-0.005237752472858926 
0 
-0.003317658570123587 
-0.002607764458680071 
2.405266763562093e-05 
-0.002340368271731377 
-0.001066475958779948 
0.001234209444844587 
-0.00435581035155893 
0.001539470087295534 
-0.006659356780413453 
0 
-0.00435581035155893 
-0.001539470087295534 
-0.001066475958779948 
-0.001234209444844587 
0.001229462739416282 
0.00128130824550085 
-0.001131110833823376 
0.002251462765624676 
-0.002722199234319008 
0 
-0.001131110833823376 
-0.002251462765624676 
0.001229462739416282 
-0.00128130824550085 
-0.000233618836968156 
0.002027924126959331 
-0.003423697657462187 
0.001276640173009125 
-0.003722545061442709 
0 
-0.003423697657462187 
-0.001276640173009125 
-0.000233618836968156 
-0.002027924126959331 
-0.0007308487195611013 
0.0002572850016291948 
-0.0009281179823143527 
-0.0002090457535724012 
-0.0006087179180765347 
0 
-0.0009281179823143527 
0.0002090457535724012 
-0.0007308487195611013 
-0.0002572850016291948 
-0.002165853352494398 
-0.0006327746216479124 
-0.002321973404663102 
-0.001573218475019105 
-0.002283018827368861 
0 
-0.002321973404663102 
0.001573218475019105 
-0.002165853352494398 
0.0006327746216479124 
-0.0004817854508957183 
0.002692730394921183 
-0.00442540450123009 
0.002220143221487807 
-0.006139516634053331 
0 
-0.00442540450123009 
-0.002220143221487807 
-0.0004817854508957183 
-0.002692730394921183 
-0.0004585254690504185 
0.002222870212562193 
-0.003554389041266674 
0.00176144426501863 
-0.004645534050638796 
0 
-0.003554389041266674 
-0.00176144426501863 
-0.0004585254690504185 
-0.002222870212562193 
0.002780512771269993 
0.0007573525251637668 
0.004756967507581231 
0.000714043099927951 
0.007014023185256724 
0 
0.004756967507581231 
-0.000714043099927951 
0.002780512771269993 
-0.0007573525251637668 
0.003682825370511273 
-0.0002269015115050216 
0.006036670825726255 
0.001140859490545183 
0.006954483934683531 
0 
0.006036670825726255 
-0.001140859490545183 
0.003682825370511273 
0.0002269015115050216 
-0.001187518834702249 
0.003747790661385697 
-0.006644434504177392 
0.003584630345395659 
-0.01041520431008727 
0 
-0.006644434504177392 
-0.003584630345395659 
-0.001187518834702249 
-0.003747790661385697 
-0.001427007034855852 
0.003022875874084576 
-0.006793533793894745 
0.002995160407832171 
-0.01054660210958371 
0 
-0.006793533793894745 
-0.002995160407832171 
-0.001427007034855852 
-0.003022875874084576 
-0.002424983984451053 
0.001830095014113813 
-0.006554389754541184 
0.001691033943462669 
-0.01005283409352948 
0 
-0.006554389754541184 
-0.001691033943462669 
-0.002424983984451053 
-0.001830095014113813 
-5.113480881117467e-05 
2.973476365296977e-05 
-0.0001184891413588274 
-3.684378139597176e-05 
-6.967018004350884e-05 
0 
-0.0001184891413588274 
3.684378139597176e-05 
-5.113480881117467e-05 
-2.973476365296977e-05 
0.0009025757797608075 
-0.0001950913364677206 
0.001462102824055106 
-0.0003442381916053567 
0.002597465279623871 
0 
0.001462102824055106 
0.0003442381916053567 
0.0009025757797608075 
0.0001950913364677206 
0.0006995034806425702 
-0.0006114544589243666 
0.001272657267487162 
0.0002616593586526015 
0.0005651392074152712 
0 
0.001272657267487162 
-0.0002616593586526015 
0.0006995034806425702 
0.0006114544589243666 
0.001532922561134138 
0.000250670918609623 
0.001384569713871287 
0.001001591473679244 
0.001338582033208867 
0 
0.001384569713871287 
-0.001001591473679244 
0.001532922561134138 
-0.000250670918609623 
-0.0005871123181636744 
-4.619237075315812e-05 
-0.0006415235552006081 
-0.0003005868047554618 
-0.0005880327709040411 
0 
-0.0006415235552006081 
0.0003005868047554618 
-0.0005871123181636744 
4.619237075315812e-05 
0.0003441751081290918 
-0.001607672651812113 
0.002435479837544035 
-0.001518911536741399 
0.003461348323802755 
0 
0.002435479837544035 
0.001518911536741399 
0.0003441751081290918 
0.001607672651812113 
-0.0009610890373498728 
-0.0008918942489680628 
0.0004829057268115274 
-0.001663750893243523 
0.001436146190749587 
0 
0.0004829057268115274 
0.001663750893243523 
-0.0009610890373498728 
0.0008918942489680628 
-0.003074839248401269 
-0.0002479791297867633 
-0.003761985868521645 
-0.001405920044663172 
-0.004473165067990021 
0 
-0.003761985868521645 
0.001405920044663172 
-0.003074839248401269 
0.0002479791297867633 
0.0001710371690646707 
7.481623895010635e-06 
0.0008100389797349628 
0.0001005449186408197 
0.0007274985816535836 
0 
0.0008100389797349628 
-0.0001005449186408197 
0.0001710371690646707 
-7.481623895010635e-06 
-0.0006160177426716727 
-0.0008263417702499615 
0.001055295212677547 
-0.00139580514180473 
0.001837464574353984 
0 
0.001055295212677547 
0.00139580514180473 
-0.0006160177426716727 
0.0008263417702499615 
-0.0001928720083836934 
-0.0006663011164857113 
0.001350497974551169 
-0.001997827563437586 
0.00409598609716473 
0 
0.001350497974551169 
0.001997827563437586 
-0.0001928720083836934 
0.0006663011164857113 
-0.001362406632791187 
0.0003350154891642955 
-0.001966684301222872 
-0.0004824986614235869 
-0.002113295990837784 
0 
-0.001966684301222872 
0.0004824986614235869 
-0.001362406632791187 
-0.0003350154891642955 
-0.001184585533123938 
-0.0006429956231215667 
-0.0003516449742443913 
-0.001535682060518389 
0.0005966330219141704 
0 
-0.0003516449742443913 
0.001535682060518389 
-0.001184585533123938 
0.0006429956231215667 
-0.001062619648733066 
0.0009830908046657265 
-0.001882754425255179 
-4.820661422154927e-05 
-0.001650473214740345 
0 
-0.001882754425255179 
4.820661422154927e-05 
-0.001062619648733066 
-0.0009830908046657265 
-0.0004313504672224407 
-0.0007375554143030309 
0.0009261171607227141 
-0.001884497488661742 
0.003525975142704982 
0 
0.0009261171607227141 
0.001884497488661742 
-0.0004313504672224407 
0.0007375554143030309 
-0.001398908111768945 
3.355504987066959e-05 
-0.002014257133599916 
-0.0007321030107921184 
-0.001851389972416691 
0 
-0.002014257133599916 
0.0007321030107921184 
-0.001398908111768945 
-3.355504987066959e-05 
-0.001680172870574462 
0.000705774001101169 
-0.003587767801499903 
0.0002414510308483314 
-0.004839837939634503 
0 
-0.003587767801499903 
-0.0002414510308483314 
-0.001680172870574462 
-0.000705774001101169 
0.0006492566026279959 
-0.0004494465147421624 
0.0009062099580307258 
-0.0001563446748022525 
0.00115559196354059 
0 
0.0009062099580307258 
0.0001563446748022525 
0.0006492566026279959 
0.0004494465147421624 
-0.0005992184219634512 
0.001154238140771811 
-0.002076564494874034 
0.0008103145500281363 
-0.002890886665608165 
0 
-0.002076564494874034 
-0.0008103145500281363 
-0.0005992184219634512 
-0.001154238140771811 
-0.0005612194704502295 
-1.181879117629688e-05 
-0.00111889765602868 
-2.56357938571646e-05 
-0.001756588757445659 
0 
-0.00111889765602868 
2.56357938571646e-05 
-0.0005612194704502295 
1.181879117629688e-05 
-0.0003833546843951619 
0.0006311564585393424 
-0.001216407095275575 
0.0001761461067335022 
-0.001045066842613105 
0 
-0.001216407095275575 
-0.0001761461067335022 
-0.0003833546843951619 
-0.0006311564585393424 
2.335034545943178e-05 
-0.0007406166016467539 
0.0007627554874420695 
-0.000964501976811422 
0.001142776150594234 
0 
0.0007627554874420695 
0.000964501976811422 
2.335034545943178e-05 
0.0007406166016467539 
0.0006381617709614304 
-0.0004885180035854356 
0.000373181942021726 
0.0006741217359725152 
-0.0008278107852602353 
0 
0.000373181942021726 
-0.0006741217359725152 
0.0006381617709614304 
0.0004885180035854356 
0.0008325721782555045 
0.0008146120448450601 
4.54163931155852e-05 
0.001814242140432875 
-0.00169767330017828 
0 
4.54163931155852e-05 
-0.001814242140432875 
0.0008325721782555045 
-0.0008146120448450601 
-0.00067477436433609 
0.001111334268170461 
-0.002808827759053659 
0.00155336705391201 
-0.005498637660241543 
0 
-0.002808827759053659 
-0.00155336705391201 
-0.00067477436433609 
-0.001111334268170461 
0.000110435180445221 
0.0005452033745515956 
-0.001408021193248079 
0.001473591846896596 
-0.003646220556895458 
0 
-0.001408021193248079 
-0.001473591846896596 
0.000110435180445221 
-0.0005452033745515956 
0.0005403686044708321 
0.000494192484984918 
-0.0001346969797682416 
0.0003621101040536811 
0.0002787687359494931 
0 
-0.0001346969797682416 
-0.0003621101040536811 
0.0005403686044708321 
-0.000494192484984918 
-0.000591348888957844 
0.0003724348576986096 
-0.001593733030744289 
0.0002171275861396177 
-0.002121962695166967 
0 
-0.001593733030744289 
-0.0002171275861396177 
-0.000591348888957844 
-0.0003724348576986096 
-0.00191209776753728 
0.0001061428786207281 
-0.001735405112229045 
-0.001459978468358234 
-0.000793723901714071 
0 
-0.001735405112229045 
0.001459978468358234 
-0.00191209776753728 
-0.0001061428786207281 
-0.0004851169383676556 
0.0008810287304209206 
-0.002502313683253833 
0.0009302128103843203 
-0.003485489787385175 
0 
-0.002502313683253833 
-0.0009302128103843203 
-0.0004851169383676556 
-0.0008810287304209206 
0.0004855675458004931 
-0.0002321560285136898 
0.001280742047040003 
-0.0005211275388874605 
0.00255135378525228 
0 
0.001280742047040003 
0.0005211275388874605 
0.0004855675458004931 
0.0002321560285136898 
-2.287971457815802e-05 
0.000527001539484885 
-0.001113609722165633 
0.0007239618509985544 
-0.001570422545478794 
0 
-0.001113609722165633 
-0.0007239618509985544 
-2.287971457815802e-05 
-0.000527001539484885 
0.0007078582785551794 
0.0008785703156376415 
-0.0008123915533061751 
0.001596364452554692 
-0.002378839143158477 
0 
-0.0008123915533061751 
-0.001596364452554692 
0.0007078582785551794 
-0.0008785703156376415 
-0.0001231717280914929 
0.002350090266476227 
-0.004119054668298324 
0.002954823725514582 
-0.007246815686026248 
0 
-0.004119054668298324 
-0.002954823725514582 
-0.0001231717280914929 
-0.002350090266476227 
-0.001432786797436494 
0.002331368497579478 
-0.006618356401876645 
0.002722793317519949 
-0.01055259493182881 
0 
-0.006618356401876645 
-0.002722793317519949 
-0.001432786797436494 
-0.002331368497579478 
-0.001539454166545392 
0.002045339524640657 
-0.004154022808729369 
0.00141265133813506 
-0.006037148558665116 
0 
-0.004154022808729369 
-0.00141265133813506 
-0.001539454166545392 
-0.002045339524640657 
-0.001726908736941646 
0.0006408863375191996 
-0.002384976040771888 
-0.001008279142531904 
-0.001155033183961229 
0 
-0.002384976040771888 
0.001008279142531904 
-0.001726908736941646 
-0.0006408863375191996 
0.0001367544314392952 
-0.0002628458384300558 
0.0005947409209576029 
-0.000195734788879912 
0.0005128540911729354 
0 
0.0005947409209576029 
0.000195734788879912 
0.0001367544314392952 
0.0002628458384300558 
0.002436059577437421 
-0.0003389879314055844 
0.003282966111974203 
0.001160087073257689 
0.002792138434438827 
0 
0.003282966111974203 
-0.001160087073257689 
0.002436059577437421 
0.0003389879314055844 
0.0007927940718042428 
0.0003821654849540474 
0.0002279953635668389 
0.001205632535957808 
-0.000787439166264097 
0 
0.0002279953635668389 
-0.001205632535957808 
0.0007927940718042428 
-0.0003821654849540474 
-0.001453525312273434 
0.002176602173770563 
-0.004963683101092848 
0.001985582663052019 
-0.007623278250845858 
0 
-0.004963683101092848 
-0.001985582663052019 
-0.001453525312273434 
-0.002176602173770563 
-0.0007593058805075311 
0.002200780940153265 
-0.004033370666117975 
0.002088259789981431 
-0.006214829136657193 
0 
-0.004033370666117975 
-0.002088259789981431 
-0.0007593058805075311 
-0.002200780940153265 
-0.001410953086158236 
0.002596566579694088 
-0.005186236141503871 
0.001831152747867328 
-0.00760404124295744 
0 
-0.005186236141503871 
-0.001831152747867328 
-0.001410953086158236 
-0.002596566579694088 
-0.0007472148967978909 
0.001437807712611852 
-0.003244871655634092 
0.001004180905666496 
-0.004034479057411133 
0 
-0.003244871655634092 
-0.001004180905666496 
-0.0007472148967978909 
-0.001437807712611852 
-0.001612532326805909 
0.001189031088350495 
-0.003819762145119903 
0.0001837095578903051 
-0.00393038836213091 
0 
-0.003819762145119903 
-0.0001837095578903051 
-0.001612532326805909 
-0.001189031088350495 
0.0007511635016800278 
-0.0001492585197264988 
0.001033976345123055 
-9.573866719137817e-06 
0.001555427897789685 
0 
0.001033976345123055 
9.573866719137817e-06 
0.0007511635016800278 
0.0001492585197264988 
0.0002663449271192077 
0.0006465487586439788 
0.0001030358539841159 
0.000116799774119678 
0.000683058176445451 
0 
0.0001030358539841159 
-0.000116799774119678 
0.0002663449271192077 
-0.0006465487586439788 
0.0006164613629788621 
0.001234887283999634 
-0.0006151322562129265 
0.00156194691673915 
-0.001455278188385425 
0 
-0.0006151322562129265 
-0.00156194691673915 
0.0006164613629788621 
-0.001234887283999634 
-0.002527764571519512 
0.00168347057978158 
-0.005809772622598171 
0.0005920285395556796 
-0.007311862418974302 
0 
-0.005809772622598171 
-0.0005920285395556796 
-0.002527764571519512 
-0.00168347057978158 
-0.0007018491795765812 
0.001962788554532339 
-0.003686128575031487 
0.001964736695914098 
-0.005868729525904414 
0 
-0.003686128575031487 
-0.001964736695914098 
-0.0007018491795765812 
-0.001962788554532339 
-0.001757559727700487 
0.001679775030112009 
-0.005224281708451111 
0.000994154664430086 
-0.006669209625179967 
0 
-0.005224281708451111 
-0.000994154664430086 
-0.001757559727700487 
-0.001679775030112009 
-0.001539829723646209 
0.0003504467356814235 
-0.003268631042466303 
0.0002521078267586166 
-0.004726087303184902 
0 
-0.003268631042466303 
-0.0002521078267586166 
-0.001539829723646209 
-0.0003504467356814235 
0.0009035657422324093 
-0.0002935277439902555 
0.002027037312849344 
-5.501415884285444e-05 
0.002677006272592842 
0 
0.002027037312849344 
5.501415884285444e-05 
0.0009035657422324093 
0.0002935277439902555 
0.001813263169117207 
-0.002024573454884376 
0.005238118141108112 
-0.001598284287983942 
0.007524242796442323 
0 
0.005238118141108112 
0.001598284287983942 
0.001813263169117207 
0.002024573454884376 
0.002474581268858532 
-0.001643191796389085 
0.0055917183555371 
-0.00046227349951524 
0.007092338706354556 
0 
0.0055917183555371 
0.00046227349951524 
0.002474581268858532 
0.001643191796389085 
-0.001551986613950559 
-0.0001444107310359213 
-0.002960248078450013 
-0.0002598782634736215 
-0.004013422492702618 
0 
-0.002960248078450013 
0.0002598782634736215 
-0.001551986613950559 
0.0001444107310359213 
-0.0007053553239676921 
0.001828002817257451 
-0.003556195678646261 
0.00167652262397078 
-0.005255423092974031 
0 
-0.003556195678646261 
-0.00167652262397078 
-0.0007053553239676921 
-0.001828002817257451 
-0.0007226060178437468 
0.0005596115016297277 
-0.001498502161360346 
0.0003144397711103266 
-0.002362198531757053 
0 
-0.001498502161360346 
-0.0003144397711103266 
-0.0007226060178437468 
-0.0005596115016297277 
-0.0005151557099423419 
0.001181358500032771 
-0.001903954790238137 
0.0008206104275219619 
-0.002722054828325494 
0 
-0.001903954790238137 
-0.0008206104275219619 
-0.0005151557099423419 
-0.001181358500032771 
-0.001054584045842266 
0.001108399924003781 
-0.002703939619618718 
0.0002102947990310848 
-0.002633062558001674 
0 
-0.002703939619618718 
-0.0002102947990310848 
-0.001054584045842266 
-0.001108399924003781 
0.0006561737096927836 
4.128607802033952e-05 
-0.0001538676059773528 
0.0005567645309726422 
-0.0004530654387379962 
0 
-0.0001538676059773528 
-0.0005567645309726422 
0.0006561737096927836 
-4.128607802033952e-05 
0.001843015332837158 
-0.0006314018543876196 
0.003229533177021433 
-0.0001657369269881159 
0.004618280542321284 
0 
0.003229533177021433 
0.0001657369269881159 
0.001843015332837158 
0.0006314018543876196 
0.0004019017447671989 
0.0003425877684459037 
0.0006754495048408137 
-0.0004998099800144135 
0.002390925229583591 
0 
0.0006754495048408137 
0.0004998099800144135 
0.0004019017447671989 
-0.0003425877684459037 
-0.001799381307498589 
0.0007853451303627897 
-0.003480545740988349 
6.841480315265491e-05 
-0.004270938402556833 
0 
-0.003480545740988349 
-6.841480315265491e-05 
-0.001799381307498589 
-0.0007853451303627897 
-0.002794770871844785 
-0.0004157113276603056 
-0.003202577450919913 
-0.001606284791343355 
-0.003011971975321796 
0 
-0.003202577450919913 
0.001606284791343355 
-0.002794770871844785 
0.0004157113276603056 
-4.296922582811957e-05 
0.001104351629477729 
-0.001198886104843345 
0.0009076909939518544 
-0.001718569176173958 
0 
-0.001198886104843345 
-0.0009076909939518544 
-4.296922582811957e-05 
-0.001104351629477729 
-0.001577044810548659 
0.0001562450451873298 
-0.001770233059209441 
-0.00133586549132599 
-0.0002451262115664959 
0 
-0.001770233059209441 
0.00133586549132599 
-0.001577044810548659 
-0.0001562450451873298 
-0.003593661644454465 
-0.0001677605657010562 
-0.003926925994750466 
-0.002330653330477096 
-0.002827692187861447 
0 
-0.003926925994750466 
0.002330653330477096 
-0.003593661644454465 
0.0001677605657010562 
0.000188489938671507 
-0.001624931203836245 
0.002263115468354583 
-0.002204381667770173 
0.004799208567036477 
0 
0.002263115468354583 
0.002204381667770173 
0.000188489938671507 
0.001624931203836245 
0.002526526938980398 
-0.002500853217500621 
0.006913962639568871 
-0.001526866600306675 
0.009236825912875127 
0 
0.006913962639568871 
0.001526866600306675 
0.002526526938980398 
0.002500853217500621 
0.001833966392163777 
-0.0006706811535272148 
0.003611367386697273 
-0.000209578952264089 
0.004812520347428611 
0 
0.003611367386697273 
0.000209578952264089 
0.001833966392163777 
0.0006706811535272148 
-0.001734899210064378 
-0.0007499191143870181 
-0.002327072089639083 
-0.0008600535309348958 
-0.003433246162904348 
0 
-0.002327072089639083 
0.0008600535309348958 
-0.001734899210064378 
0.0007499191143870181 
-0.001627645234185979 
-0.000139753462718826 
-0.001935186459825001 
-0.0009521626092520215 
-0.001910256376754417 
0 
-0.001935186459825001 
0.0009521626092520215 
-0.001627645234185979 
0.000139753462718826 
-0.001367215947044462 
0.0001550176596076557 
-0.001640512351371453 
-0.0007486338120271905 
-0.001271330180521434 
0 
-0.001640512351371453 
0.0007486338120271905 
-0.001367215947044462 
-0.0001550176596076557 
-0.001385869026647456 
0.0001780240385655258 
-0.001208922256424801 
-0.000610043741773091 
-0.001210263210442754 
0 
-0.001208922256424801 
0.000610043741773091 
-0.001385869026647456 
-0.0001780240385655258 
-0.001622071661583809 
0.0007736262321455575 
-0.001868595741897694 
-0.00118085667861967 
2.153931869344142e-06 
0 
-0.001868595741897694 
0.00118085667861967 
-0.001622071661583809 
-0.0007736262321455575 
-0.0006203689184815987 
-0.001480287036012623 
0.00134974961776749 
-0.002229557308525683 
0.003202305156769898 
0 
0.00134974961776749 
0.002229557308525683 
-0.0006203689184815987 
0.001480287036012623 
0.002296883654712061 
-0.002715363291916036 
0.006309097629764337 
-0.002080875410728491 
0.009280189387912481 
0 
0.006309097629764337 
0.002080875410728491 
0.002296883654712061 
0.002715363291916036 
0.003271779518655067 
-0.002033725681901943 
0.00613799016263914 
-0.0002090579714423919 
0.007020011736847599 
0 
0.00613799016263914 
0.0002090579714423919 
0.003271779518655067 
0.002033725681901943 
-0.001692712303763668 
0.0005838964474129822 
-0.002820741818845106 
-4.735544942125703e-05 
-0.003591663126244234 
0 
-0.002820741818845106 
4.735544942125703e-05 
-0.001692712303763668 
-0.0005838964474129822 
0.002156525001068494 
-0.000920579690208357 
0.004678136193989274 
0.0001585417575353225 
0.005822865157932771 
0 
0.004678136193989274 
-0.0001585417575353225 
0.002156525001068494 
0.000920579690208357 
-0.000564082031344447 
-0.0005226252470258005 
0.0004607418292547653 
-0.001599687803005134 
0.002290891680011723 
0 
0.0004607418292547653 
0.001599687803005134 
-0.000564082031344447 
0.0005226252470258005 
-0.0001062197572010925 
0.0009077467840947184 
-0.001798212543402279 
0.00036807589268808 
-0.001215231169809916 
0 
-0.001798212543402279 
-0.00036807589268808 
-0.0001062197572010925 
-0.0009077467840947184 
-0.002777267161437517 
0.001161441115621263 
-0.005108164627693331 
-0.0004103675569101943 
-0.004943696268396482 
0 
-0.005108164627693331 
0.0004103675569101943 
-0.002777267161437517 
-0.001161441115621263 
-0.000558556107630672 
0.0001397031483876587 
-0.0007826049052839245 
-0.0004628987370394984 
4.918208746321789e-05 
0 
-0.0007826049052839245 
0.0004628987370394984 
-0.000558556107630672 
-0.0001397031483876587 
-0.0005184558872306692 
0.0004074284433987122 
-0.001558739775500718 
-3.741506857704571e-05 
-0.001208508711431155 
0 
-0.001558739775500718 
3.741506857704571e-05 
-0.0005184558872306692 
-0.0004074284433987122 
-0.001092654911805437 
0.001291702248037569 
-0.00201767789310655 
-4.114748899512316e-05 
-0.001698505060784912 
0 
-0.00201767789310655 
4.114748899512316e-05 
-0.001092654911805437 
-0.001291702248037569 
-0.002366514518600262 
-9.525723113053359e-06 
-0.003100821604012443 
-0.0006459525942116731 
-0.004231592507133658 
0 
-0.003100821604012443 
0.0006459525942116731 
-0.002366514518600262 
9.525723113053359e-06 
0.0008012230237239152 
-0.001073376728255777 
0.002296583818953309 
-0.0001645943472365529 
0.001624337665971276 
0 
0.002296583818953309 
0.0001645943472365529 
0.0008012230237239152 
0.001073376728255777 
-0.001831713158996037 
0.001863125011048423 
-0.004074599754255619 
0.0006156477459470191 
-0.004800998434263576 
0 
-0.004074599754255619 
-0.0006156477459470191 
-0.001831713158996037 
-0.001863125011048423 
-0.001766086962257204 
0.0009665600791627902 
-0.00334313647766174 
-0.0001288972546498764 
-0.00354140210721218 
0 
-0.00334313647766174 
0.0001288972546498764 
-0.001766086962257204 
-0.0009665600791627902 
-0.002662054124451417 
0.001125667378295424 
-0.004268058500208995 
-0.0006743011685449574 
-0.004090903830640185 
0 
-0.004268058500208995 
0.0006743011685449574 
-0.002662054124451417 
-0.001125667378295424 
-0.001497005546778865 
0.0003540907159871713 
-0.001731922344462236 
-0.0007287582746820147 
-0.001189672609575421 
0 
-0.001731922344462236 
0.0007287582746820147 
-0.001497005546778865 
-0.0003540907159871713 
0.0004981920399726437 
-0.000657693095157773 
0.001569912081920046 
-0.0003781109736637337 
0.001985545317402397 
0 
0.001569912081920046 
0.0003781109736637337 
0.0004981920399726437 
0.000657693095157773 
0.000746878311614967 
9.226191368239122e-05 
0.0008735997776043803 
0.0005113242379953439 
0.0008123148556287401 
0 
0.0008735997776043803 
-0.0005113242379953439 
0.000746878311614967 
-9.226191368239122e-05 
-0.0002833902742028461 
-0.001088986675014626 
0.0005250834437229343 
-0.0008048110242226447 
0.0007870100067075017 
0 
0.0005250834437229343 
0.0008048110242226447 
-0.0002833902742028461 
0.001088986675014626 
-0.002546122043017239 
0.0007850273395931557 
-0.003594024725018874 
-0.0002479347136881402 
-0.004209794649889526 
0 
-0.003594024725018874 
0.0002479347136881402 
-0.002546122043017239 
-0.0007850273395931557 
-0.001029527562669458 
0.001016317172050503 
-0.002568667755130724 
8.219818602815558e-05 
-0.00241701774550801 
0 
-0.002568667755130724 
-8.219818602815558e-05 
-0.001029527562669458 
-0.001016317172050503 
-0.001274759384519578 
0.001769247705763581 
-0.003766053573952393 
0.0003912475109311733 
-0.002946586125193396 
0 
-0.003766053573952393 
-0.0003912475109311733 
-0.001274759384519578 
-0.001769247705763581 
-0.002250099808626519 
0.002640977480245491 
-0.006878705586333122 
0.001395814858249813 
-0.008015770902794175 
0 
-0.006878705586333122 
-0.001395814858249813 
-0.002250099808626519 
-0.002640977480245491 
-0.001657608421554494 
0.002139059768818135 
-0.005160666375371727 
0.0009962499141936997 
-0.005635516210989194 
0 
-0.005160666375371727 
-0.0009962499141936997 
-0.001657608421554494 
-0.002139059768818135 
-0.0007412175963928631 
7.261742228711551e-05 
-0.001182371002361929 
-0.0005961374568573081 
-0.0003294815160086001 
0 
-0.001182371002361929 
0.0005961374568573081 
-0.0007412175963928631 
-7.261742228711551e-05 
-0.002489919778884397 
0.002143392074312123 
-0.005298536025130319 
9.633134272595085e-05 
-0.005129575731869907 
0 
-0.005298536025130319 
-9.633134272595085e-05 
-0.002489919778884397 
-0.002143392074312123 
0.001664254278443878 
0.001045899226274573 
0.002183845615252874 
0.001594769329118254 
0.002293504511795402 
0 
0.002183845615252874 
-0.001594769329118254 
0.001664254278443878 
-0.001045899226274573 
-0.0001080569014300271 
0.001515900293730149 
-0.001822558039016831 
0.001763379673504638 
-0.003178745589380224 
0 
-0.001822558039016831 
-0.001763379673504638 
-0.0001080569014300271 
-0.001515900293730149 
-0.0007319081081714272 
0.002337549332378036 
-0.003874131521933877 
0.001742301533678635 
-0.005297317943388766 
0 
-0.003874131521933877 
-0.001742301533678635 
-0.0007319081081714272 
-0.002337549332378036 
-0.0001949047658885897 
0.001514480897267861 
-0.002537834204776246 
0.0006965262881166824 
-0.002043555214985598 
0 
-0.002537834204776246 
-0.0006965262881166824 
-0.0001949047658885897 
-0.001514480897267861 
-0.001912684374568733 
0.002736751397968751 
-0.007318291224565475 
0.002124409247728679 
-0.009512141422152251 
0 
-0.007318291224565475 
-0.002124409247728679 
-0.001912684374568733 
-0.002736751397968751 
-0.0008624089770612788 
0.001691363370320362 
-0.003164423264036824 
0.0003815490148053737 
-0.00242492884351153 
0 
-0.003164423264036824 
-0.0003815490148053737 
-0.0008624089770612788 
-0.001691363370320362 
-0.00111411968318207 
0.002064097442828587 
-0.004106679270577125 
0.001273246882317184 
-0.004987499674020361 
0 
-0.004106679270577125 
-0.001273246882317184 
-0.00111411968318207 
-0.002064097442828587 
-0.00207557200881073 
-1.532800102341853e-05 
-0.00198095423894664 
-0.002153244861959505 
0.0002060715613625756 
0 
-0.00198095423894664 
0.002153244861959505 
-0.00207557200881073 
1.532800102341853e-05 
0.002852494015261704 
0.0003877647986717013 
0.004940569779598497 
0.00113627058361878 
0.006611326531426496 
0 
0.004940569779598497 
-0.00113627058361878 
0.002852494015261704 
-0.0003877647986717013 
-4.735710652959698e-05 
-0.0002807653804872923 
0.0001442580298212359 
-0.0002114327748533134 
-5.906112579307243e-05 
0 
0.0001442580298212359 
0.0002114327748533134 
-4.735710652959698e-05 
0.0002807653804872923 
-0.001202904363001663 
0.002062793416085848 
-0.004025058405648412 
0.001455518297144491 
-0.005338218305530577 
0 
-0.004025058405648412 
-0.001455518297144491 
-0.001202904363001663 
-0.002062793416085848 
-0.001090081171251937 
0.002487648899403416 
-0.004784654064886021 
0.00207486693934668 
-0.006402958040145094 
0 
-0.004784654064886021 
-0.00207486693934668 
-0.001090081171251937 
-0.002487648899403416 
-0.001138741511693911 
0.0004794764316239169 
-0.002353347436413615 
-0.0002064328341151854 
-0.002085919984114038 
0 
-0.002353347436413615 
0.0002064328341151854 
-0.001138741511693911 
-0.0004794764316239169 
-0.0007392057525118443 
0.001101267610849028 
-0.002958420378963659 
0.0003585929419940148 
-0.002585320159548845 
0 
-0.002958420378963659 
-0.0003585929419940148 
-0.0007392057525118443 
-0.001101267610849028 
-0.0004398604351851877 
0.0002880987421762068 
-0.000915079364083306 
-0.0003594940099869812 
-0.0003130863968220414 
0 
-0.000915079364083306 
0.0003594940099869812 
-0.0004398604351851877 
-0.0002880987421762068 
-0.0008813350436126899 
0.0007990334483679806 
-0.002928469254500396 
0.0007555814115112831 
-0.003931396087628132 
0 
-0.002928469254500396 
-0.0007555814115112831 
-0.0008813350436126899 
-0.0007990334483679806 
-0.001333034198847422 
-6.001752697013312e-05 
-0.002109390758960457 
-0.0001655004065889217 
-0.003264286094128365 
0 
-0.002109390758960457 
0.0001655004065889217 
-0.001333034198847422 
6.001752697013312e-05 
0.000503944898566972 
0.0007448727842735489 
0.001468185922461554 
-9.345510627648802e-05 
0.003134509428725332 
0 
0.001468185922461554 
9.345510627648802e-05 
0.000503944898566972 
-0.0007448727842735489 
-0.001197074782423744 
0.001048022413066811 
-0.002421743225944599 
0.0003446152274881199 
-0.003051908342318209 
0 
-0.002421743225944599 
-0.0003446152274881199 
-0.001197074782423744 
-0.001048022413066811 
-0.001139053779800325 
0.0009114026103520418 
-0.002529914774495755 
-0.0001772215421678642 
-0.00225935180057808 
0 
-0.002529914774495755 
0.0001772215421678642 
-0.001139053779800325 
-0.0009114026103520418 
-0.001155558475253909 
0.002398380587207954 
-0.005277444876582555 
0.002212980815515528 
-0.007648352057817729 
0 
-0.005277444876582555 
-0.002212980815515528 
-0.001155558475253909 
-0.002398380587207954 
-0.001658644799355071 
0.001848092972441483 
-0.00474237593499871 
0.0006457198749251801 
-0.005120954763992563 
0 
-0.00474237593499871 
-0.0006457198749251801 
-0.001658644799355071 
-0.001848092972441483 
-0.0003355702585036556 
0.00142420933884882 
-0.001268571391364646 
0.000389986696809802 
-0.0004883539902747396 
0 
-0.001268571391364646 
-0.000389986696809802 
-0.0003355702585036556 
-0.00142420933884882 
-0.000738510844384489 
0.0008471633750124807 
-0.001636658704743449 
0.0002558591200329337 
-0.001965608338586973 
0 
-0.001636658704743449 
-0.0002558591200329337 
-0.000738510844384489 
-0.0008471633750124807 
0.002913521332807061 
0.0009055958050549083 
0.004697576084983789 
0.001716720377014448 
0.005635280345525848 
0 
0.004697576084983789 
-0.001716720377014448 
0.002913521332807061 
-0.0009055958050549083 
0.0002146743662263866 
-0.0005772040952827254 
0.0001836499370605181 
3.199523457930079e-05 
-0.0007593316986204137 
0 
0.0001836499370605181 
-3.199523457930079e-05 
0.0002146743662263866 
0.0005772040952827254 
0.0004099743740256486 
3.340822700194779e-05 
0.0002866895466569499 
-0.0001945949892172952 
0.0009558405474774099 
0 
0.0002866895466569499 
0.0001945949892172952 
0.0004099743740256486 
-3.340822700194779e-05 
-0.0002373816394295922 
0.0006396859888282492 
-0.001533303196395791 
0.000839684719853236 
-0.002298876938953579 
0 
-0.001533303196395791 
-0.000839684719853236 
-0.0002373816394295922 
-0.0006396859888282492 
0.0003952596763122073 
0.0004875417909187509 
-0.001109864516347651 
0.001263909627579478 
-0.002499468487291812 
0 
-0.001109864516347651 
-0.001263909627579478 
0.0003952596763122073 
-0.0004875417909187509 
-0.001916899000492512 
0.001145584432219312 
-0.004203137910818664 
0.0004463144931507722 
-0.005561358716293645 
0 
-0.004203137910818664 
-0.0004463144931507722 
-0.001916899000492512 
-0.001145584432219312 
0.001036923834125781 
0.0004879316260337265 
5.868240872624934e-05 
0.0008811078354349745 
-0.0003214887148878371 
0 
5.868240872624934e-05 
-0.0008811078354349745 
0.001036923834125781 
-0.0004879316260337265 
0.0006935122527219776 
0.001033410941821837 
-0.0004432235998814286 
0.001148263240677547 
-0.001228149118350795 
0 
-0.0004432235998814286 
-0.001148263240677547 
0.0006935122527219776 
-0.001033410941821837 
0.0003284500379859495 
-0.0001935471287082431 
0.0009465286093631886 
0.0001000340131161266 
0.0008431042672718194 
0 
0.0009465286093631886 
-0.0001000340131161266 
0.0003284500379859495 
0.0001935471287082431 
-0.0004159070652829927 
-0.001418329983667374 
0.0007804189353343634 
-0.001343752739700434 
0.0009986613602688333 
0 
0.0007804189353343634 
0.001343752739700434 
-0.0004159070652829927 
0.001418329983667374 
0.0001170955768562324 
0.0008115780955740466 
-0.001092658853422951 
0.0008220211908195525 
-0.001752156439183222 
0 
-0.001092658853422951 
-0.0008220211908195525 
0.0001170955768562324 
-0.0008115780955740466 
0.0003377665651848332 
0.0006952008622768244 
-0.0004701083516921695 
0.0001048782032159216 
0.0001827789717368994 
0 
-0.0004701083516921695 
-0.0001048782032159216 
0.0003377665651848332 
-0.0006952008622768244 
-0.001324335786191103 
0.001346404646823046 
-0.004330341186901787 
0.0009978594893750375 
-0.005682662105244449 
0 
-0.004330341186901787 
-0.0009978594893750375 
-0.001324335786191103 
-0.001346404646823046 
-0.0005439903670674052 
0.0008788125045066013 
-0.002518900652302986 
0.0007393899054547177 
-0.003102566901734788 
0 
-0.002518900652302986 
-0.0007393899054547177 
-0.0005439903670674052 
-0.0008788125045066013 
-0.0002520860507156338 
0.001706496348205695 
-0.002903622364035613 
0.001705056985337964 
-0.004303991761228036 
0 
-0.002903622364035613 
-0.001705056985337964 
-0.0002520860507156338 
-0.001706496348205695 
0.0009058811845219139 
-7.997638051668753e-05 
0.0006383695701903955 
0.0006480481158962086 
-0.0001365120366404193 
0 
0.0006383695701903955 
-0.0006480481158962086 
0.0009058811845219139 
7.997638051668753e-05 
0.0009967383288436349 
0.0005595078674128487 
0.0008285855703041044 
0.001313945745091431 
0.0001090713781273031 
0 
0.0008285855703041044 
-0.001313945745091431 
0.0009967383288436349 
-0.0005595078674128487 
0.000126113619010346 
0.0008087407175131295 
-0.001201064821176677 
0.001499081365108267 
-0.003257775353209159 
0 
-0.001201064821176677 
-0.001499081365108267 
0.000126113619010346 
-0.0008087407175131295 
7.829655276868386e-05 
0.000447340730088871 
-0.001347499817205727 
0.001277063130810947 
-0.00332686073230003 
0 
-0.001347499817205727 
-0.001277063130810947 
7.829655276868386e-05 
-0.000447340730088871 
0.0005932546087355517 
0.0008629909194335582 
-0.001250265141906541 
0.001263075956633072 
-0.00164942062241439 
0 
-0.001250265141906541 
-0.001263075956633072 
0.0005932546087355517 
-0.0008629909194335582 
0.0008167716360749436 
-0.0002182716276390024 
0.0007540507650459222 
0.0004379652964622792 
0.0005582022010020802 
0 
0.0007540507650459222 
-0.0004379652964622792 
0.0008167716360749436 
0.0002182716276390024 
0.0003307855423482991 
-0.0004661767871255126 
4.385466153605954e-05 
0.000217885724551918 
-0.000305560157004166 
0 
4.385466153605954e-05 
-0.000217885724551918 
0.0003307855423482991 
0.0004661767871255126 
0.002066011992553688 
0.000174483810945762 
0.001689718608805136 
0.001326615458360539 
0.001319608985997169 
0 
0.001689718608805136 
-0.001326615458360539 
0.002066011992553688 
-0.000174483810945762 
0.0001837846429258738 
0.0003706558573289712 
-0.0002972450127579323 
0.0005864038216056092 
-0.001090037871934941 
0 
-0.0002972450127579323 
-0.0005864038216056092 
0.0001837846429258738 
-0.0003706558573289712 
0.0001425637803201903 
-0.0001909920976138553 
0.0005498697037912412 
0.0005104749214804468 
-0.0004691435642187057 
0 
0.0005498697037912412 
-0.0005104749214804468 
0.0001425637803201903 
0.0001909920976138553 
-0.001505375089750172 
-0.000314687664716855 
-0.002565567770668654 
-0.0003636099789158192 
-0.004005744429629009 
0 
-0.002565567770668654 
0.0003636099789158192 
-0.001505375089750172 
0.000314687664716855 
-0.0003154072951222134 
0.0007957309981550525 
-0.001170794751491718 
0.00016567876551178 
-0.00100669723230725 
0 
-0.001170794751491718 
-0.00016567876551178 
-0.0003154072951222134 
-0.0007957309981550525 
0.0004066997066692414 
0.0006338158518164737 
-0.0008653857434432616 
0.0007137477101396008 
-0.001097496976202227 
0 
-0.0008653857434432616 
-0.0007137477101396008 
0.0004066997066692414 
-0.0006338158518164737 
0.0003347817420231191 
0.0002633283323256504 
-0.001115428604355991 
0.001368001604744197 
-0.002753695349891878 
0 
-0.001115428604355991 
-0.001368001604744197 
0.0003347817420231191 
-0.0002633283323256504 
-7.205345859986839e-05 
2.212279854450823e-06 
-0.0011496444344704 
0.0002711004299298242 
-0.001380394115554943 
0 
-0.0011496444344704 
-0.0002711004299298242 
-7.205345859986839e-05 
-2.212279854450823e-06 
0.0002721162379485063 
0.00096277133046241 
-0.001644057889512111 
0.001781585351906531 
-0.003821186994622597 
0 
-0.001644057889512111 
-0.001781585351906531 
0.0002721162379485063 
-0.00096277133046241 
-7.108589216687188e-05 
0.001245359762099884 
-0.002191993067907153 
0.001479456801925321 
-0.003695636954408075 
0 
-0.002191993067907153 
-0.001479456801925321 
-7.108589216687188e-05 
-0.001245359762099884 
-0.001319086063872128 
0.001277235655987594 
-0.004234507402565122 
0.00189896837287258 
-0.007605126343581038 
0 
-0.004234507402565122 
-0.00189896837287258 
-0.001319086063872128 
-0.001277235655987594 
0.001194579005929515 
-0.0006119663913229184 
0.001368011151179128 
0.0004297115232175342 
0.0004135634568257936 
0 
0.001368011151179128 
-0.0004297115232175342 
0.001194579005929515 
0.0006119663913229184 
0.002455393664804028 
-0.001248324950107931 
0.004493805097205937 
-0.0005243755588237046 
0.006196701278852661 
0 
0.004493805097205937 
0.0005243755588237046 
0.002455393664804028 
0.001248324950107931 
-0.0005949332935795424 
8.96397504758901e-05 
-0.001273077634199011 
0.0004145593783762833 
-0.002226941318301316 
0 
-0.001273077634199011 
-0.0004145593783762833 
-0.0005949332935795424 
-8.96397504758901e-05 
0.0005541195582115735 
-0.001017243412396942 
0.001550076243534506 
-0.0003227796782085096 
0.001352724338095117 
0 
0.001550076243534506 
0.0003227796782085096 
0.0005541195582115735 
0.001017243412396942 
-0.001327635047279999 
8.240381068600653e-05 
-0.002008159861794835 
-0.0006671323372045243 
-0.001805087491816295 
0 
-0.002008159861794835 
0.0006671323372045243 
-0.001327635047279999 
-8.240381068600653e-05 
-0.0006459234522149393 
-0.0001457209460097392 
-0.0009461123044972689 
-0.0002354866047558353 
-0.001545143526854244 
0 
-0.0009461123044972689 
0.0002354866047558353 
-0.0006459234522149393 
0.0001457209460097392 
0.000200478767175443 
-0.000477120780018426 
0.00069414157671096 
-0.0003100101143016692 
0.000915540309718455 
0 
0.00069414157671096 
0.0003100101143016692 
0.000200478767175443 
0.000477120780018426 
-0.001042582499843221 
-0.0004669069113084845 
-0.001665420322178937 
-0.0003478241159403477 
-0.002972619474565102 
0 
-0.001665420322178937 
0.0003478241159403477 
-0.001042582499843221 
0.0004669069113084845 
0.0005249539328853519 
-0.0005720217735356273 
0.001894092091552105 
-0.0003827770045509389 
0.002104273348574304 
0 
0.001894092091552105 
0.0003827770045509389 
0.0005249539328853519 
0.0005720217735356273 
-0.0004849956486478269 
-0.0004468361194873055 
2.970182332516885e-05 
-0.001247560614460626 
0.00165713091695515 
0 
2.970182332516885e-05 
0.001247560614460626 
-0.0004849956486478269 
0.0004468361194873055 
0.0003221600709337892 
6.744573898899299e-05 
0.0005760285458384034 
-0.0001958782690042965 
0.001199532834828134 
0 
0.0005760285458384034 
0.0001958782690042965 
0.0003221600709337892 
-6.744573898899299e-05 
-0.001093153286262745 
0.0003238852490969626 
-0.001293846234567164 
-0.0002003852698902001 
-0.001253952047154125 
0 
-0.001293846234567164 
0.0002003852698902001 
-0.001093153286262745 
-0.0003238852490969626 
0.0002151393060816547 
-0.001795403259979805 
0.002215626792046127 
-0.001732084537024476 
0.003643132379629958 
0 
0.002215626792046127 
0.001732084537024476 
0.0002151393060816547 
0.001795403259979805 
-0.001316425626047868 
4.082606803649184e-05 
-0.00160036348041499 
-0.0005495900684877063 
-0.001526506051197041 
0 
-0.00160036348041499 
0.0005495900684877063 
-0.001316425626047868 
-4.082606803649184e-05 
-0.0002280984547221877 
-0.001913422062022009 
0.002261094656513604 
-0.002542427198811323 
0.004828505852080417 
0 
0.002261094656513604 
0.002542427198811323 
-0.0002280984547221877 
0.001913422062022009 
0.0001489207955637972 
-0.0007903153660896888 
0.0006711785369838668 
-0.0007519180687250952 
0.001414219395568614 
0 
0.0006711785369838668 
0.0007519180687250952 
0.0001489207955637972 
0.0007903153660896888 
0.00046752721762583 
0.000145066535460649 
-0.0006530226161952665 
0.000814620373127298 
-0.001987707034793411 
0 
-0.0006530226161952665 
-0.000814620373127298 
0.00046752721762583 
-0.000145066535460649 
0.0007492168194538965 
-0.0001390703158417134 
0.00151559491562831 
-0.0003295435454620593 
0.002611419638996243 
0 
0.00151559491562831 
0.0003295435454620593 
0.0007492168194538965 
0.0001390703158417134 
0.0001224853286547482 
0.0004298846652071367 
-0.0009558585571610679 
0.001052904629694511 
-0.00238609142635631 
0 
-0.0009558585571610679 
-0.001052904629694511 
0.0001224853286547482 
-0.0004298846652071367 
0.0007090788215767498 
-0.0002425424084137561 
0.0007431497905344491 
0.0004697533315207162 
0.0001534762677234152 
0 
0.0007431497905344491 
-0.0004697533315207162 
0.0007090788215767498 
0.0002425424084137561 
-0.001068393886220188 
0.0005691955144177543 
-0.002529295745672458 
0.0003763270944765208 
-0.003414511740389783 
0 
-0.002529295745672458 
-0.0003763270944765208 
-0.001068393886220188 
-0.0005691955144177543 
-0.0002401303854328754 
-0.0001574885651095842 
-0.0001460684483505509 
-0.0003678255137061537 
0.0002920755138254058 
0 
-0.0001460684483505509 
0.0003678255137061537 
-0.0002401303854328754 
0.0001574885651095842 
0.0002806576200282429 
9.758858770796738e-05 
-0.0004577134296060176 
0.000577155398843298 
-0.001228499262282449 
0 
-0.0004577134296060176 
-0.000577155398843298 
0.0002806576200282429 
-9.758858770796738e-05 
-3.359134796981646e-05 
0.001572174397032619 
-0.002170065715529349 
0.001784519735956473 
-0.003823464882192695 
0 
-0.002170065715529349 
-0.001784519735956473 
-3.359134796981646e-05 
-0.001572174397032619 
-1.701822939121721e-05 
-0.0002303136353436169 
-0.0007522751009893591 
0.0003695535587770695 
-0.002137521174518201 
0 
-0.0007522751009893591 
-0.0003695535587770695 
-1.701822939121721e-05 
0.0002303136353436169 
-0.0005612056451524566 
0.001052921424154974 
-0.001993772648096508 
0.0009701269147429525 
-0.00298953815665878 
0 
-0.001993772648096508 
-0.0009701269147429525 
-0.0005612056451524566 
-0.001052921424154974 
-0.0006879139465352068 
-0.0001460289151622099 
-0.000830689039290165 
-0.0009597052882769708 
0.0004545630515695349 
0 
-0.000830689039290165 
0.0009597052882769708 
-0.0006879139465352068 
0.0001460289151622099 
-0.001912088824631959 
0.0005812265724224085 
-0.002724118060174251 
-0.0006155613196581556 
-0.002197869675349929 
0 
-0.002724118060174251 
0.0006155613196581556 
-0.001912088824631959 
-0.0005812265724224085 
-0.001322574654811689 
0.0005162701832533507 
-0.00195117892185077 
-0.0003027445611450617 
-0.001981967686131564 
0 
-0.00195117892185077 
0.0003027445611450617 
-0.001322574654811689 
-0.0005162701832533507 
-0.0006840167503705132 
0.0005572237551219201 
-0.001538613489176935 
4.504248797086544e-05 
-0.001378000906581015 
0 
-0.001538613489176935 
-4.504248797086544e-05 
-0.0006840167503705132 
-0.0005572237551219201 
0.0001799608396683232 
-0.0004822519245783448 
1.302544962132476e-06 
-0.0003724340690757071 
-0.0001077620688058863 
0 
1.302544962132476e-06 
0.0003724340690757071 
0.0001799608396683232 
0.0004822519245783448 
0.000394132286738799 
0.0008836963960535028 
-0.0005187364809311444 
0.001173361712554021 
-0.001269352487121497 
0 
-0.0005187364809311444 
-0.001173361712554021 
0.000394132286738799 
-0.0008836963960535028 
-0.0002493517644760878 
0.001118339421250929 
-0.001918607082626334 
0.001282949673125494 
-0.003403253525694297 
0 
-0.001918607082626334 
-0.001282949673125494 
-0.0002493517644760878 
-0.001118339421250929 
-3.079385265064156e-05 
0.0002517796247562129 
-0.0004374458711361732 
0.000564784933066343 
-0.001556534699562233 
0 
-0.0004374458711361732 
-0.000564784933066343 
-3.079385265064156e-05 
-0.0002517796247562129 
0.0006586703320326344 
0.001339954279311476 
-0.002426029041874419 
0.002853075427252492 
-0.005725457344004729 
0 
-0.002426029041874419 
-0.002853075427252492 
0.0006586703320326344 
-0.001339954279311476 
0.0007533069038694557 
0.0009861090799106909 
-0.000267420640903638 
0.001546336592711614 
-0.001237703518737712 
0 
-0.000267420640903638 
-0.001546336592711614 
0.0007533069038694557 
-0.0009861090799106909 
-0.0006811493086867194 
0.0001215580326115828 
-0.002330570449429666 
0.0002908038798651607 
-0.003338191033071284 
0 
-0.002330570449429666 
-0.0002908038798651607 
-0.0006811493086867194 
-0.0001215580326115828 
-0.0004966299105909802 
-0.0008346695915352007 
-0.0004058237330671077 
-1.710173268001053e-07 
-0.002146246223733003 
0 
-0.0004058237330671077 
1.710173268001053e-07 
-0.0004966299105909802 
0.0008346695915352007 
0.0007480407649479421 
0.0001905192801331239 
5.575717177090691e-05 
0.001412803948310436 
-0.002053192632390527 
0 
5.575717177090691e-05 
-0.001412803948310436 
0.0007480407649479421 
-0.0001905192801331239 
-0.0006420836972272975 
0.001063303870503343 
-0.002147677005527524 
0.0008512893665990495 
-0.002930229164323369 
0 
-0.002147677005527524 
-0.0008512893665990495 
-0.0006420836972272975 
-0.001063303870503343 
0.0006911173870160718 
-3.3716641069803e-05 
0.0003194121474240283 
0.0009235837640094386 
-0.001248918974658381 
0 
0.0003194121474240283 
-0.0009235837640094386 
0.0006911173870160718 
3.3716641069803e-05 
-0.0004760203374027624 
0.0006550901412816046 
-0.001072783661377671 
0.0002656601534862856 
-0.001678404560311464 
0 
-0.001072783661377671 
-0.0002656601534862856 
-0.0004760203374027624 
-0.0006550901412816046 
-9.083852783184242e-05 
0.0002873546840049645 
-8.419413637023085e-05 
-0.000308227435096866 
0.0006634456562383427 
0 
-8.419413637023085e-05 
0.000308227435096866 
-9.083852783184242e-05 
-0.0002873546840049645 
-0.00148678171289802 
0.001608782963051602 
-0.003391360646220747 
-0.0002582831695671828 
-0.002230856501192126 
0 
-0.003391360646220747 
0.0002582831695671828 
-0.00148678171289802 
-0.001608782963051602 
-0.0003303110108819676 
0.0007707408755687795 
-0.001795959557741661 
0.00016398492328479 
-0.001559891786580348 
0 
-0.001795959557741661 
-0.00016398492328479 
-0.0003303110108819676 
-0.0007707408755687795 
-0.0003177070495802708 
0.0003265937765214641 
-0.0004723911053066376 
5.639868817387151e-05 
-0.000612926990189113 
0 
-0.0004723911053066376 
-5.639868817387151e-05 
-0.0003177070495802708 
-0.0003265937765214641 
-0.000161749049578956 
0.0003659778003015769 
-0.0006557788822676105 
8.757155034878062e-05 
-0.0006976413629082981 
0 
-0.0006557788822676105 
-8.757155034878062e-05 
-0.000161749049578956 
-0.0003659778003015769 
-0.002093372118762 
0.001492672015852063 
-0.004505554117824392 
0.0006731390245039506 
-0.00581282099861878 
0 
-0.004505554117824392 
-0.0006731390245039506 
-0.002093372118762 
-0.001492672015852063 
-0.001033166264084032 
0.001054141226989943 
-0.003263916685044049 
0.0009949643341970107 
-0.004995089930938263 
0 
-0.003263916685044049 
-0.0009949643341970107 
-0.001033166264084032 
-0.001054141226989943 
0.00157150332940764 
0.0003869731903149672 
0.0008461928663786439 
0.001852623970667805 
-0.0009767591793557965 
0 
0.0008461928663786439 
-0.001852623970667805 
0.00157150332940764 
-0.0003869731903149672 
-0.0004530115598803109 
4.056968000445412e-05 
-0.0006672600933908874 
7.447789799001779e-05 
-0.001259271289583004 
0 
-0.0006672600933908874 
-7.447789799001779e-05 
-0.0004530115598803109 
-4.056968000445412e-05 
0.0002355215079178141 
0.001151361055178901 
-0.001740388988311546 
0.001634851821404391 
-0.003265506978568388 
0 
-0.001740388988311546 
-0.001634851821404391 
0.0002355215079178141 
-0.001151361055178901 
-0.001144164484853237 
0.001950857261527478 
-0.004428701336837693 
0.00148972902449886 
-0.006003982107680937 
0 
-0.004428701336837693 
-0.00148972902449886 
-0.001144164484853237 
-0.001950857261527478 
-0.0002000326745371079 
0.0006535832116958832 
-0.001109034862298201 
0.0004279124636142546 
-0.001195129668811885 
0 
-0.001109034862298201 
-0.0004279124636142546 
-0.0002000326745371079 
-0.0006535832116958832 
0.0005735092802482664 
0.0009709161405065763 
-0.0006966150184741491 
0.001473272478822268 
-0.001866723298371662 
0 
-0.0006966150184741491 
-0.001473272478822268 
0.0005735092802482664 
-0.0009709161405065763 
0.0004241688283907958 
0.0004305430948053789 
-0.0009095383130269389 
0.001311080310553573 
-0.002907194658049778 
0 
-0.0009095383130269389 
-0.001311080310553573 
0.0004241688283907958 
-0.0004305430948053789 
0.0005453044254423558 
0.0004292661344708992 
-0.0003766222976930474 
0.001580150296359029 
-0.002760513677262548 
0 
-0.0003766222976930474 
-0.001580150296359029 
0.0005453044254423558 
-0.0004292661344708992 
0.0001916518152992022 
0.0002566377807193089 
-0.0002420664682532649 
5.551924689633203e-05 
-7.132953945403345e-05 
0 
-0.0002420664682532649 
-5.551924689633203e-05 
0.0001916518152992022 
-0.0002566377807193089 
-0.0003321405185109731 
-0.0003497419039074129 
-0.0005092654705815228 
-0.0001580662669537461 
-0.0007199662053246597 
0 
-0.0005092654705815228 
0.0001580662669537461 
-0.0003321405185109731 
0.0003497419039074129 
-0.001257899945753632 
0.001390357114558776 
-0.003335420764368356 
0.0004444850519315244 
-0.003603378552916259 
0 
-0.003335420764368356 
-0.0004444850519315244 
-0.001257899945753632 
-0.001390357114558776 
-0.000590948625401803 
0.0004303253478007472 
-0.001170856797643844 
-0.0004172565222832806 
-0.0001678749822211877 
0 
-0.001170856797643844 
0.0004172565222832806 
-0.000590948625401803 
-0.0004303253478007472 
0.0001632613100971245 
0.0009810842716343926 
-0.001771549908070961 
0.001432564215807482 
-0.002868322615441307 
0 
-0.001771549908070961 
-0.001432564215807482 
0.0001632613100971245 
-0.0009810842716343926 
0.0005352955763735051 
0.001311073133294734 
-0.0003205848716051254 
0.0008927289256340469 
-0.0002559753636452766 
0 
-0.0003205848716051254 
-0.0008927289256340469 
0.0005352955763735051 
-0.001311073133294734 
-0.002502725951008057 
0.001491264803674626 
-0.005733609394318213 
0.0004089268568282797 
-0.00717793953960477 
0 
-0.005733609394318213 
-0.0004089268568282797 
-0.002502725951008057 
-0.001491264803674626 
-0.0002777151119768468 
0.0007339170432687979 
-0.0007882492472687203 
0.0005092542500900568 
-0.0009127234213446233 
0 
-0.0007882492472687203 
-0.0005092542500900568 
-0.0002777151119768468 
-0.0007339170432687979 
-0.0007948010222967456 
0.001695976797787469 
-0.002652044006431095 
0.001164019042714839 
-0.003660768551408978 
0 
-0.002652044006431095 
-0.001164019042714839 
-0.0007948010222967456 
-0.001695976797787469 
-0.0003126387176781869 
0.002223135589013989 
-0.003771386811915094 
0.001853600420144038 
-0.004792615874784173 
0 
-0.003771386811915094 
-0.001853600420144038 
-0.0003126387176781869 
-0.002223135589013989 
-0.0007577036176281103 
0.003170233226072022 
-0.006492600780816634 
0.003172079120900219 
-0.009264063844853726 
0 
-0.006492600780816634 
-0.003172079120900219 
-0.0007577036176281103 
-0.003170233226072022 
-0.001526303635317317 
0.002873199191441408 
-0.006888199868470262 
0.002928318458221039 
-0.01005740630326117 
0 
-0.006888199868470262 
-0.002928318458221039 
-0.001526303635317317 
-0.002873199191441408 
0.0001505434818112531 
0.002299827578393385 
-0.002813797574007787 
0.001554536507411778 
-0.002812019339828437 
0 
-0.002813797574007787 
-0.001554536507411778 
0.0001505434818112531 
-0.002299827578393385 
-0.0006805540679403157 
0.0009271448478458599 
-0.002138944806868766 
0.0002902530701750175 
-0.002010677570522318 
0 
-0.002138944806868766 
-0.0002902530701750175 
-0.0006805540679403157 
-0.0009271448478458599 
-0.001001166894651336 
-0.0001187421144004916 
-0.001170872372467765 
-6.451487700322099e-05 
-0.002143120727697243 
0 
-0.001170872372467765 
6.451487700322099e-05 
-0.001001166894651336 
0.0001187421144004916 
0.001593713779291483 
0.0009088344451069974 
0.002349634527091214 
0.001786747543895196 
0.002197719250208352 
0 
0.002349634527091214 
-0.001786747543895196 
0.001593713779291483 
-0.0009088344451069974 
-0.002132741733706273 
0.00261478221864307 
-0.006308385929918699 
0.001567533792261647 
-0.008158809416322448 
0 
-0.006308385929918699 
-0.001567533792261647 
-0.002132741733706273 
-0.00261478221864307 
-0.0008772559910728893 
0.00151061848552511 
-0.003187217713879785 
0.001104936518414526 
-0.004454366597245253 
0 
-0.003187217713879785 
-0.001104936518414526 
-0.0008772559910728893 
-0.00151061848552511 
-0.000791258150010178 
0.001432703316563373 
-0.00403023438128675 
0.001075849744675534 
-0.004905102994304761 
0 
-0.00403023438128675 
-0.001075849744675534 
-0.000791258150010178 
-0.001432703316563373 
-0.001042794883813994 
0.001378703827517499 
-0.004075134185533464 
0.001511241353102422 
-0.006120727842751303 
0 
-0.004075134185533464 
-0.001511241353102422 
-0.001042794883813994 
-0.001378703827517499 
0.001050192968606763 
0.001018074260445407 
-0.0007890874128888464 
0.001990974636427693 
-0.002145833825658887 
0 
-0.0007890874128888464 
-0.001990974636427693 
0.001050192968606763 
-0.001018074260445407 
0.0008367067971864606 
0.0006771756654380736 
0.0002450004959492323 
0.001195359643083374 
-0.0006055487488830059 
0 
0.0002450004959492323 
-0.001195359643083374 
0.0008367067971864606 
-0.0006771756654380736 
-0.001735475540005575 
0.0004841413458870384 
-0.002760905984626287 
-1.757132029103133e-05 
-0.003527137294568365 
0 
-0.002760905984626287 
1.757132029103133e-05 
-0.001735475540005575 
-0.0004841413458870384 
0.003997042482921668 
0.0004107654864429592 
0.006569841342143379 
0.001839598656735661 
0.007585930082949392 
0 
0.006569841342143379 
-0.001839598656735661 
0.003997042482921668 
-0.0004107654864429592 
-0.001164759592783683 
0.000379045436754453 
-0.002780407717750493 
0.0003024356266902214 
-0.004232781204452927 
0 
-0.002780407717750493 
-0.0003024356266902214 
-0.001164759592783683 
-0.000379045436754453 
-0.001321535341249778 
0.002171788593400499 
-0.004330072220898787 
0.0006224351464737661 
-0.003640506311105924 
0 
-0.004330072220898787 
-0.0006224351464737661 
-0.001321535341249778 
-0.002171788593400499 
-0.0009569158586161895 
0.001928943340404386 
-0.004412516072257323 
0.001715521562824899 
-0.005798105710019675 
0 
-0.004412516072257323 
-0.001715521562824899 
-0.0009569158586161895 
-0.001928943340404386 
-0.001204307752914706 
0.001937206668384745 
-0.004564245138107725 
0.00120109694777192 
-0.00574689810730243 
0 
-0.004564245138107725 
-0.00120109694777192 
-0.001204307752914706 
-0.001937206668384745 
-7.630957927946649e-05 
0.0009120306549462272 
-0.002083565999268436 
0.001395074803309539 
-0.003715456795175215 
0 
-0.002083565999268436 
-0.001395074803309539 
-7.630957927946649e-05 
-0.0009120306549462272 
-0.000300688143288161 
0.000854916199738941 
-0.001450127327720968 
0.0007734766856045439 
-0.001963616593992423 
0 
-0.001450127327720968 
-0.0007734766856045439 
-0.000300688143288161 
-0.000854916199738941 
-0.002424793252111753 
0.0008554484516693949 
-0.004525798384837279 
0.0006012550324579713 
-0.006924406707371131 
0 
-0.004525798384837279 
-0.0006012550324579713 
-0.002424793252111753 
-0.0008554484516693949 
-0.0003522026776207129 
0.001352320585916157 
-0.001651482614969995 
0.001559059752497964 
-0.00302912415957531 
0 
-0.001651482614969995 
-0.001559059752497964 
-0.0003522026776207129 
-0.001352320585916157 
-0.00177506495953834 
0.0007906650703536353 
-0.003358597916620836 
0.0003698982195346749 
-0.004587795818983554 
0 
-0.003358597916620836 
-0.0003698982195346749 
-0.00177506495953834 
-0.0007906650703536353 
-0.001105890221902965 
0.001999176311999968 
-0.003195152576306621 
0.0008801028292815918 
-0.003229256969189121 
0 
-0.003195152576306621 
-0.0008801028292815918 
-0.001105890221902965 
-0.001999176311999968 
-0.00274778064656874 
0.001092498665869341 
-0.004431905125729279 
-0.00103337017702023 
-0.003199708099057166 
0 
-0.004431905125729279 
0.00103337017702023 
-0.00274778064656874 
-0.001092498665869341 
-0.001806706434744289 
0.001235408675328171 
-0.003769239355819641 
-0.0002950296559952107 
-0.003221079795596321 
0 
-0.003769239355819641 
0.0002950296559952107 
-0.001806706434744289 
-0.001235408675328171 
-0.0008160736486804316 
0.0006360404964832581 
-0.00181603789895609 
-0.0001032721145148161 
-0.001298718230227189 
0 
-0.00181603789895609 
0.0001032721145148161 
-0.0008160736486804316 
-0.0006360404964832581 
-0.0004756425297303712 
6.296428230902372e-05 
-0.0007940962526050906 
0.0001576357348122793 
-0.001080451650138812 
0 
-0.0007940962526050906 
-0.0001576357348122793 
-0.0004756425297303712 
-6.296428230902372e-05 
-4.437432050192051e-05 
-0.0002857542037459251 
0.0005785711015122467 
3.453217308493113e-05 
0.0001589670493056498 
0 
0.0005785711015122467 
-3.453217308493113e-05 
-4.437432050192051e-05 
0.0002857542037459251 
-0.0008947233015312468 
0.0001505409436337535 
-0.001412300634314234 
-0.0001724829862986333 
-0.001612943658442223 
0 
-0.001412300634314234 
0.0001724829862986333 
-0.0008947233015312468 
-0.0001505409436337535 
3.330274686588278e-05 
0.001419103105469129 
-0.002254935834897027 
0.001675207902471031 
-0.003833304913325357 
0 
-0.002254935834897027 
-0.001675207902471031 
3.330274686588278e-05 
-0.001419103105469129 
0.0004166414546885024 
0.001683519038374897 
-0.00301492128525738 
0.002623319920871735 
-0.005491133749900894 
0 
-0.00301492128525738 
-0.002623319920871735 
0.0004166414546885024 
-0.001683519038374897 
-0.001446924655512601 
0.001927182075013716 
-0.005384894603768874 
0.002682459359235448 
-0.009482098898640568 
0 
-0.005384894603768874 
-0.002682459359235448 
-0.001446924655512601 
-0.001927182075013716 
-0.001650565503926269 
0.002326337881832661 
-0.006667960521848645 
0.002064506855086681 
-0.009063512855510757 
0 
-0.006667960521848645 
-0.002064506855086681 
-0.001650565503926269 
-0.002326337881832661 
0.0001631235882127407 
0.001985864422173317 
-0.002833462569417004 
0.002183692131749094 
-0.004698355309281179 
0 
-0.002833462569417004 
-0.002183692131749094 
0.0001631235882127407 
-0.001985864422173317 
-0.001111292189155918 
0.002166431843149595 
-0.00476103636639561 
0.001742653127197939 
-0.006514277995519187 
0 
-0.00476103636639561 
-0.001742653127197939 
-0.001111292189155918 
-0.002166431843149595 
0.002935244487206976 
0.001176451230756155 
0.003390934500131148 
0.002603311707164041 
0.003133733820471801 
0 
0.003390934500131148 
-0.002603311707164041 
0.002935244487206976 
-0.001176451230756155 
0.003634178975302139 
0.001272144174540835 
0.004338457697867109 
0.002685149196680206 
0.004431261371197606 
0 
0.004338457697867109 
-0.002685149196680206 
0.003634178975302139 
-0.001272144174540835 
-0.0004840294629049251 
0.001421337760221332 
-0.002774166756615353 
0.001663581152391913 
-0.004716692513380249 
0 
-0.002774166756615353 
-0.001663581152391913 
-0.0004840294629049251 
-0.001421337760221332 
-0.00171442275121212 
0.001899968806849542 
-0.004142148177452687 
0.0002283828799362063 
-0.003860217204778435 
0 
-0.004142148177452687 
-0.0002283828799362063 
-0.00171442275121212 
-0.001899968806849542 
-0.001851484867959507 
0.001469631549853785 
-0.004765375127547241 
0.001206779063115942 
-0.007123572686424658 
0 
-0.004765375127547241 
-0.001206779063115942 
-0.001851484867959507 
-0.001469631549853785 
-0.001348503212263362 
0.001901218284478613 
-0.004654034123414525 
0.00126914100982318 
-0.006019891765434476 
0 
-0.004654034123414525 
-0.00126914100982318 
-0.001348503212263362 
-0.001901218284478613 
-0.0009536051932314691 
0.001397216486815838 
-0.004023804483438182 
0.001330739588506075 
-0.005368567830184919 
0 
-0.004023804483438182 
-0.001330739588506075 
-0.0009536051932314691 
-0.001397216486815838 
-0.0002966332524584739 
0.002547939254337546 
-0.004902745103262852 
0.003049860929731258 
-0.007859494530832607 
0 
-0.004902745103262852 
-0.003049860929731258 
-0.0002966332524584739 
-0.002547939254337546 
-0.00236923155488242 
0.001320059201356947 
-0.003272710432365494 
-0.0004083462861622948 
-0.002616010990357249 
0 
-0.003272710432365494 
0.0004083462861622948 
-0.00236923155488242 
-0.001320059201356947 
0.002207845387353201 
-0.0008562087992238267 
0.003864774536480317 
0.0002175954460068837 
0.004422791492376452 
0 
0.003864774536480317 
-0.0002175954460068837 
0.002207845387353201 
0.0008562087992238267 
-4.971960833904697e-05 
0.0009736738827682682 
-0.001306496941894426 
0.0004956829151522886 
-0.0009842238680518561 
0 
-0.001306496941894426 
-0.0004956829151522886 
-4.971960833904697e-05 
-0.0009736738827682682 
0.0008869462646716808 
0.0007767455700146344 
-0.0005181186553148075 
0.001471482649878227 
-0.0008226531149391059 
0 
-0.0005181186553148075 
-0.001471482649878227 
0.0008869462646716808 
-0.0007767455700146344 
-0.00219734207501185 
0.001600901258430457 
-0.005996024278273632 
0.001109882006890607 
-0.007748833011994338 
0 
-0.005996024278273632 
-0.001109882006890607 
-0.00219734207501185 
-0.001600901258430457 
-0.0008345975616970743 
0.003068609129762155 
-0.00658986678290522 
0.003382088945010633 
-0.009833928998267931 
0 
-0.00658986678290522 
-0.003382088945010633 
-0.0008345975616970743 
-0.003068609129762155 
-0.0004043358987760604 
0.002022013759812293 
-0.004542340137321529 
0.002470727081804947 
-0.006622675478350941 
0 
-0.004542340137321529 
-0.002470727081804947 
-0.0004043358987760604 
-0.002022013759812293 
-0.0001759146728041721 
0.001943976938484062 
-0.003348380449198927 
0.00243928174074781 
-0.005782508762963942 
0 
-0.003348380449198927 
-0.00243928174074781 
-0.0001759146728041721 
-0.001943976938484062 
0.0007613766656959671 
0.0003766616557695371 
0.0003358320100816074 
0.000866414245605246 
-0.0002036934233020675 
0 
0.0003358320100816074 
-0.000866414245605246 
0.0007613766656959671 
-0.0003766616557695371 
-0.0003128662141233328 
7.574338482913577e-05 
-0.0007509906439419635 
-0.0001349434400935423 
-0.000666216228170466 
0 
-0.0007509906439419635 
0.0001349434400935423 
-0.0003128662141233328 
-7.574338482913577e-05 
-0.0001382116788252712 
0.0007389467469473747 
-0.002304905807745652 
0.0008946995065401053 
-0.002773946260741633 
0 
-0.002304905807745652 
-0.0008946995065401053 
-0.0001382116788252712 
-0.0007389467469473747 
0.0009055365640709718 
0.001514378524113018 
-0.002153199562688299 
0.002822214919919775 
-0.004630075863760541 
0 
-0.002153199562688299 
-0.002822214919919775 
0.0009055365640709718 
-0.001514378524113018 
-0.0005313496284001106 
0.00162068503036764 
-0.003983762015400885 
0.002303507936478604 
-0.006580766204964162 
0 
-0.003983762015400885 
-0.002303507936478604 
-0.0005313496284001106 
-0.00162068503036764 
-0.001630632926560001 
0.001844865511823157 
-0.005902417687501556 
0.001681044459253391 
-0.008023528924291484 
0 
-0.005902417687501556 
-0.001681044459253391 
-0.001630632926560001 
-0.001844865511823157 
-0.000151790958895738 
0.0004275097377540679 
-0.00182885774133492 
0.0009296741847811449 
-0.002701802654854395 
0 
-0.00182885774133492 
-0.0009296741847811449 
-0.000151790958895738 
-0.0004275097377540679 
-0.002741226020682416 
0.0008446967389359732 
-0.005118240084949864 
-0.0003361975451176796 
-0.005705131955605563 
0 
-0.005118240084949864 
0.0003361975451176796 
-0.002741226020682416 
-0.0008446967389359732 
0.002972251610664961 
0.0006211760913575287 
0.005139542986722835 
0.001771439814610776 
0.005952278984103738 
0 
0.005139542986722835 
-0.001771439814610776 
0.002972251610664961 
-0.0006211760913575287 
0.002626816523135913 
0.0007603711483251361 
0.002714076344004686 
0.002014227803094893 
0.002187849604178196 
0 
0.002714076344004686 
-0.002014227803094893 
0.002626816523135913 
-0.0007603711483251361 
0.001733079326001887 
0.001066716221115969 
-0.0001848186211445018 
0.002430274518591854 
-0.002339955155780542 
0 
-0.0001848186211445018 
-0.002430274518591854 
0.001733079326001887 
-0.001066716221115969 
0.001020730659240698 
0.000592684241775065 
-0.001449204491327595 
0.002505021387589053 
-0.004429856339289675 
0 
-0.001449204491327595 
-0.002505021387589053 
0.001020730659240698 
-0.000592684241775065 
-0.002737266867606363 
-0.0001874112453569944 
-0.004598017696112943 
-0.001058155177040495 
-0.00523032376696363 
0 
-0.004598017696112943 
0.001058155177040495 
-0.002737266867606363 
0.0001874112453569944 
-0.001087157774977621 
0.00122374128997391 
-0.003838880216333598 
0.001222272792077708 
-0.005308984415478511 
0 
-0.003838880216333598 
-0.001222272792077708 
-0.001087157774977621 
-0.00122374128997391 
0.001071048934777465 
0.001199307840246932 
-0.0008669354934695692 
0.001623571265268232 
-0.001743696412608871 
0 
-0.0008669354934695692 
-0.001623571265268232 
0.001071048934777465 
-0.001199307840246932 
-0.001268926795178195 
0.002033949902690139 
-0.004216615914226817 
0.001237943089039659 
-0.005298788372786283 
0 
-0.004216615914226817 
-0.001237943089039659 
-0.001268926795178195 
-0.002033949902690139 
-0.001080642907519615 
-0.0006305865407977188 
-0.001072344338209774 
-0.0006505136027161278 
-0.001550812749330277 
0 
-0.001072344338209774 
0.0006505136027161278 
-0.001080642907519615 
0.0006305865407977188 
6.637487921011605e-05 
-0.0001070198583807844 
0.0003386337934772918 
0.0002159308244484957 
-0.0001300553541405757 
0 
0.0003386337934772918 
-0.0002159308244484957 
6.637487921011605e-05 
0.0001070198583807844 
-0.0001056680120611554 
0.0008003812277295446 
-0.001649285458643214 
0.0010799578651808 
-0.002895476409780217 
0 
-0.001649285458643214 
-0.0010799578651808 
-0.0001056680120611554 
-0.0008003812277295446 
-0.0005739563972335752 
0.00109416106572708 
-0.002087317712558578 
0.0005143350455344124 
-0.002281121830635671 
0 
-0.002087317712558578 
-0.0005143350455344124 
-0.0005739563972335752 
-0.00109416106572708 
-0.001103974995505086 
0.001735671874591611 
-0.00349806355289561 
0.0005767214809057047 
-0.003575452577031254 
0 
-0.00349806355289561 
-0.0005767214809057047 
-0.001103974995505086 
-0.001735671874591611 
-0.000276016577810422 
0.0004218864701457066 
-0.001556434388508323 
0.0005334869108185374 
-0.0024321238470084 
0 
-0.001556434388508323 
-0.0005334869108185374 
-0.000276016577810422 
-0.0004218864701457066 
-0.0006038271762470572 
0.0009924816769888017 
-0.002733852956904456 
0.0009379620417497836 
-0.003661498401477844 
0 
-0.002733852956904456 
-0.0009379620417497836 
-0.0006038271762470572 
-0.0009924816769888017 
-0.0004577043438178919 
1.58446924783863e-05 
-0.001150918552689809 
-0.0001988791859055973 
-0.0009811724298340728 
0 
-0.001150918552689809 
0.0001988791859055973 
-0.0004577043438178919 
-1.58446924783863e-05 
0.001377472989980159 
0.0003974624919471064 
0.00201145876948947 
0.00103376535723262 
0.002033518175133164 
0 
0.00201145876948947 
-0.00103376535723262 
0.001377472989980159 
-0.0003974624919471064 
0.0003068630728059041 
0.0007177408642602416 
-0.001333904465357984 
0.001841273994537002 
-0.003730108965920335 
0 
-0.001333904465357984 
-0.001841273994537002 
0.0003068630728059041 
-0.0007177408642602416 
-0.0006239385555086103 
0.0003969251735538751 
-0.0009791350438310719 
9.476084191436119e-05 
-0.001614014191674809 
0 
-0.0009791350438310719 
-9.476084191436119e-05 
-0.0006239385555086103 
-0.0003969251735538751 
-6.36002436744707e-05 
0.0008782338412733203 
-0.001599157825398115 
0.001373103776256957 
-0.003278565687683301 
0 
-0.001599157825398115 
-0.001373103776256957 
-6.36002436744707e-05 
-0.0008782338412733203 
0.000338643330767842 
-0.001401225098409948 
0.001250898557429355 
-0.0006459809563253799 
0.001258698217926634 
0 
0.001250898557429355 
0.0006459809563253799 
0.000338643330767842 
0.001401225098409948 
-0.0004738845475128418 
2.377949780307418e-05 
-0.0009719155271068622 
-0.0001230957405666879 
-0.0009036109653954491 
0 
-0.0009719155271068622 
0.0001230957405666879 
-0.0004738845475128418 
-2.377949780307418e-05 
0.001280197702972735 
0.0004100180271105235 
0.0007235987258065252 
0.001158905448609278 
5.306979574038147e-05 
0 
0.0007235987258065252 
-0.001158905448609278 
0.001280197702972735 
-0.0004100180271105235 
0.0001005735923141399 
0.0004746598580699564 
-0.0007660841387657443 
0.0006082506133921988 
-0.001319425354667566 
0 
-0.0007660841387657443 
-0.0006082506133921988 
0.0001005735923141399 
-0.0004746598580699564 
0.0008027449047465519 
0.0006862915622679394 
0.0004600860105777936 
0.001405221663214842 
-0.0007032964657942651 
0 
0.0004600860105777936 
-0.001405221663214842 
0.0008027449047465519 
-0.0006862915622679394 
0.0008537306809464016 
-0.001209110515950549 
0.001144536604121538 
0.0001539508609033921 
-0.0004493221065190216 
0 
0.001144536604121538 
-0.0001539508609033921 
0.0008537306809464016 
0.001209110515950549 
-0.0005588502483765896 
-0.0006263869736166631 
-0.0002530893894619838 
-0.0005275659338432451 
-0.0004710327674266917 
0 
-0.0002530893894619838 
0.0005275659338432451 
-0.0005588502483765896 
0.0006263869736166631 
0.001043412480300071 
-0.0007388493584099812 
0.001823411619897273 
9.306309210886337e-06 
0.00190738577040702 
0 
0.001823411619897273 
-9.306309210886337e-06 
0.001043412480300071 
0.0007388493584099812 
-4.284514024149368e-05 
0.0005462053407929499 
-0.001096835819915789 
0.0003805859339326954 
-0.001006252607130592 
0 
-0.001096835819915789 
-0.0003805859339326954 
-4.284514024149368e-05 
-0.0005462053407929499 
4.438489605917333e-05 
